/*!
 * The following copyright notice may not be removed under any circumstances.
 * 
 * Copyright:
 * Copyright (c) 2005 by BV Fonts. All rights reserved.
 * 
 * Trademark:
 * Spin Cycle OT is a trademark of BV Fonts.
 * 
 * Description:
 * Copyright (c) 2005 by BV Fonts. All rights reserved.
 * 
 * Manufacturer:
 * BV Fonts
 * 
 * Designer:
 * Jess Latham
 */
Cufon.registerFont({"w":652,"face":{"font-family":"Spin Cycle OT","font-weight":400,"font-stretch":"normal","units-per-em":"1000","panose-1":"2 0 0 0 0 0 0 0 0 0","ascent":"750","descent":"-250","x-height":"21","bbox":"1 -748 1148.07 453","underline-thickness":"50","underline-position":"-50","unicode-range":"U+0020-U+2122"},"glyphs":{" ":{"w":325},"!":{"d":"227,-632r-16,410r-159,0r-16,-410r191,0xm25,-78v0,-55,47,-101,101,-101v55,0,101,47,101,101v0,53,-47,101,-101,101v-54,0,-101,-48,-101,-101","w":252},"\"":{"d":"41,-317r-16,-300r190,0r-16,300r-158,0xm329,-319r-16,-299r190,0r-16,299r-158,0","w":528},"#":{"d":"657,-617r-36,100r78,0r-46,127r-78,0r-54,148r78,0r-46,127r-78,0r-36,99r-127,0r36,-99r-127,0r-36,99r-127,0r36,-99r-69,0r46,-127r69,0r54,-148r-78,0r46,-127r79,0r36,-100r127,0r-37,100r127,0r36,-100r127,0xm394,-242r54,-148r-127,0r-54,148r127,0","w":724},"$":{"d":"25,-398v0,-74,51,-137,125,-135r30,0r0,-94r111,0r0,94r87,0r0,112r-228,0v-9,0,-14,4,-14,13v0,16,5,24,14,24r138,0v67,-2,125,58,125,125v0,73,-50,134,-122,134r0,119r-111,0r0,-119r-119,0r0,-111r227,0v7,0,14,-7,14,-14v0,-15,-5,-23,-14,-23r-138,0v-67,2,-125,-59,-125,-125","w":438},"%":{"d":"509,-199v-3,-108,93,-201,201,-201v108,0,201,93,201,201v0,107,-94,201,-201,201r-278,0v-67,1,-127,-43,-125,-110v0,-23,7,-47,20,-70r185,-331v3,-5,4,-9,5,-12v-25,-5,-61,-1,-90,-2r0,90v3,108,-93,201,-201,201v-108,0,-201,-93,-201,-201v0,-108,93,-201,201,-201r278,0v67,-1,126,42,124,110v0,24,-6,47,-19,69r-185,331v-3,7,-5,11,-5,13v27,5,60,1,90,2r0,-90xm226,-343v48,0,90,-42,90,-90r0,-90r-90,0v-49,-1,-90,42,-90,90v0,48,42,90,90,90xm710,-289v-49,0,-90,42,-90,90r0,90r90,0v48,1,90,-42,90,-90v0,-48,-42,-90,-90,-90","w":936},"&":{"d":"215,-237v-17,-1,-31,15,-31,32v0,31,10,46,31,46r222,0v17,0,33,-14,32,-31r0,-63v-2,-76,67,-145,142,-143r65,0r0,159r-49,0r0,47v3,101,-88,190,-190,190r-222,0v-101,3,-192,-89,-190,-190v2,-99,46,-166,123,-193v-13,-12,-29,-20,-39,-34v-22,-31,-35,-61,-35,-94v-2,-76,66,-123,141,-122r333,0r0,159r-258,0r73,56v32,26,48,55,48,87v2,59,-52,95,-110,94r-86,0","w":701},"'":{"d":"41,-317r-16,-300r190,0r-16,300r-158,0","w":240},"(":{"d":"353,20v-178,5,-328,-158,-328,-336v0,-179,150,-341,328,-337r0,159v-94,-3,-169,84,-169,178v0,93,75,180,169,177r0,159","w":378},")":{"d":"25,-653v178,-4,328,158,328,337v0,178,-150,341,-328,336r0,-159v94,3,169,-84,169,-177v0,-94,-75,-181,-169,-178r0,-159","w":378},"*":{"d":"263,-546v-4,-56,36,-96,87,-96v51,-1,93,42,87,96r-15,143r131,-59v81,-39,161,66,103,136v-13,16,-29,25,-50,30r-140,29r96,106v15,17,23,36,23,59v1,47,-43,88,-89,88v-33,0,-57,-15,-74,-45r-72,-124r-71,125v-17,29,-42,44,-75,44v-47,0,-91,-41,-89,-88v0,-22,8,-42,23,-59r97,-106r-141,-29v-37,-8,-69,-41,-69,-84v0,-60,61,-111,123,-82r131,59","w":701},"+":{"d":"358,-570r0,174r175,0r0,159r-175,0r0,174r-159,0r0,-174r-174,0r0,-159r174,0r0,-174r159,0","w":558},",":{"d":"25,-86v-1,-55,47,-102,101,-101v117,1,119,171,62,249v-27,36,-59,68,-104,91r-16,-22v45,-41,67,-72,67,-95v0,-11,-8,-18,-23,-22v-47,-12,-86,-44,-87,-100","w":251},"-":{"d":"25,-396r360,0r0,159r-360,0r0,-159","w":410},".":{"d":"25,-87v0,-53,47,-101,101,-101v54,0,101,48,101,101v0,55,-47,101,-101,101v-55,0,-101,-47,-101,-101","w":252},"\/":{"d":"25,-1r221,-631r170,0r-223,631r-168,0","w":441},"0":{"d":"25,-313v0,-177,149,-334,326,-334v177,0,325,157,325,334v0,176,-148,334,-325,334v-177,0,-326,-158,-326,-334xm182,-313v0,92,77,176,169,176v92,0,168,-84,168,-176v0,-93,-75,-177,-168,-177v-93,0,-169,84,-169,177","w":701},"1":{"d":"341,0r-150,-418v-13,-34,-24,-58,-66,-58r-100,0r0,-157r99,0v99,0,187,84,215,162r168,471r-166,0","w":532},"2":{"d":"437,-396v17,0,33,-14,32,-31v0,-31,-11,-47,-32,-47r-372,0r0,-159r372,0v107,0,190,90,190,206v0,101,-88,190,-190,190r-222,0v-13,0,-23,2,-31,5r0,73r404,0r0,159r-563,0r0,-253v-4,-92,100,-144,190,-143r222,0"},"3":{"d":"397,-396v17,0,33,-14,32,-31v0,-31,-11,-47,-32,-47r-372,0r0,-159r372,0v102,-3,191,89,191,191v0,51,-12,93,-36,126v27,38,36,74,36,126v0,101,-89,190,-191,190r-356,0r0,-159r356,0v17,0,33,-14,32,-31v0,-31,-11,-47,-32,-47r-158,0r0,-159r158,0","w":613},"4":{"d":"169,-121v-76,1,-146,-46,-144,-123v0,-31,11,-62,34,-93r224,-296r233,0r0,354r148,0r0,158r-148,0r0,121r-158,0r0,-121r-189,0xm358,-279r0,-190r-143,190r143,0","w":689},"5":{"d":"215,-237v-90,1,-190,-51,-190,-143r0,-253r523,0r0,159r-364,0r0,79r253,0v107,0,190,89,190,205v0,101,-88,190,-190,190r-372,0r0,-159r372,0v17,0,33,-14,32,-31v0,-31,-11,-47,-32,-47r-222,0"},"6":{"d":"215,-474v-17,-1,-31,15,-31,32r0,46r253,0v107,0,190,90,190,206v0,101,-88,190,-190,190r-222,0v-101,3,-190,-89,-190,-190r0,-252v-3,-102,89,-191,190,-191r333,0r0,159r-333,0xm437,-159v22,-1,32,-19,32,-46v0,-17,-15,-33,-32,-32r-253,0r0,47v0,17,14,31,31,31r222,0"},"7":{"d":"358,-633v83,-1,155,58,153,141v0,23,-5,47,-17,73r-195,419r-175,0r220,-474r-319,0r0,-159r333,0","w":536},"8":{"d":"25,-427v0,-117,84,-206,190,-206r222,0v103,-3,190,89,190,191v0,51,-12,93,-36,126v27,38,36,74,36,126v0,101,-88,190,-190,190r-222,0v-101,3,-190,-89,-190,-190v0,-51,12,-93,36,-126v-24,-33,-36,-70,-36,-111xm215,-474v-22,1,-31,20,-31,47v0,17,14,31,31,31r222,0v22,-1,32,-19,32,-46v0,-17,-15,-33,-32,-32r-222,0xm437,-159v22,-1,32,-19,32,-46v0,-17,-15,-33,-32,-32r-222,0v-22,1,-31,20,-31,47v0,17,14,31,31,31r222,0"},"9":{"d":"25,-427v0,-117,84,-206,190,-206r222,0v103,-3,190,89,190,191r0,252v3,101,-88,190,-190,190r-333,0r0,-159r333,0v17,0,33,-14,32,-31r0,-47r-254,0v-101,3,-190,-89,-190,-190xm184,-442v0,27,8,46,31,46r254,0r0,-46v1,-17,-15,-33,-32,-32r-222,0v-17,-1,-31,15,-31,32"},":":{"d":"25,-87v0,-53,47,-101,101,-101v54,0,101,48,101,101v0,55,-47,101,-101,101v-55,0,-101,-47,-101,-101xm25,-420v0,-55,47,-101,101,-101v55,0,101,47,101,101v0,55,-47,101,-101,101v-55,0,-101,-47,-101,-101","w":252},";":{"d":"33,-86v-1,-54,48,-101,101,-101v64,0,102,57,101,121v-1,108,-64,180,-143,219r-15,-22v44,-40,66,-72,66,-95v0,-11,-8,-18,-23,-22v-47,-12,-86,-44,-87,-100xm227,-420v0,55,-47,101,-101,101v-55,0,-101,-47,-101,-101v0,-55,47,-101,101,-101v55,0,101,47,101,101","w":260},"<":{"d":"509,-224r0,170r-390,-149v-46,-17,-93,-55,-94,-113v0,-51,30,-91,92,-115r392,-155r0,170v-42,20,-243,74,-310,98v15,6,53,16,112,33v100,28,165,49,198,61","w":534},"=":{"d":"25,-352r0,-159r444,0r0,159r-444,0xm25,-130r0,-159r444,0r0,159r-444,0","w":494},">":{"d":"25,-54r0,-170v29,-14,250,-74,310,-94v-9,-3,-42,-14,-99,-31v-94,-27,-165,-49,-211,-67r0,-170r391,155v62,25,93,63,93,115v0,58,-48,96,-94,113","w":534},"?":{"d":"205,-202v55,0,101,47,101,101v0,55,-47,101,-101,101v-55,0,-101,-47,-101,-101v0,-55,47,-101,101,-101xm252,-640v83,-1,154,56,152,139v0,24,-6,49,-18,74r-93,192r-176,0r120,-247r-212,0r0,-158r227,0","w":429},"@":{"d":"25,-332v-5,-167,144,-314,310,-314v167,0,314,147,311,314v-3,136,-84,241,-185,287r-111,50r0,-131v-75,-4,-139,-77,-139,-156v0,-83,70,-160,153,-157r81,0v-30,-32,-67,-48,-110,-48v-82,0,-151,73,-151,155r0,329r-159,0r0,-329xm323,-285v0,24,21,45,45,45v25,0,45,-20,45,-45v0,-24,-21,-45,-45,-45v-23,0,-45,22,-45,45","w":671},"A":{"d":"25,-332v-5,-167,136,-316,301,-316v165,0,301,149,301,316r0,332r-158,0r0,-143r-285,0r0,143r-159,0r0,-332xm326,-490v-79,0,-145,77,-142,158r0,31r285,0r0,-31v3,-82,-64,-158,-143,-158"},"B":{"d":"627,-205v0,116,-83,205,-190,205r-412,0r0,-633r412,0v103,-3,190,89,190,191v0,51,-12,93,-36,126v24,33,36,70,36,111xm437,-159v17,0,33,-14,32,-31v0,-31,-11,-47,-32,-47r-158,0r0,-159r158,0v17,0,33,-14,32,-31v0,-31,-11,-47,-32,-47r-253,0r0,315r253,0"},"C":{"d":"326,0v-164,4,-301,-149,-301,-316v0,-167,136,-317,301,-317r222,0r0,159r-222,0v-79,-2,-142,77,-142,158v0,82,63,157,142,157r222,0r0,159r-222,0","w":573},"D":{"d":"627,-316v0,167,-137,316,-301,316r-301,0r0,-633r301,0v165,-4,301,150,301,317xm469,-316v0,-82,-64,-158,-143,-158r-142,0r0,315r142,0v79,2,143,-75,143,-157"},"E":{"d":"25,-316v0,-165,135,-317,301,-317r262,0r0,159r-262,0v-58,0,-101,37,-123,78r266,0r0,159r-266,0v21,42,65,77,123,78r262,0r0,159r-262,0v-166,5,-301,-151,-301,-316","w":613},"F":{"d":"25,-316v-4,-165,135,-317,301,-317r222,0r0,159r-222,0v-81,-2,-145,79,-142,162r295,0r0,159r-295,0r0,153r-159,0r0,-316","w":573},"G":{"d":"25,-316v0,-165,135,-317,301,-317r301,0r0,159r-301,0v-80,-3,-142,79,-142,158v0,79,62,157,142,157r143,0r0,-78r-148,0r0,-159r306,0r0,396r-301,0v-166,5,-301,-151,-301,-316"},"H":{"d":"184,-396r246,0r0,-237r159,0r0,633r-159,0r0,-237r-246,0r0,237r-159,0r0,-633r159,0r0,237","w":614},"I":{"d":"49,-633r159,0r0,633r-159,0r0,-633","w":257},"J":{"d":"234,-159v53,2,100,-47,100,-100r0,-375r158,0r0,375v4,139,-119,259,-258,259r-209,0r0,-159r209,0","w":517},"K":{"d":"15,1r0,-632r159,0r0,632r-159,0xm396,-334v12,29,35,129,66,162v26,28,95,11,144,15r0,158r-101,0v-100,0,-189,-84,-217,-164r-74,-212r194,-256r198,0","w":621},"L":{"d":"215,0v-103,3,-190,-87,-190,-190r0,-443r159,0r0,443v0,17,14,31,31,31r301,0r0,159r-301,0","w":541},"M":{"d":"25,-391v-4,-139,119,-259,258,-259v69,0,129,24,179,73v51,-49,110,-73,179,-73v139,0,259,120,259,259r0,391r-159,0r0,-391v2,-53,-47,-100,-100,-100v-53,0,-99,47,-99,100r0,391r-159,0r0,-391v2,-53,-47,-100,-100,-100v-53,0,-99,47,-99,100r0,391r-159,0r0,-391","w":925},"N":{"d":"25,-334v-4,-165,134,-315,299,-315v165,0,299,150,299,315r0,334r-157,0r0,-334v2,-79,-62,-157,-142,-157v-80,0,-142,78,-142,157r0,334r-157,0r0,-334","w":648},"O":{"d":"25,-313v0,-177,149,-334,326,-334v177,0,325,157,325,334v0,176,-148,334,-325,334v-177,0,-326,-158,-326,-334xm182,-313v0,92,77,176,169,176v92,0,168,-84,168,-176v0,-93,-75,-177,-168,-177v-93,0,-169,84,-169,177","w":701},"P":{"d":"613,-380v0,130,-106,247,-237,247r-194,0r0,133r-157,0r0,-628r351,0v131,-4,237,118,237,248xm456,-380v0,-44,-35,-91,-80,-91r-194,0r0,181r194,0v46,2,80,-45,80,-90","w":638},"Q":{"d":"25,-313v0,-176,149,-334,326,-334v177,0,325,158,325,334v0,158,-112,294,-246,324v-10,132,-97,228,-237,227r0,-157v52,-1,71,-22,78,-70v-134,-30,-246,-165,-246,-324xm182,-313v0,93,76,177,169,177v93,0,168,-84,168,-177v0,-92,-76,-176,-168,-176v-92,0,-169,84,-169,176","w":701},"R":{"d":"616,-422v0,105,-79,199,-175,208v15,37,37,55,66,55r100,0r0,159r-100,0v-100,0,-189,-85,-217,-164r-73,-206r197,0v25,1,44,-28,44,-52v0,-24,-19,-52,-44,-52r-240,0r0,474r-159,0r0,-633r399,0v111,-3,202,100,202,211","w":631},"S":{"d":"215,-475v-17,-1,-31,15,-31,32v0,31,10,46,31,46r222,0v107,0,190,90,190,205v0,102,-87,191,-190,191r-364,0r0,-159r364,0v17,1,33,-15,32,-32v0,-31,-11,-46,-32,-46r-222,0v-106,0,-190,-90,-190,-205v0,-102,89,-191,190,-191r365,0r0,159r-365,0"},"T":{"d":"25,-633r441,0r0,157r-142,0r0,476r-157,0r0,-476r-142,0r0,-157","w":491},"U":{"d":"182,-299v-2,79,62,156,142,156v80,0,142,-77,142,-156r0,-330r157,0r0,330v4,164,-135,314,-299,314v-164,0,-299,-150,-299,-314r0,-330r157,0r0,330","w":648},"V":{"d":"357,-224r156,-408r169,0r-209,551v-19,47,-54,93,-114,94v-52,0,-90,-31,-115,-92r-219,-553r171,0","w":707},"W":{"d":"542,-242v-1,53,46,100,99,100v53,0,100,-47,100,-100r0,-392r159,0r0,392v4,139,-120,258,-259,258v-69,0,-129,-24,-179,-72v-50,48,-110,72,-179,72v-138,0,-258,-120,-258,-258r0,-392r159,0r0,392v-1,53,46,100,99,100v53,0,100,-47,100,-100r0,-392r159,0r0,392","w":925},"X":{"d":"25,-632v128,1,234,62,291,143v57,-82,162,-142,290,-143r0,158v-89,-2,-188,67,-188,158v0,91,98,159,188,157r0,159v-127,-1,-234,-62,-290,-143v-58,81,-163,142,-291,143r0,-159v90,2,189,-66,189,-157v0,-91,-99,-160,-189,-158r0,-158","w":631},"Y":{"d":"436,-634r181,0r-180,338r-88,158v-36,69,-136,137,-234,138r-90,0r0,-159v53,-3,101,8,138,-14v17,-10,31,-20,41,-33r-185,-428r173,0r109,253v31,-55,76,-140,135,-253","w":642},"Z":{"d":"451,-633v77,0,151,36,151,115v0,38,-19,73,-56,106r-294,253r345,0r0,159r-420,0v-77,0,-152,-36,-152,-115v0,-37,19,-72,56,-105r294,-254r-345,0r0,-159r421,0","w":627},"[":{"d":"25,-633r244,0r0,159r-85,0r0,315r85,0r0,159r-244,0r0,-633","w":294},"\\":{"d":"195,-632r221,631r-168,0r-223,-631r170,0","w":441},"]":{"d":"25,-633r244,0r0,633r-244,0r0,-159r86,0r0,-315r-86,0r0,-159","w":294},"^":{"d":"533,-78r-170,0v-16,-36,-78,-265,-94,-310v-5,12,-16,44,-31,98v-28,97,-50,168,-67,212r-170,0r155,-392v25,-61,64,-92,115,-92v58,0,96,48,113,94","w":534},"_":{"d":"25,294r540,0r0,159r-540,0r0,-159","w":505},"`":{"d":"128,-608r74,66r-70,0r-107,-66r103,0","w":227},"a":{"d":"397,-396v-12,-42,-27,-78,-75,-78r-243,0r0,-159r243,0v100,0,189,86,217,165r164,468r-168,0r-83,-237r-237,0v-17,-1,-31,15,-31,32v0,31,10,46,31,46r222,0r0,159r-222,0v-106,0,-190,-90,-190,-205v0,-102,89,-191,190,-191r182,0","w":728},"b":{"d":"627,-205v0,116,-83,205,-190,205r-412,0r0,-633r412,0v103,-3,190,89,190,191v0,51,-12,93,-36,126v24,33,36,70,36,111xm437,-159v17,0,33,-14,32,-31v0,-31,-11,-47,-32,-47r-158,0r0,-159r158,0v17,0,33,-14,32,-31v0,-31,-11,-47,-32,-47r-253,0r0,315r253,0"},"c":{"d":"317,0v-164,4,-301,-149,-301,-316v0,-167,136,-317,301,-317r222,0r0,159r-222,0v-79,-2,-142,77,-142,158v0,82,63,157,142,157r222,0r0,159r-222,0","w":573},"d":{"d":"627,-316v0,167,-137,316,-301,316r-301,0r0,-633r301,0v165,-4,301,150,301,317xm469,-316v0,-82,-64,-158,-143,-158r-142,0r0,315r142,0v79,2,143,-75,143,-157"},"e":{"d":"335,0v-168,5,-310,-150,-310,-318v0,-168,142,-323,310,-318r136,0v99,-3,187,86,184,184r0,29v3,98,-85,185,-184,185r-210,0r0,-159r210,0v22,0,26,-19,26,-45v0,-20,-6,-36,-26,-36r-136,0v-84,-3,-151,76,-151,160v0,82,69,159,151,159r299,0r0,159r-299,0","w":680},"f":{"d":"624,-474r-110,0v-30,0,-69,34,-78,59r-15,42r88,0r0,158r-147,0v-24,69,-49,127,-107,169v-42,30,-84,46,-129,46r-101,0r0,-159r101,0v25,-2,59,-35,68,-59r94,-252v28,-83,123,-162,226,-163r110,0r0,159","w":649},"g":{"d":"25,-316v0,-165,135,-317,301,-317r301,0r0,159r-301,0v-80,-3,-142,79,-142,158v0,79,62,157,142,157r143,0r0,-78r-148,0r0,-159r306,0r0,396r-301,0v-166,5,-301,-151,-301,-316"},"h":{"d":"184,-396r246,0r0,-237r159,0r0,633r-159,0r0,-237r-246,0r0,237r-159,0r0,-633r159,0r0,237","w":614},"i":{"d":"114,-658v55,0,101,47,101,101v0,55,-47,101,-101,101v-55,0,-101,-47,-101,-101v0,-55,47,-101,101,-101xm193,-1r-158,0r0,-420r158,0r0,420","w":228},"j":{"d":"124,-157v43,-1,55,-23,67,-58r146,-418r166,0r-164,471v-25,80,-115,162,-215,162r-99,0r0,-157r99,0","w":528},"k":{"d":"312,-337v-25,120,102,152,203,171v30,5,58,7,83,7r0,159v-102,3,-194,-25,-268,-62v-71,-36,-143,-103,-146,-198r0,260r-159,0r0,-633r159,0r0,219r225,-219r199,0r-197,196","w":633},"l":{"d":"191,-633r145,418v14,34,25,58,67,58r100,0r0,157r-100,0v-98,0,-187,-84,-214,-162r-164,-471r166,0","w":528},"m":{"d":"25,-391v-4,-139,119,-259,258,-259v69,0,129,24,179,73v51,-49,110,-73,179,-73v139,0,259,120,259,259r0,391r-159,0r0,-391v2,-53,-47,-100,-100,-100v-53,0,-99,47,-99,100r0,391r-159,0r0,-391v2,-53,-47,-100,-100,-100v-53,0,-99,47,-99,100r0,391r-159,0r0,-391","w":925},"n":{"d":"25,-334v-4,-165,134,-315,299,-315v165,0,299,150,299,315r0,334r-157,0r0,-334v2,-79,-62,-157,-142,-157v-80,0,-142,78,-142,157r0,334r-157,0r0,-334","w":648},"o":{"d":"25,-313v0,-177,149,-334,326,-334v177,0,325,157,325,334v0,176,-148,334,-325,334v-177,0,-326,-158,-326,-334xm182,-313v0,92,77,176,169,176v92,0,168,-84,168,-176v0,-93,-75,-177,-168,-177v-93,0,-169,84,-169,177","w":701},"p":{"d":"613,-380v0,130,-106,247,-237,247r-194,0r0,133r-157,0r0,-628r351,0v131,-4,237,118,237,248xm456,-380v0,-44,-35,-91,-80,-91r-194,0r0,181r194,0v46,2,80,-45,80,-90","w":638},"q":{"d":"25,-313v0,-176,149,-334,326,-334v177,0,325,158,325,334v0,158,-112,294,-246,324v-10,132,-97,228,-237,227r0,-157v52,-1,71,-22,78,-70v-134,-30,-246,-165,-246,-324xm182,-313v0,93,76,177,169,177v93,0,168,-84,168,-177v0,-92,-76,-176,-168,-176v-92,0,-169,84,-169,176","w":701},"r":{"d":"403,-476v-42,1,-55,24,-67,58r-145,418r-166,0r164,-471v25,-80,115,-162,214,-162r100,0r0,157r-100,0","w":528},"s":{"d":"25,-157r100,0v26,1,59,-39,67,-59r94,-251v27,-81,122,-161,224,-161r110,0r0,157r-110,0v-31,-1,-68,35,-77,59r-93,251v-27,78,-117,161,-215,161r-100,0r0,-157","w":645},"t":{"d":"224,-539r168,0r0,159r-113,0r57,165v14,34,25,58,67,58r100,0r0,157r-100,0v-98,0,-187,-84,-214,-162r-164,-471r166,0","w":528},"u":{"d":"182,-299v-2,79,62,156,142,156v80,0,142,-77,142,-156r0,-330r157,0r0,330v4,164,-135,314,-299,314v-164,0,-299,-150,-299,-314r0,-330r157,0r0,330","w":648},"v":{"d":"357,-226r156,-408r169,0r-209,551v-19,47,-54,93,-114,94v-52,0,-90,-31,-115,-92r-219,-553r171,0","w":707},"w":{"d":"542,-242v-1,53,46,100,99,100v53,0,100,-47,100,-100r0,-392r159,0r0,392v4,139,-120,258,-259,258v-69,0,-129,-24,-179,-72v-50,48,-110,72,-179,72v-138,0,-258,-120,-258,-258r0,-392r159,0r0,392v-1,53,46,100,99,100v53,0,100,-47,100,-100r0,-392r159,0r0,392","w":925},"x":{"d":"25,-632v128,1,234,62,291,143v57,-82,162,-142,290,-143r0,158v-89,-2,-188,67,-188,158v0,91,98,159,188,157r0,159v-127,-1,-234,-62,-290,-143v-58,81,-163,142,-291,143r0,-159v90,2,189,-66,189,-157v0,-91,-99,-160,-189,-158r0,-158","w":631},"y":{"d":"436,-633r181,0r-180,337r-88,158v-36,69,-136,137,-234,138r-90,0r0,-159v53,-3,101,8,138,-14v17,-10,31,-20,41,-33r-185,-427r173,0r109,252","w":642},"z":{"d":"451,-633v77,0,151,36,151,115v0,38,-19,73,-56,106r-294,253r345,0r0,159r-420,0v-77,0,-152,-36,-152,-115v0,-37,19,-72,56,-105r294,-254r-345,0r0,-159r421,0","w":627},"{":{"d":"100,-513v-2,-66,59,-123,125,-123r136,0r0,158r-102,0r0,315r102,0r0,159r-136,0v-66,2,-125,-57,-125,-123r0,-91v0,-13,-12,-29,-26,-28r-49,0r0,-148r49,0v14,1,26,-16,26,-29r0,-90","w":386},"|":{"d":"25,-673r159,0r0,713r-159,0r0,-713","w":209},"}":{"d":"286,-127v2,66,-59,123,-125,123r-136,0r0,-159r102,0r0,-315r-102,0r0,-158r136,0v66,-2,125,57,125,123r0,90v0,13,12,30,26,29r49,0r0,148r-49,0v-14,-1,-26,15,-26,28r0,91","w":386},"~":{"d":"309,-376r60,40v-46,88,-101,112,-180,55v-56,-39,-64,-48,-101,6r-63,-36v40,-94,102,-119,182,-59v30,22,49,32,56,32v17,0,33,-13,46,-38","w":394},"\u00a0":{"w":0},"\u00a1":{"d":"26,23r16,-395r158,0r16,395r-190,0xm227,-516v0,54,-46,102,-101,102v-55,0,-101,-48,-101,-102v0,-53,47,-101,101,-101v54,0,101,48,101,101","w":252},"\u00a2":{"d":"25,-335v0,-95,67,-178,149,-194r0,-98r111,0r0,93r64,0r0,111r-134,0v-44,-2,-79,44,-79,88v0,44,35,88,79,88r134,0r0,111r-64,0r0,130r-111,0r0,-135v-82,-16,-149,-99,-149,-194","w":374},"\u00a3":{"d":"582,0r-557,0r0,-159r101,0v25,-2,59,-35,68,-59r94,-252v28,-83,123,-162,226,-163r110,0r0,159r-110,0v-30,0,-69,34,-78,59r-15,42r88,0r0,158r-147,0r-21,56r241,0r0,159","w":649},"\u00a5":{"d":"184,-553v-2,79,62,157,142,157v81,0,143,-77,143,-157r0,-80r158,0r0,80v0,143,-93,265,-208,300r109,0r0,80r-123,0r0,37r123,0r0,80r-123,0r0,54r-158,0r0,-54r-123,0r0,-80r123,0r0,-37r-123,0r0,-80r109,0v-115,-36,-208,-157,-208,-300r0,-80r159,0r0,80"},"\u00a6":{"d":"22,-384r0,-280r159,0r0,280r-159,0xm28,40r0,-280r159,0r0,280r-159,0","w":209},"\u00a7":{"d":"620,-563v48,-43,101,-65,158,-65r110,0r0,157r-110,0v-31,-1,-68,35,-77,59r-93,251v-27,78,-117,161,-215,161r-100,0r0,-84v-49,56,-105,84,-168,84r-100,0r0,-157r100,0v26,1,59,-39,67,-59r94,-251v27,-81,122,-161,224,-161r110,0r0,65xm338,-157v42,-1,69,7,94,-20v13,-14,23,-26,28,-39r95,-255v-41,0,-65,-4,-91,19v-15,13,-26,26,-31,40","w":913},"\u00a8":{"d":"25,-584v0,-21,17,-38,38,-38v21,0,38,17,38,38v0,21,-17,38,-38,38v-21,0,-38,-17,-38,-38xm132,-585v0,-21,17,-38,38,-38v21,0,38,17,38,38v0,21,-17,38,-38,38v-21,0,-38,-17,-38,-38","w":233},"\u00a9":{"d":"25,-327v0,-181,156,-337,337,-337v181,0,337,156,337,337v0,180,-157,337,-337,337v-181,0,-337,-156,-337,-337xm104,-327v0,138,120,257,258,257v138,0,258,-119,258,-257v0,-138,-120,-258,-258,-258v-138,0,-258,120,-258,258xm362,-169v-83,3,-151,-75,-151,-158v0,-83,68,-158,151,-158r111,0r0,79r-111,0v-39,-1,-71,40,-71,79v0,39,32,79,71,79r111,0r0,79r-111,0","w":724},"\u00aa":{"d":"211,-496v-7,-22,-12,-39,-37,-39r-148,0r0,-79r148,0v50,0,94,42,108,82r82,234r-84,0r-41,-119r-119,0v-8,0,-16,8,-16,16v0,16,5,24,16,24r111,0r0,79r-111,0v-53,0,-95,-45,-95,-103v0,-51,44,-95,95,-95r91,0","w":389},"\u00ab":{"d":"257,-633r-64,231v-12,35,-10,135,0,171r64,231r-165,0r-52,-188v-20,-72,-20,-184,0,-256r52,-189r165,0xm517,-633r-64,231v-12,35,-10,135,0,171r64,231r-165,0r-52,-188v-20,-72,-20,-184,0,-256r52,-189r165,0","w":542},"\u00ac":{"d":"379,-207v1,-17,-15,-33,-32,-32r-322,0r0,-158r322,0v102,-3,191,87,191,190r0,141r-159,0r0,-141","w":563},"\u00ad":{"d":"25,-396r360,0r0,159r-360,0r0,-159","w":410},"\u00ae":{"d":"25,-520v0,-61,52,-113,112,-113v60,0,112,52,112,113v0,60,-52,112,-112,112v-60,0,-112,-52,-112,-112xm41,-520v0,52,44,96,96,96v52,0,97,-44,97,-96v0,-52,-45,-97,-97,-97v-52,0,-96,45,-96,97xm191,-545v-1,31,-23,36,-58,34v6,21,27,32,62,32r0,16v-39,0,-65,-16,-78,-48r-15,0r0,47r-16,0r0,-111r74,0v16,-1,31,14,31,30xm102,-527v26,-3,73,11,73,-15v0,-11,-5,-17,-15,-17r-58,0r0,32","w":274},"\u00af":{"d":"64,-678r269,0r0,54r-269,0r0,-54","w":410},"\u00b0":{"d":"25,-578v0,-46,41,-86,87,-86v46,0,87,40,87,86v0,47,-40,87,-87,87v-47,0,-87,-40,-87,-87xm73,-578v0,22,18,40,39,40v21,0,39,-19,39,-40v0,-21,-18,-39,-39,-39v-21,0,-39,18,-39,39","w":224},"\u00b1":{"d":"263,-546v-4,-56,36,-96,87,-96v51,-1,93,42,87,96r-15,143r131,-59v81,-39,161,66,103,136v-13,16,-29,25,-50,30r-140,29r96,106v15,17,23,36,23,59v1,47,-43,88,-89,88v-33,0,-57,-15,-74,-45r-72,-124r-71,125v-17,29,-42,44,-75,44v-47,0,-91,-41,-89,-88v0,-22,8,-42,23,-59r97,-106r-141,-29v-37,-8,-69,-41,-69,-84v0,-60,61,-111,123,-82r131,59","w":701},"\u00b2":{"d":"25,-440v-2,-46,50,-71,95,-71r111,0v11,0,16,-5,16,-16v0,-15,-5,-23,-16,-23r-186,0r0,-79r186,0v53,0,95,44,95,102v0,52,-44,95,-95,95r-111,0v-5,0,-11,1,-16,3r0,37r202,0r0,79r-281,0r0,-127","w":351},"\u00b3":{"d":"211,-392v9,0,16,-8,16,-16v0,-16,-5,-24,-16,-24r-79,0r0,-79r79,0v11,0,16,-5,16,-16v0,-15,-5,-23,-16,-23r-186,0r0,-79r186,0v52,-1,96,43,95,95v0,26,-6,47,-18,63v13,18,18,37,18,63v0,51,-43,95,-95,95r-178,0r0,-79r178,0","w":331},"\u00b4":{"d":"25,-542r74,-66r103,0r-107,66r-70,0","w":227},"\u00b5":{"d":"263,-546v-4,-56,36,-96,87,-96v51,-1,93,42,87,96r-15,143r131,-59v81,-39,161,66,103,136v-13,16,-29,25,-50,30r-140,29r96,106v15,17,23,36,23,59v1,47,-43,88,-89,88v-33,0,-57,-15,-74,-45r-72,-124r-71,125v-17,29,-42,44,-75,44v-47,0,-91,-41,-89,-88v0,-22,8,-42,23,-59r97,-106r-141,-29v-37,-8,-69,-41,-69,-84v0,-60,61,-111,123,-82r131,59","w":701},"\u00b6":{"d":"25,-383v0,-130,109,-250,239,-250r195,0r0,633r-159,0r0,-133r-36,0v-130,4,-239,-120,-239,-250xm184,-383v0,44,35,93,80,91r36,0r0,-182r-36,0v-45,-2,-80,47,-80,91","w":484},"\u00b7":{"d":"25,-305v0,-55,47,-101,101,-101v55,0,101,47,101,101v0,55,-47,101,-101,101v-55,0,-101,-47,-101,-101","w":252},"\u00b8":{"d":"119,185v49,3,61,-87,9,-95v-18,-3,-41,-3,-62,-3r40,-98r51,0r-21,52v41,7,75,48,75,95v0,50,-41,97,-92,97r-94,0r20,-48r74,0","w":236},"\u00b9":{"d":"183,-313r-75,-209v-9,-38,-43,-28,-83,-29r0,-79v50,0,83,-3,115,24v20,17,34,35,42,57r84,236r-83,0","w":291},"\u00ba":{"d":"25,-453v0,-89,74,-167,163,-167v89,0,163,78,163,167v0,88,-75,167,-163,167v-88,0,-163,-79,-163,-167xm104,-453v0,46,38,88,84,88v46,0,84,-42,84,-88v0,-46,-38,-88,-84,-88v-46,0,-84,42,-84,88","w":376},"\u00bb":{"d":"349,-402r-64,-231r165,0r52,189v20,72,20,184,0,256r-52,188r-165,0r64,-231v12,-36,10,-135,0,-171xm89,-402r-64,-231r165,0r52,189v20,72,20,184,0,256r-52,188r-165,0r64,-231v12,-36,10,-135,0,-171","w":542},"\u00bc":{"d":"183,-255r-75,-208v-9,-39,-42,-29,-83,-30r0,-78v50,0,83,-3,115,24v20,17,34,35,42,57r84,235r-83,0xm449,-60v-37,0,-73,-24,-72,-62v0,-16,6,-32,18,-47r111,-147r117,0r0,176r74,0r0,80r-74,0r0,60r-79,0r0,-60r-95,0xm544,-140r0,-94r-72,94r72,0xm115,0r385,-577r85,0r-386,577r-84,0","w":722},"\u00bd":{"d":"183,-255r-75,-208v-9,-39,-42,-29,-83,-30r0,-78v50,0,83,-3,115,24v20,17,34,35,42,57r84,235r-83,0xm640,-198v8,0,16,-7,16,-16v0,-15,-5,-23,-16,-23r-186,0r0,-79r186,0v53,0,95,44,95,102v0,52,-44,96,-95,96r-111,0v-7,0,-13,1,-16,2r0,37r202,0r0,79r-281,0r0,-126v-2,-46,50,-72,95,-72r111,0xm115,0r385,-577r85,0r-386,577r-84,0","w":760},"\u00be":{"d":"484,-60v-37,0,-73,-24,-72,-62v0,-16,6,-32,18,-47r111,-147r117,0r0,176r74,0r0,80r-74,0r0,60r-79,0r0,-60r-95,0xm579,-140r0,-94r-72,94r72,0xm211,-339v9,0,16,-8,16,-16v0,-15,-5,-23,-16,-23r-79,0r0,-80r79,0v11,0,16,-5,16,-16v0,-15,-5,-23,-16,-23r-186,0r0,-79r186,0v52,-1,96,43,95,95v0,26,-6,47,-18,63v13,18,18,37,18,63v0,51,-43,95,-95,95r-178,0r0,-79r178,0xm150,0r385,-577r85,0r-386,577r-84,0","w":757},"\u00bf":{"d":"225,-438v-54,0,-102,-48,-102,-101v0,-55,48,-101,102,-101v53,0,101,47,101,101v0,53,-48,101,-101,101xm177,0v-83,1,-154,-56,-152,-139v0,-25,6,-50,18,-75r93,-192r177,0r-120,247r211,0r0,159r-227,0","w":429},"\u00c0":{"d":"25,-332v-5,-167,136,-316,301,-316v165,0,301,149,301,316r0,332r-158,0r0,-143r-285,0r0,143r-159,0r0,-332xm326,-490v-79,0,-145,77,-142,158r0,31r285,0r0,-31v3,-82,-64,-158,-143,-158xm308,-747r74,66r-70,0r-107,-66r103,0"},"\u00c1":{"d":"25,-332v-5,-167,136,-316,301,-316v165,0,301,149,301,316r0,332r-158,0r0,-143r-285,0r0,143r-159,0r0,-332xm326,-490v-79,0,-145,77,-142,158r0,31r285,0r0,-31v3,-82,-64,-158,-143,-158xm274,-679r74,-66r103,0r-107,66r-70,0"},"\u00c2":{"d":"320,-720r-32,45r-54,0r49,-57v13,-17,59,-16,73,1r48,56r-54,0v-7,-7,-24,-38,-30,-45xm25,-332v-5,-167,136,-316,301,-316v165,0,301,149,301,316r0,332r-158,0r0,-143r-285,0r0,143r-159,0r0,-332xm326,-490v-79,0,-145,77,-142,158r0,31r285,0r0,-31v3,-82,-64,-158,-143,-158"},"\u00c3":{"d":"25,-332v-5,-167,136,-316,301,-316v165,0,301,149,301,316r0,332r-158,0r0,-143r-285,0r0,143r-159,0r0,-332xm326,-490v-79,0,-145,77,-142,158r0,31r285,0r0,-31v3,-82,-64,-158,-143,-158xm298,-746v14,-4,51,29,59,29v7,0,14,-6,20,-17r27,18v-13,25,-29,38,-47,38v-13,4,-50,-29,-59,-28v-5,0,-12,6,-19,17r-28,-16v11,-27,27,-41,47,-41"},"\u00c4":{"d":"25,-332v-5,-167,136,-316,301,-316v165,0,301,149,301,316r0,332r-158,0r0,-143r-285,0r0,143r-159,0r0,-332xm326,-490v-79,0,-145,77,-142,158r0,31r285,0r0,-31v3,-82,-64,-158,-143,-158xm235,-707v0,-21,17,-38,38,-38v21,0,38,17,38,38v0,21,-17,38,-38,38v-21,0,-38,-17,-38,-38xm342,-708v0,-21,17,-38,38,-38v21,0,38,17,38,38v0,21,-17,38,-38,38v-21,0,-38,-17,-38,-38"},"\u00c5":{"d":"271,-643v-27,-46,11,-104,61,-104v51,0,89,61,58,107v128,27,237,156,237,308r0,332r-158,0r0,-143r-285,0r0,143r-159,0r0,-332v-2,-155,112,-290,246,-311xm326,-490v-79,0,-145,77,-142,158r0,31r285,0r0,-31v3,-82,-64,-158,-143,-158xm332,-709v-34,0,-45,53,-11,61r20,1v34,-7,26,-62,-9,-62"},"\u00c6":{"d":"326,-490v-79,0,-145,77,-142,158r0,31r285,0r0,-31v3,-82,-64,-158,-143,-158xm326,-648v102,2,182,51,231,113v60,-65,132,-98,217,-98r261,0r0,159r-261,0v-57,1,-102,37,-123,78r266,0r0,159r-266,0v21,42,65,77,123,78r261,0r0,159r-261,0v-51,0,-100,-13,-147,-40r0,40r-158,0r0,-143r-285,0r0,143r-159,0r0,-332v-5,-167,136,-319,301,-316","w":1060},"\u00c7":{"d":"361,48v41,7,75,48,75,95v0,50,-42,97,-92,97r-94,0r20,-48r74,0v49,3,62,-88,10,-96v-18,-3,-42,-2,-63,-2r38,-94v-167,5,-304,-148,-304,-316v0,-167,136,-317,301,-317r222,0r0,159r-222,0v-79,-2,-142,77,-142,158v0,82,63,157,142,157r222,0r0,159r-167,0","w":573},"\u00c8":{"d":"25,-316v0,-165,135,-317,301,-317r262,0r0,159r-262,0v-58,0,-101,37,-123,78r266,0r0,159r-266,0v21,42,65,77,123,78r262,0r0,159r-262,0v-166,5,-301,-151,-301,-316xm428,-740r74,66r-70,0r-107,-66r103,0","w":613},"\u00c9":{"d":"25,-316v0,-165,135,-317,301,-317r262,0r0,159r-262,0v-58,0,-101,37,-123,78r266,0r0,159r-266,0v21,42,65,77,123,78r262,0r0,159r-262,0v-166,5,-301,-151,-301,-316xm305,-679r74,-66r103,0r-107,66r-70,0","w":613},"\u00ca":{"d":"25,-316v0,-165,135,-317,301,-317r262,0r0,159r-262,0v-58,0,-101,37,-123,78r266,0r0,159r-266,0v21,42,65,77,123,78r262,0r0,159r-262,0v-166,5,-301,-151,-301,-316xm366,-718r-32,45r-54,0r49,-57v13,-17,59,-16,73,1r48,56r-54,0v-7,-7,-24,-38,-30,-45","w":613},"\u00cb":{"d":"25,-316v0,-165,135,-317,301,-317r262,0r0,159r-262,0v-58,0,-101,37,-123,78r266,0r0,159r-266,0v21,42,65,77,123,78r262,0r0,159r-262,0v-166,5,-301,-151,-301,-316xm296,-705v0,-21,17,-38,38,-38v21,0,38,17,38,38v0,21,-17,38,-38,38v-21,0,-38,-17,-38,-38xm403,-706v0,-21,17,-38,38,-38v21,0,38,17,38,38v0,21,-17,38,-38,38v-21,0,-38,-17,-38,-38","w":613},"\u00cc":{"d":"49,-633r159,0r0,633r-159,0r0,-633xm139,-744r74,66r-70,0r-107,-66r103,0","w":257},"\u00cd":{"d":"49,-633r159,0r0,633r-159,0r0,-633xm55,-678r74,-66r103,0r-107,66r-70,0","w":257},"\u00ce":{"d":"49,-633r159,0r0,633r-159,0r0,-633xm130,-721r-32,45r-54,0r49,-57v13,-17,59,-16,73,1r48,56r-54,0v-7,-7,-24,-38,-30,-45","w":257},"\u00cf":{"d":"49,-633r159,0r0,633r-159,0r0,-633xm40,-709v0,-21,17,-38,38,-38v21,0,38,17,38,38v0,21,-17,38,-38,38v-21,0,-38,-17,-38,-38xm147,-710v0,-21,17,-38,38,-38v21,0,38,17,38,38v0,21,-17,38,-38,38v-21,0,-38,-17,-38,-38","w":257},"\u00d0":{"d":"461,-316v0,-82,-63,-158,-142,-158r-98,0r0,76r119,0r0,159r-119,0r0,80r98,0v79,2,142,-75,142,-157xm620,-316v0,167,-137,316,-301,316r-256,0r0,-239r-38,0r0,-159r38,0r0,-235r256,0v165,-4,301,150,301,317","w":645},"\u00d1":{"d":"25,-334v-4,-165,134,-315,299,-315v165,0,299,150,299,315r0,334r-157,0r0,-334v2,-79,-62,-157,-142,-157v-80,0,-142,78,-142,157r0,334r-157,0r0,-334xm288,-743v14,-4,51,29,59,29v7,0,14,-6,20,-17r27,18v-13,25,-29,38,-47,38v-13,4,-50,-29,-59,-28v-5,0,-12,6,-19,17r-28,-16v11,-27,27,-41,47,-41","w":648},"\u00d2":{"d":"25,-313v0,-177,149,-334,326,-334v177,0,325,157,325,334v0,176,-148,334,-325,334v-177,0,-326,-158,-326,-334xm182,-313v0,92,77,176,169,176v92,0,168,-84,168,-176v0,-93,-75,-177,-168,-177v-93,0,-169,84,-169,177xm340,-748r74,66r-70,0r-107,-66r103,0","w":701},"\u00d3":{"d":"25,-313v0,-177,149,-334,326,-334v177,0,325,157,325,334v0,176,-148,334,-325,334v-177,0,-326,-158,-326,-334xm182,-313v0,92,77,176,169,176v92,0,168,-84,168,-176v0,-93,-75,-177,-168,-177v-93,0,-169,84,-169,177xm288,-680r74,-66r103,0r-107,66r-70,0","w":701},"\u00d4":{"d":"25,-313v0,-177,149,-334,326,-334v177,0,325,157,325,334v0,176,-148,334,-325,334v-177,0,-326,-158,-326,-334xm182,-313v0,92,77,176,169,176v92,0,168,-84,168,-176v0,-93,-75,-177,-168,-177v-93,0,-169,84,-169,177xm348,-721r-32,45r-54,0r49,-57v13,-17,59,-16,73,1r48,56r-54,0v-7,-7,-24,-38,-30,-45","w":701},"\u00d5":{"d":"25,-313v0,-177,149,-334,326,-334v177,0,325,157,325,334v0,176,-148,334,-325,334v-177,0,-326,-158,-326,-334xm182,-313v0,92,77,176,169,176v92,0,168,-84,168,-176v0,-93,-75,-177,-168,-177v-93,0,-169,84,-169,177xm308,-745v14,-4,51,29,59,29v7,0,14,-6,20,-17r27,18v-13,25,-29,38,-47,38v-13,4,-50,-29,-59,-28v-5,0,-12,6,-19,17r-28,-16v11,-27,27,-41,47,-41","w":701},"\u00d6":{"d":"25,-313v0,-177,149,-334,326,-334v177,0,325,157,325,334v0,176,-148,334,-325,334v-177,0,-326,-158,-326,-334xm182,-313v0,92,77,176,169,176v92,0,168,-84,168,-176v0,-93,-75,-177,-168,-177v-93,0,-169,84,-169,177xm255,-707v0,-21,17,-38,38,-38v21,0,38,17,38,38v0,21,-17,38,-38,38v-21,0,-38,-17,-38,-38xm362,-708v0,-21,17,-38,38,-38v21,0,38,17,38,38v0,21,-17,38,-38,38v-21,0,-38,-17,-38,-38","w":701},"\u00d7":{"d":"155,-552r124,124r123,-124r112,112r-123,124r123,123r-112,112r-123,-123r-124,123r-112,-112r124,-123r-124,-124","w":558},"\u00d8":{"d":"374,-139v80,-9,146,-86,145,-174v0,-43,-14,-82,-42,-117xm328,-488v-80,9,-147,88,-146,175v0,45,14,84,43,117xm676,-313v3,214,-213,402,-441,312r-78,0r12,-35v-79,-54,-143,-153,-144,-277v-3,-208,197,-390,423,-319r100,0r-15,42v79,54,141,153,143,277","w":701},"\u00d9":{"d":"182,-299v-2,79,62,156,142,156v80,0,142,-77,142,-156r0,-330r157,0r0,330v4,164,-135,314,-299,314v-164,0,-299,-150,-299,-314r0,-330r157,0r0,330xm331,-748r74,66r-70,0r-107,-66r103,0","w":648},"\u00da":{"d":"182,-299v-2,79,62,156,142,156v80,0,142,-77,142,-156r0,-330r157,0r0,330v4,164,-135,314,-299,314v-164,0,-299,-150,-299,-314r0,-330r157,0r0,330xm246,-677r74,-66r103,0r-107,66r-70,0","w":648},"\u00db":{"d":"182,-299v-2,79,62,156,142,156v80,0,142,-77,142,-156r0,-330r157,0r0,330v4,164,-135,314,-299,314v-164,0,-299,-150,-299,-314r0,-330r157,0r0,330xm329,-718r-32,45r-54,0r49,-57v13,-17,59,-16,73,1r48,56r-54,0v-7,-7,-24,-38,-30,-45","w":648},"\u00dc":{"d":"182,-299v-2,79,62,156,142,156v80,0,142,-77,142,-156r0,-330r157,0r0,330v4,164,-135,314,-299,314v-164,0,-299,-150,-299,-314r0,-330r157,0r0,330xm225,-705v0,-21,17,-38,38,-38v21,0,38,17,38,38v0,21,-17,38,-38,38v-21,0,-38,-17,-38,-38xm332,-706v0,-21,17,-38,38,-38v21,0,38,17,38,38v0,21,-17,38,-38,38v-21,0,-38,-17,-38,-38","w":648},"\u00dd":{"d":"436,-634r181,0r-180,338r-88,158v-36,69,-136,137,-234,138r-90,0r0,-159v53,-3,101,8,138,-14v17,-10,31,-20,41,-33r-185,-428r173,0r109,253v31,-55,76,-140,135,-253xm225,-652r74,-66r103,0r-107,66r-70,0","w":642},"\u00de":{"d":"618,-316v0,131,-108,249,-239,249r-195,0r0,67r-159,0r0,-633r159,0r0,67r195,0v130,-4,239,120,239,250xm459,-316v0,-45,-34,-91,-80,-91r-195,0r0,182r195,0v45,2,80,-47,80,-91","w":643},"\u00df":{"d":"25,-442v-2,-96,71,-191,167,-191r245,0v103,-3,190,89,190,191v0,51,-12,93,-36,126v27,38,36,74,36,126v0,101,-88,190,-190,190r-158,0r0,-159r158,0v17,0,33,-14,32,-31v0,-31,-11,-47,-32,-47r-253,0r0,237r-159,0r0,-442xm469,-427v0,-27,-9,-46,-32,-47r-242,0v-16,11,-10,51,-11,78r253,0v17,0,32,-14,32,-31"},"\u00e0":{"d":"397,-396v-12,-42,-27,-78,-75,-78r-243,0r0,-159r243,0v100,0,189,86,217,165r164,468r-168,0r-83,-237r-237,0v-17,-1,-31,15,-31,32v0,31,10,46,31,46r222,0r0,159r-222,0v-106,0,-190,-90,-190,-205v0,-102,89,-191,190,-191r182,0xm198,-747r74,66r-70,0r-107,-66r103,0","w":728},"\u00e1":{"d":"397,-396v-12,-42,-27,-78,-75,-78r-243,0r0,-159r243,0v100,0,189,86,217,165r164,468r-168,0r-83,-237r-237,0v-17,-1,-31,15,-31,32v0,31,10,46,31,46r222,0r0,159r-222,0v-106,0,-190,-90,-190,-205v0,-102,89,-191,190,-191r182,0xm178,-679r74,-66r103,0r-107,66r-70,0","w":728},"\u00e2":{"d":"397,-396v-12,-42,-27,-78,-75,-78r-243,0r0,-159r243,0v100,0,189,86,217,165r164,468r-168,0r-83,-237r-237,0v-17,-1,-31,15,-31,32v0,31,10,46,31,46r222,0r0,159r-222,0v-106,0,-190,-90,-190,-205v0,-102,89,-191,190,-191r182,0xm212,-720r-32,45r-54,0r49,-57v13,-17,59,-16,73,1r48,56r-54,0v-7,-7,-24,-38,-30,-45","w":728},"\u00e3":{"d":"397,-396v-12,-42,-27,-78,-75,-78r-243,0r0,-159r243,0v100,0,189,86,217,165r164,468r-168,0r-83,-237r-237,0v-17,-1,-31,15,-31,32v0,31,10,46,31,46r222,0r0,159r-222,0v-106,0,-190,-90,-190,-205v0,-102,89,-191,190,-191r182,0xm174,-743v14,-4,51,29,59,29v7,0,14,-6,20,-17r27,18v-13,25,-29,38,-47,38v-13,4,-50,-29,-59,-28v-5,0,-12,6,-19,17r-28,-16v11,-27,27,-41,47,-41","w":728},"\u00e4":{"d":"397,-396v-12,-42,-27,-78,-75,-78r-243,0r0,-159r243,0v100,0,189,86,217,165r164,468r-168,0r-83,-237r-237,0v-17,-1,-31,15,-31,32v0,31,10,46,31,46r222,0r0,159r-222,0v-106,0,-190,-90,-190,-205v0,-102,89,-191,190,-191r182,0xm110,-706v0,-21,17,-38,38,-38v21,0,38,17,38,38v0,21,-17,38,-38,38v-21,0,-38,-17,-38,-38xm217,-707v0,-21,17,-38,38,-38v21,0,38,17,38,38v0,21,-17,38,-38,38v-21,0,-38,-17,-38,-38","w":728},"\u00e5":{"d":"159,-633v-24,-47,14,-101,63,-101v48,0,87,54,61,101v131,-13,224,73,256,165r164,468r-168,0r-83,-237r-237,0v-17,-1,-31,15,-31,32v0,31,10,46,31,46r222,0r0,159r-222,0v-106,0,-190,-90,-190,-205v0,-102,89,-191,190,-191r182,0v-12,-42,-27,-78,-75,-78r-243,0r0,-159r80,0xm222,-696v-17,0,-33,14,-32,31v1,20,14,34,36,32v14,-1,27,-15,27,-32v0,-17,-14,-31,-31,-31","w":728},"\u00e6":{"d":"322,-633v85,1,155,57,192,114v52,-65,133,-117,241,-117r136,0v99,-3,187,86,184,184r0,29v3,98,-85,185,-184,185r-210,0r0,-159r210,0v20,-1,25,-20,25,-45v0,-19,-5,-36,-25,-36r-136,0v-84,-3,-152,76,-152,160v0,83,69,159,152,159r299,0r0,159r-299,0v-151,1,-271,-113,-301,-239v-2,0,-2,0,-2,2r-237,0v-17,-1,-31,15,-31,32v0,31,10,46,31,46r222,0r0,159r-222,0v-106,0,-190,-90,-190,-205v0,-102,89,-191,190,-191r182,0v-12,-42,-27,-78,-75,-78r-295,0r0,-159r295,0","w":1100},"\u00e7":{"d":"361,48v41,7,75,48,75,95v0,50,-42,97,-92,97r-94,0r20,-48r74,0v49,3,62,-88,10,-96v-18,-3,-42,-2,-63,-2r38,-94v-167,5,-304,-148,-304,-316v0,-167,136,-317,301,-317r222,0r0,159r-222,0v-79,-2,-142,77,-142,158v0,82,63,157,142,157r222,0r0,159r-167,0","w":573},"\u00e8":{"d":"335,0v-168,5,-310,-150,-310,-318v0,-168,142,-323,310,-318r136,0v99,-3,187,86,184,184r0,29v3,98,-85,185,-184,185r-210,0r0,-159r210,0v22,0,26,-19,26,-45v0,-20,-6,-36,-26,-36r-136,0v-84,-3,-151,76,-151,160v0,82,69,159,151,159r299,0r0,159r-299,0xm368,-744r74,66r-70,0r-107,-66r103,0","w":680},"\u00e9":{"d":"335,0v-168,5,-310,-150,-310,-318v0,-168,142,-323,310,-318r136,0v99,-3,187,86,184,184r0,29v3,98,-85,185,-184,185r-210,0r0,-159r210,0v22,0,26,-19,26,-45v0,-20,-6,-36,-26,-36r-136,0v-84,-3,-151,76,-151,160v0,82,69,159,151,159r299,0r0,159r-299,0xm325,-679r74,-66r103,0r-107,66r-70,0","w":680},"\u00ea":{"d":"335,0v-168,5,-310,-150,-310,-318v0,-168,142,-323,310,-318r136,0v99,-3,187,86,184,184r0,29v3,98,-85,185,-184,185r-210,0r0,-159r210,0v22,0,26,-19,26,-45v0,-20,-6,-36,-26,-36r-136,0v-84,-3,-151,76,-151,160v0,82,69,159,151,159r299,0r0,159r-299,0xm389,-717r-32,45r-54,0r49,-57v13,-17,59,-16,73,1r48,56r-54,0v-7,-7,-24,-38,-30,-45","w":680},"\u00eb":{"d":"335,0v-168,5,-310,-150,-310,-318v0,-168,142,-323,310,-318r136,0v99,-3,187,86,184,184r0,29v3,98,-85,185,-184,185r-210,0r0,-159r210,0v22,0,26,-19,26,-45v0,-20,-6,-36,-26,-36r-136,0v-84,-3,-151,76,-151,160v0,82,69,159,151,159r299,0r0,159r-299,0xm305,-707v0,-21,17,-38,38,-38v21,0,38,17,38,38v0,21,-17,38,-38,38v-21,0,-38,-17,-38,-38xm412,-708v0,-21,17,-38,38,-38v21,0,38,17,38,38v0,21,-17,38,-38,38v-21,0,-38,-17,-38,-38","w":680},"\u00ec":{"d":"205,-1r-158,0r0,-420r158,0r0,420xm105,-643r88,174r-70,0r-121,-174r103,0","w":252},"\u00ed":{"d":"205,-1r-158,0r0,-420r158,0r0,420xm51,-469r89,-170r103,0r-122,170r-70,0","w":252},"\u00ee":{"d":"205,-1r-158,0r0,-420r158,0r0,420xm126,-609r-32,45r-54,0r49,-57v13,-17,59,-16,73,1r48,56r-54,0v-7,-7,-24,-38,-30,-45","w":252},"\u00ef":{"d":"205,-1r-158,0r0,-420r158,0r0,420xm35,-598v0,-21,17,-38,38,-38v21,0,38,17,38,38v0,21,-17,38,-38,38v-21,0,-38,-17,-38,-38xm142,-599v0,-21,17,-38,38,-38v21,0,38,17,38,38v0,21,-17,38,-38,38v-21,0,-38,-17,-38,-38","w":252},"\u00f0":{"d":"461,-316v0,-82,-63,-158,-142,-158r-98,0r0,76r119,0r0,159r-119,0r0,80r98,0v79,2,142,-75,142,-157xm620,-316v0,167,-137,316,-301,316r-256,0r0,-239r-38,0r0,-159r38,0r0,-235r256,0v165,-4,301,150,301,317","w":645},"\u00f1":{"d":"25,-334v-4,-165,134,-315,299,-315v165,0,299,150,299,315r0,334r-157,0r0,-334v2,-79,-62,-157,-142,-157v-80,0,-142,78,-142,157r0,334r-157,0r0,-334xm288,-745v14,-4,51,29,59,29v7,0,14,-6,20,-17r27,18v-13,25,-29,38,-47,38v-13,4,-50,-29,-59,-28v-5,0,-12,6,-19,17r-28,-16v11,-27,27,-41,47,-41","w":648},"\u00f2":{"d":"25,-313v0,-177,149,-334,326,-334v177,0,325,157,325,334v0,176,-148,334,-325,334v-177,0,-326,-158,-326,-334xm182,-313v0,92,77,176,169,176v92,0,168,-84,168,-176v0,-93,-75,-177,-168,-177v-93,0,-169,84,-169,177xm318,-747r74,66r-70,0r-107,-66r103,0","w":701},"\u00f3":{"d":"25,-313v0,-177,149,-334,326,-334v177,0,325,157,325,334v0,176,-148,334,-325,334v-177,0,-326,-158,-326,-334xm182,-313v0,92,77,176,169,176v92,0,168,-84,168,-176v0,-93,-75,-177,-168,-177v-93,0,-169,84,-169,177xm305,-680r74,-66r103,0r-107,66r-70,0","w":701},"\u00f4":{"d":"25,-313v0,-177,149,-334,326,-334v177,0,325,157,325,334v0,176,-148,334,-325,334v-177,0,-326,-158,-326,-334xm182,-313v0,92,77,176,169,176v92,0,168,-84,168,-176v0,-93,-75,-177,-168,-177v-93,0,-169,84,-169,177xm349,-720r-32,45r-54,0r49,-57v13,-17,59,-16,73,1r48,56r-54,0v-7,-7,-24,-38,-30,-45","w":701},"\u00f5":{"d":"25,-313v0,-177,149,-334,326,-334v177,0,325,157,325,334v0,176,-148,334,-325,334v-177,0,-326,-158,-326,-334xm182,-313v0,92,77,176,169,176v92,0,168,-84,168,-176v0,-93,-75,-177,-168,-177v-93,0,-169,84,-169,177xm318,-744v14,-4,51,29,59,29v7,0,14,-6,20,-17r27,18v-13,25,-29,38,-47,38v-13,4,-50,-29,-59,-28v-5,0,-12,6,-19,17r-28,-16v11,-27,27,-41,47,-41","w":701},"\u00f6":{"d":"25,-313v0,-177,149,-334,326,-334v177,0,325,157,325,334v0,176,-148,334,-325,334v-177,0,-326,-158,-326,-334xm182,-313v0,92,77,176,169,176v92,0,168,-84,168,-176v0,-93,-75,-177,-168,-177v-93,0,-169,84,-169,177xm255,-707v0,-21,17,-38,38,-38v21,0,38,17,38,38v0,21,-17,38,-38,38v-21,0,-38,-17,-38,-38xm362,-708v0,-21,17,-38,38,-38v21,0,38,17,38,38v0,21,-17,38,-38,38v-21,0,-38,-17,-38,-38","w":701},"\u00f7":{"d":"25,-244r360,0r0,79r-360,0r0,-79xm154,-93v0,-26,24,-50,51,-50v27,0,50,24,50,50v0,27,-23,51,-50,51v-27,0,-51,-24,-51,-51xm154,-321v0,-27,24,-50,51,-50v27,0,50,23,50,50v0,27,-23,51,-50,51v-27,0,-51,-24,-51,-51","w":410},"\u00f8":{"d":"374,-139v80,-9,146,-86,145,-174v0,-43,-14,-82,-42,-117xm328,-488v-80,9,-147,88,-146,175v0,45,14,84,43,117xm676,-313v3,214,-213,402,-441,312r-78,0r12,-35v-79,-54,-143,-153,-144,-277v-3,-208,197,-390,423,-319r100,0r-15,42v79,54,141,153,143,277","w":701},"\u00f9":{"d":"182,-299v-2,79,62,156,142,156v80,0,142,-77,142,-156r0,-330r157,0r0,330v4,164,-135,314,-299,314v-164,0,-299,-150,-299,-314r0,-330r157,0r0,330xm328,-746r74,66r-70,0r-107,-66r103,0","w":648},"\u00fa":{"d":"182,-299v-2,79,62,156,142,156v80,0,142,-77,142,-156r0,-330r157,0r0,330v4,164,-135,314,-299,314v-164,0,-299,-150,-299,-314r0,-330r157,0r0,330xm235,-679r74,-66r103,0r-107,66r-70,0","w":648},"\u00fb":{"d":"182,-299v-2,79,62,156,142,156v80,0,142,-77,142,-156r0,-330r157,0r0,330v4,164,-135,314,-299,314v-164,0,-299,-150,-299,-314r0,-330r157,0r0,330xm319,-719r-32,45r-54,0r49,-57v13,-17,59,-16,73,1r48,56r-54,0v-7,-7,-24,-38,-30,-45","w":648},"\u00fc":{"d":"182,-299v-2,79,62,156,142,156v80,0,142,-77,142,-156r0,-330r157,0r0,330v4,164,-135,314,-299,314v-164,0,-299,-150,-299,-314r0,-330r157,0r0,330xm235,-709v0,-21,17,-38,38,-38v21,0,38,17,38,38v0,21,-17,38,-38,38v-21,0,-38,-17,-38,-38xm342,-710v0,-21,17,-38,38,-38v21,0,38,17,38,38v0,21,-17,38,-38,38v-21,0,-38,-17,-38,-38","w":648},"\u00fd":{"d":"436,-633r181,0r-180,337r-88,158v-36,69,-136,137,-234,138r-90,0r0,-159v53,-3,101,8,138,-14v17,-10,31,-20,41,-33r-185,-427r173,0r109,252xm235,-652r74,-66r103,0r-107,66r-70,0","w":642},"\u00fe":{"d":"618,-316v0,131,-108,249,-239,249r-195,0r0,67r-159,0r0,-633r159,0r0,67r195,0v130,-4,239,120,239,250xm459,-316v0,-45,-34,-91,-80,-91r-195,0r0,182r195,0v45,2,80,-47,80,-91","w":643},"\u00ff":{"d":"436,-633r181,0r-180,337r-88,158v-36,69,-136,137,-234,138r-90,0r0,-159v53,-3,101,8,138,-14v17,-10,31,-20,41,-33r-185,-427r173,0r109,252xm215,-694v0,-21,17,-38,38,-38v21,0,38,17,38,38v0,21,-17,38,-38,38v-21,0,-38,-17,-38,-38xm322,-695v0,-21,17,-38,38,-38v21,0,38,17,38,38v0,21,-17,38,-38,38v-21,0,-38,-17,-38,-38","w":642},"\u0152":{"d":"182,-316v0,93,75,177,169,177v93,0,168,-82,168,-177v0,-93,-74,-176,-168,-176v-92,0,-169,84,-169,176xm351,-650v108,2,196,54,248,119v59,-68,133,-102,221,-102r261,0r0,159r-261,0v-57,0,-103,37,-123,78r266,0r0,159r-266,0v21,43,65,77,123,78r261,0r0,159r-261,0v-87,0,-161,-34,-221,-101v-53,65,-139,117,-248,119v-177,4,-326,-157,-326,-334v0,-176,149,-338,326,-334xm518,-323r1,14","w":1106},"\u0153":{"d":"182,-318v0,93,75,176,169,176v95,0,168,-82,168,-176v0,-95,-73,-176,-168,-176v-93,0,-169,83,-169,176xm25,-318v0,-177,149,-334,326,-334v100,0,183,40,249,119v61,-69,138,-103,229,-103r135,0v99,-3,187,86,184,184r0,29v3,100,-85,185,-184,185r-210,0r0,-159r210,0v21,-1,26,-19,26,-45v0,-20,-6,-36,-26,-36r-135,0v-84,-3,-152,76,-152,160v0,83,69,159,152,159r298,0r0,159r-298,0v-91,0,-168,-34,-229,-103v-53,66,-139,117,-249,119v-177,4,-326,-157,-326,-334xm518,-329r0,22v1,-5,1,-17,0,-22","w":1173},"\u0178":{"d":"436,-634r181,0r-180,338r-88,158v-36,69,-136,137,-234,138r-90,0r0,-159v53,-3,101,8,138,-14v17,-10,31,-20,41,-33r-185,-428r173,0r109,253v31,-55,76,-140,135,-253xm215,-694v0,-21,17,-38,38,-38v21,0,38,17,38,38v0,21,-17,38,-38,38v-21,0,-38,-17,-38,-38xm322,-695v0,-21,17,-38,38,-38v21,0,38,17,38,38v0,21,-17,38,-38,38v-21,0,-38,-17,-38,-38","w":642},"\u02c6":{"d":"159,-589r-32,45r-54,0r49,-57v13,-17,59,-16,73,1r48,56r-54,0v-7,-7,-24,-38,-30,-45","w":315},"\u02dc":{"d":"78,-615v14,-4,51,29,59,29v7,0,14,-6,20,-17r27,18v-13,25,-29,38,-47,38v-13,4,-50,-29,-59,-28v-5,0,-12,6,-19,17r-28,-16v11,-27,27,-41,47,-41","w":206},"\u2013":{"d":"25,-396r405,0r0,159r-405,0r0,-159","w":455},"\u2014":{"d":"23,-396r494,0r0,159r-494,0r0,-159","w":540},"\u2018":{"d":"226,-395v1,53,-47,101,-101,101v-64,0,-100,-57,-100,-121v1,-110,63,-179,142,-220r16,22v-45,41,-67,72,-67,95v0,10,7,19,23,23v47,12,86,44,87,100","w":251},"\u2019":{"d":"25,-534v-1,-53,47,-101,101,-101v64,0,100,57,100,121v-1,110,-63,179,-142,220r-16,-22v45,-41,67,-72,67,-95v0,-11,-8,-18,-23,-22v-47,-12,-86,-45,-87,-101","w":251},"\u201a":{"d":"25,-86v-1,-55,47,-102,101,-101v117,1,119,171,62,249v-27,36,-59,68,-104,91r-16,-22v45,-41,67,-72,67,-95v0,-11,-8,-18,-23,-22v-47,-12,-86,-44,-87,-100","w":251},"\u201c":{"d":"450,-390v1,55,-47,102,-101,101v-117,-1,-120,-171,-63,-249v27,-36,60,-68,105,-91r16,21v-45,41,-67,72,-67,95v0,11,8,19,23,23v48,11,86,44,87,100xm226,-395v1,53,-47,101,-101,101v-64,0,-100,-57,-100,-121v1,-110,63,-179,142,-220r16,22v-45,41,-67,72,-67,95v0,10,7,19,23,23v47,12,86,44,87,100","w":475},"\u201d":{"d":"25,-534v-1,-53,47,-101,101,-101v64,0,100,57,100,121v-1,110,-63,179,-142,220r-16,-22v45,-41,67,-72,67,-95v0,-11,-8,-18,-23,-22v-47,-12,-86,-45,-87,-101xm249,-528v-1,-55,47,-101,101,-101v64,0,100,56,100,120v-1,109,-63,180,-142,220r-16,-22v45,-41,67,-72,67,-95v0,-11,-8,-18,-23,-22v-47,-12,-86,-45,-87,-100","w":475},"\u201e":{"d":"25,-86v-1,-55,47,-102,101,-101v117,1,119,171,62,249v-27,36,-59,68,-104,91r-16,-22v45,-41,67,-72,67,-95v0,-11,-8,-18,-23,-22v-47,-12,-86,-44,-87,-100xm249,-81v-1,-55,47,-102,101,-101v117,1,119,172,62,250v-27,36,-59,67,-104,90r-16,-21v45,-41,67,-72,67,-95v0,-11,-8,-19,-23,-23v-48,-11,-86,-44,-87,-100","w":475},"\u2022":{"d":"47,-314v0,-82,70,-152,152,-152v81,0,151,71,151,152v0,80,-71,151,-151,151v-81,0,-152,-70,-152,-151","w":397},"\u2026":{"d":"25,-87v0,-53,47,-101,101,-101v54,0,101,48,101,101v0,55,-47,101,-101,101v-55,0,-101,-47,-101,-101xm272,-87v0,-55,47,-101,101,-101v55,0,101,47,101,101v0,55,-47,101,-101,101v-55,0,-101,-47,-101,-101xm519,-87v0,-55,47,-101,101,-101v55,0,101,47,101,101v0,55,-47,101,-101,101v-55,0,-101,-47,-101,-101","w":746},"\u2039":{"d":"257,-633r-64,231v-12,35,-10,135,0,171r64,231r-165,0r-52,-188v-20,-72,-20,-184,0,-256r52,-189r165,0","w":282},"\u203a":{"d":"89,-402r-64,-231r165,0r52,189v20,72,20,184,0,256r-52,188r-165,0r64,-231v12,-36,10,-135,0,-171","w":282},"\u20ac":{"d":"379,0v-139,0,-250,-99,-284,-212r-70,0r0,-79r54,0v0,-13,-2,-31,0,-42r-52,0r0,-79r65,0v34,-117,145,-221,287,-221r222,0r0,159r-222,0v-47,0,-85,21,-113,62r205,0r0,79r-233,0v-2,9,-1,34,1,42r230,0r0,79r-197,0v29,35,64,53,107,53r222,0r0,159r-222,0","w":626},"\u2122":{"d":"25,-633r136,0r0,16r-60,0r0,146r-16,0r0,-146r-60,0r0,-16xm187,-570v-1,-34,29,-64,63,-63v25,0,43,11,55,33v12,-22,30,-33,55,-33v34,-1,64,29,63,63r0,102r-16,0r0,-102v1,-25,-22,-47,-47,-47v-25,0,-48,22,-47,47r0,102r-16,0r0,-102v1,-25,-22,-47,-47,-47v-25,0,-48,22,-47,47r0,102r-16,0r0,-102","w":448}}});
