/*!
 * The following copyright notice may not be removed under any circumstances.
 * 
 * Copyright:
 * Generated in 2009 by FontLab Studio. Copyright info pending.
 */
Cufon.registerFont({"w":530,"face":{"font-family":"TitilliumText14L","font-weight":800,"font-stretch":"normal","units-per-em":"1000","panose-1":"0 0 0 0 0 0 0 0 0 0","ascent":"750","descent":"-250","x-height":"11","bbox":"-60 -966 941 242","underline-thickness":"50","underline-position":"-50","unicode-range":"U+0020-U+2122"},"glyphs":{" ":{"w":235},"!":{"d":"210,0r0,-149r123,0r0,149r-123,0xm213,-251r-4,-449r125,0r-4,449r-117,0"},"\"":{"d":"305,-452r-104,0r-2,-240r110,0xm143,-452r-105,0r-2,-240r111,0","w":340},"#":{"d":"526,-170r-101,0r0,170r-100,0r0,-170r-121,0r0,170r-100,0r0,-170r-101,0r0,-96r101,0r0,-130r-101,0r0,-96r101,0r0,-170r100,0r0,170r121,0r0,-170r100,0r0,170r101,0r0,96r-101,0r0,130r101,0r0,96xm325,-266r0,-130r-121,0r0,130r121,0"},"$":{"d":"493,-180v2,146,-95,195,-248,186r-14,114v-23,-2,-35,-4,-35,-7r14,-109r-144,-13r4,-35v51,7,99,12,144,15r39,-298v-64,-12,-97,-20,-140,-49v-38,-26,-52,-66,-52,-129v-1,-137,94,-168,237,-166r16,-119r35,0r-16,121r141,14r-3,34v-53,-6,-100,-11,-142,-14r-36,277v70,13,101,18,148,48v39,26,51,65,52,130xm279,-27v138,5,198,-83,168,-207v-17,-68,-84,-73,-159,-87r-38,294r29,0xm294,-637v-117,-1,-194,20,-194,130v0,48,11,81,34,99v23,18,65,33,124,44"},"%":{"d":"249,-554v0,83,-39,140,-121,140v-81,0,-121,-48,-121,-145v0,-95,40,-142,121,-142v81,0,121,49,121,147xm406,-289v81,0,122,48,122,143v0,96,-41,144,-122,144v-81,0,-121,-48,-121,-144v0,-95,40,-143,121,-143xm116,-6r225,-710r76,25r-225,710xm128,-631v-35,0,-36,29,-36,72v0,45,0,75,36,75v35,0,36,-30,36,-74v0,-44,0,-73,-36,-73xm406,-218v-36,0,-35,28,-35,72v0,44,-1,74,35,74v35,0,36,-30,36,-74v0,-44,1,-72,-36,-72"},"&":{"d":"130,-550v0,-105,81,-160,193,-160v120,0,193,54,194,169v0,45,-10,81,-31,110v-21,29,-57,59,-108,92r100,101v13,-49,22,-89,25,-122r111,2v-10,71,-26,135,-47,192r117,110r-69,77r-108,-97v-69,61,-115,94,-233,96v-145,1,-238,-78,-237,-220v0,-89,48,-157,144,-204v-37,-50,-51,-69,-51,-146xm155,-201v-1,72,50,115,123,114v72,-1,100,-21,143,-60r-170,-178v-64,30,-96,71,-96,124xm245,-534v0,46,30,94,63,123v35,-21,58,-39,72,-55v14,-16,21,-38,21,-63v0,-49,-26,-74,-78,-74v-52,0,-78,23,-78,69","w":700},"'":{"d":"-8,-450r-2,-242r111,0r-5,242r-104,0","w":100},"(":{"d":"112,125v-41,-89,-97,-288,-97,-426v0,-152,54,-339,97,-449r124,0v-38,97,-93,310,-95,449v-2,112,37,275,95,426r-124,0","w":260},")":{"d":"132,-755v41,89,97,288,97,426v0,151,-54,339,-97,449r-124,0v38,-97,93,-310,95,-449v2,-112,-37,-275,-95,-426r124,0","w":260},"*":{"d":"450,-503r-126,0r39,122r-65,19r-41,-122r-104,79r-42,-53r106,-78r-103,-75r41,-56r101,72r41,-120r66,22r-38,124r125,0r0,66"},"+":{"d":"3,-231r0,-104r198,0r0,-197r104,0r0,197r200,0r0,104r-200,0r0,199r-104,0r0,-199r-198,0","w":506},",":{"d":"5,123r50,-250r123,0r-59,250r-114,0","w":170},"-":{"d":"68,-225r0,-112r304,0r0,112r-304,0","w":440},".":{"d":"56,0r0,-149r123,0r0,149r-123,0","w":248},"\/":{"d":"67,-18r281,-698r109,38r-281,697"},"0":{"d":"264,-672v84,0,146,26,188,80v42,54,63,143,63,268v0,121,-21,207,-63,258v-42,51,-104,77,-188,77v-83,0,-146,-26,-188,-77v-42,-51,-63,-137,-63,-258v0,-124,21,-213,63,-267v42,-54,105,-81,188,-81xm265,-559v-46,0,-76,19,-97,51v-35,53,-40,310,0,360v31,62,157,60,193,0v33,-54,34,-308,1,-360v-21,-32,-51,-51,-97,-51"},"1":{"d":"40,-518r214,-142r110,0r0,660r-118,0r0,-523r-151,99"},"2":{"d":"253,-672v138,0,212,54,213,185v0,49,-10,91,-30,127v-43,76,-158,177,-228,247r271,0r0,113r-428,0r0,-108r157,-156v59,-61,81,-77,118,-140v13,-23,19,-45,19,-67v2,-123,-183,-79,-282,-67r-8,-108v70,-17,136,-26,198,-26"},"3":{"d":"258,-386v45,2,96,-46,96,-90v0,-55,-37,-82,-111,-82v-56,0,-129,9,-177,15r-11,-103v75,-17,140,-26,196,-26v151,1,225,41,225,179v0,74,-37,115,-85,144v65,33,98,59,98,153v0,145,-72,207,-222,207v-67,0,-140,-8,-220,-23r12,-106v73,10,137,15,192,15v78,0,117,-30,117,-90v0,-56,-36,-86,-109,-86r-134,0r0,-107r133,0"},"4":{"d":"318,8r0,-111r-294,0r0,-96r174,-461r130,0r-171,444r161,0r0,-171r118,0r0,171r67,0r0,113r-67,0r0,111r-118,0"},"5":{"d":"264,-101v65,1,109,-44,108,-109v0,-66,-36,-99,-108,-99v-44,0,-91,10,-120,23r-91,-19r21,-356r397,0r0,113r-291,0r-16,153v45,-16,83,-24,112,-24v143,1,217,60,217,203v1,144,-81,228,-224,227v-74,-1,-171,-16,-229,-31r13,-105v84,16,154,24,211,24"},"6":{"d":"502,-209v1,146,-89,221,-236,220v-84,0,-144,-29,-182,-85v-38,-56,-57,-141,-57,-255v0,-125,22,-213,65,-265v57,-70,160,-87,280,-72v47,6,71,8,106,16r-10,107v-64,-10,-124,-15,-180,-15v-104,1,-140,59,-140,168v33,-12,87,-29,131,-30v148,0,223,65,223,211xm147,-288v3,107,20,189,119,189v77,0,115,-37,115,-110v0,-69,-37,-103,-112,-103v-41,0,-93,12,-122,24"},"7":{"d":"49,-548r0,-113r418,0r0,139r-244,538r-109,-31r232,-509r0,-24r-297,0"},"8":{"d":"30,-495v0,-123,104,-177,238,-177v134,0,242,54,242,178v0,92,-25,109,-85,152v60,44,93,69,95,163v1,140,-109,189,-252,190v-166,0,-249,-60,-249,-179v0,-94,36,-134,94,-174v-55,-40,-83,-67,-83,-153xm268,-101v84,0,126,-32,126,-95v0,-41,-26,-71,-79,-88r-93,0v-51,17,-77,47,-77,90v0,62,41,93,123,93xm384,-477v-1,-64,-44,-82,-114,-82v-70,0,-113,17,-114,82v0,37,22,66,66,89r93,0v46,-23,69,-52,69,-89"},"9":{"d":"21,-453v0,-141,95,-219,238,-219v159,0,238,116,238,348v0,209,-56,337,-260,335v-61,0,-142,-12,-193,-21r11,-108v65,11,126,16,182,16v101,0,139,-57,139,-160r-20,5v-25,6,-80,17,-111,16v-142,0,-224,-71,-224,-212xm259,-561v-70,0,-117,38,-116,108v0,70,37,105,112,105v40,0,92,-10,122,-19v-1,-129,-41,-194,-118,-194"},":":{"d":"43,-300r0,-149r124,0r0,149r-124,0xm43,0r0,-149r124,0r0,149r-124,0","w":212},";":{"d":"68,-143r-57,258r106,0r75,-258r-124,0xm60,-300r0,-149r123,0r0,149r-123,0","w":227},"<":{"d":"410,-439r-235,129r235,134r0,120v-33,-17,-91,-49,-175,-96r-172,-96r0,-120r347,-191r0,120"},"=":{"d":"25,-335r0,-104r469,0r0,104r-469,0xm25,-128r0,-104r469,0r0,104r-469,0"},">":{"d":"298,-310r-235,-129r0,-120r347,191r0,120r-172,96v-84,47,-142,79,-175,96r0,-120"},"?":{"d":"176,-713v150,2,220,44,220,190v0,100,-59,155,-117,198v-28,21,-61,43,-64,81r0,38r-123,0v-1,-45,0,-78,18,-108v35,-59,105,-80,142,-136v12,-18,19,-38,19,-59v-2,-68,-25,-83,-100,-84v-33,0,-84,7,-151,20r-14,-112v77,-19,134,-28,170,-28xm92,0r0,-149r123,0r0,149r-123,0","w":386},"@":{"d":"44,-261v-3,-306,165,-466,460,-466v297,0,437,146,437,439v0,111,-15,188,-46,232v-31,44,-78,66,-141,66v-60,0,-102,-16,-125,-47v-61,31,-114,46,-159,46v-139,0,-186,-89,-184,-251v2,-166,36,-265,195,-267v33,0,75,14,101,23r0,-14r114,0r0,200v0,61,2,106,6,134v7,48,8,66,52,66v26,0,44,-12,56,-36v11,-23,17,-97,16,-170v-2,-227,-94,-310,-322,-310v-230,0,-345,118,-345,355v0,259,89,354,345,357r143,-9r5,110v-291,35,-510,-15,-578,-233v-20,-61,-30,-136,-30,-225xm505,-401v-99,4,-103,49,-103,159v0,52,7,88,20,108v13,20,31,31,56,31v31,0,69,-8,112,-24v-11,-61,-7,-180,-8,-261v-33,-9,-59,-13,-77,-13","w":985},"A":{"d":"23,0r165,-692r231,0r163,692r-118,0r-38,-136r-251,0r-34,136r-118,0xm279,-584r-79,335r203,0r-77,-335r-47,0","w":605},"B":{"d":"467,-355v65,28,95,67,95,160v0,130,-73,195,-218,195r-267,0r0,-692r260,0v140,0,210,58,210,174v-1,91,-22,129,-80,163xm338,-108v69,-1,103,-26,103,-96v0,-61,-35,-91,-105,-91r-143,0r0,187r145,0xm426,-498v0,-62,-31,-86,-95,-86r-138,0r0,183r141,0v61,0,92,-32,92,-97","w":609},"C":{"d":"494,-120r3,106v-78,17,-143,25,-196,25v-100,0,-167,-28,-203,-84v-36,-56,-54,-147,-54,-272v0,-129,20,-219,56,-275v48,-74,166,-94,289,-76v48,7,73,11,109,20r-4,103v-78,-10,-137,-15,-177,-15v-60,0,-98,19,-121,51v-39,54,-37,325,0,381v31,47,106,58,192,48","w":535},"D":{"d":"310,0r-233,0r0,-692v125,4,279,-15,371,21v111,43,140,155,140,313v-1,116,-10,191,-52,262v-41,68,-115,96,-226,96xm462,-258v11,-80,4,-227,-26,-270v-23,-33,-62,-52,-126,-52r-117,0r0,468v70,-2,153,7,199,-18v41,-23,62,-74,70,-128","w":631},"E":{"d":"77,0r0,-692r432,0r0,112r-316,0r0,181r256,0r0,110r-256,0r0,177r316,0r0,112r-432,0","w":557},"F":{"d":"77,0r0,-692r432,0r0,112r-316,0r0,223r256,0r0,111r-256,0r0,246r-116,0","w":543},"G":{"d":"329,-103v36,0,71,-5,103,-7r0,-147r-79,0r0,-105r195,0r0,350v-95,15,-171,23,-229,23v-220,-2,-275,-129,-275,-358v0,-232,53,-356,271,-356v70,0,148,9,233,28r-3,102v-81,-11,-152,-16,-213,-16v-65,0,-106,19,-132,51v-43,55,-43,325,-2,382v24,33,65,53,131,53","w":599},"H":{"d":"480,0r0,-295r-286,0r0,295r-117,0r0,-692r117,0r0,284r286,0r0,-284r118,0r0,692r-118,0","w":674},"I":{"d":"75,0r0,-692r118,0r0,692r-118,0","w":268},"J":{"d":"31,-39v66,-1,87,-15,88,-82r0,-571r117,0r1,579v-2,152,-54,181,-206,184r0,-110","w":312},"K":{"d":"431,0r-137,-283r-100,8r0,275r-117,0r0,-692r117,0r0,304r98,-8r134,-296r135,0r-164,345r171,347r-137,0","w":594},"L":{"d":"462,0r-385,0r0,-692r117,0r0,579r268,0r0,113","w":496},"M":{"d":"77,0r0,-692r191,0r157,526r157,-526r190,0r0,692r-118,0r0,-546r-14,0r-155,518r-120,0r-156,-518r-15,0r0,546r-117,0","w":849},"N":{"d":"77,0r0,-692r190,0r220,546r17,0r0,-546r118,0r0,692r-185,0r-226,-546r-17,0r0,546r-117,0","w":698},"O":{"d":"323,-102v140,0,158,-85,158,-239v0,-86,-11,-149,-33,-189v-22,-40,-64,-60,-125,-60v-61,0,-101,21,-125,60v-42,66,-43,307,0,372v24,36,64,56,125,56xm602,-341v0,231,-57,352,-279,352v-221,0,-279,-122,-279,-352v0,-230,59,-362,279,-362v220,0,279,132,279,362","w":646},"P":{"d":"563,-457v0,156,-79,249,-235,248r-134,0r0,209r-117,0r0,-692r251,0v157,0,235,78,235,235xm194,-322r133,0v77,0,116,-45,116,-135v0,-81,-39,-122,-116,-122r-133,0r0,257","w":597},"Q":{"d":"602,-341v0,148,-23,251,-106,309r82,134r-108,50r-90,-145v-15,3,-34,4,-57,4v-221,-2,-279,-122,-279,-352v0,-230,59,-362,279,-362v220,0,279,132,279,362xm323,-102v140,0,158,-85,158,-239v0,-86,-11,-149,-33,-189v-22,-40,-64,-60,-125,-60v-61,0,-101,21,-125,60v-42,66,-43,307,0,372v24,36,64,56,125,56","w":646},"R":{"d":"338,-692v159,1,233,65,234,223v0,97,-36,163,-109,199r109,270r-129,0r-95,-236r-154,0r0,236r-117,0r0,-692r261,0xm451,-467v0,-75,-38,-113,-113,-113r-144,0r0,232r146,0v74,0,111,-40,111,-119","w":617},"S":{"d":"51,-511v0,-158,140,-213,306,-187v33,5,59,8,79,12r30,7r-9,106v-83,-11,-143,-16,-182,-16v-71,0,-106,25,-106,76v0,29,9,49,25,62v16,13,53,30,111,51v67,25,113,50,138,76v25,26,38,68,38,125v0,140,-73,210,-220,210v-64,0,-156,-14,-211,-26r12,-106v85,11,151,17,198,17v69,0,103,-31,103,-92v0,-26,-7,-46,-22,-58v-15,-12,-46,-26,-94,-43v-78,-28,-131,-56,-157,-83v-26,-27,-39,-71,-39,-131","w":531},"T":{"d":"-8,-579r0,-113r500,0r0,113r-190,0r0,579r-118,0r0,-579r-192,0","w":484},"U":{"d":"318,9v-166,0,-252,-66,-252,-232r0,-469r118,0r0,469v0,87,48,117,134,117v86,0,137,-31,137,-117r0,-469r118,0r0,469v0,166,-87,232,-255,232","w":639},"V":{"d":"460,-692r123,0r-167,692r-227,0r-166,-692r123,0r133,580r48,0","w":606},"W":{"d":"28,-692r123,0r112,572r20,0r114,-570r133,0r116,570r19,0r111,-572r123,0r-152,692r-183,0r-101,-518r-99,518r-183,0","w":927},"X":{"d":"151,-692r140,258r139,-258r131,0r-191,349r191,343r-131,0r-139,-254r-140,254r-131,0r194,-343r-194,-349r131,0","w":581},"Y":{"d":"343,-295r0,295r-118,0r0,-296r-212,-396r131,0r139,265r138,-265r131,0","w":565},"Z":{"d":"60,-579r0,-113r450,0r0,120r-301,443r0,16r301,0r0,113r-450,0r0,-120r301,-442r0,-17r-301,0","w":570},"[":{"d":"271,-749r0,112r-121,0r0,648r121,0r0,112r-238,0r-1,-872r239,0","w":300},"\\":{"d":"631,-3r-126,3r-307,-699r127,-3","w":833},"]":{"d":"-45,-637r0,-112r239,0r-1,872r-238,0r0,-112r121,0r0,-648r-121,0","w":300},"^":{"d":"379,-439r-110,-215r-113,215r-140,0r181,-347r140,0r182,347r-140,0","w":591},"_":{"d":"27,-5r428,0r0,104r-428,0r0,-104","w":520},"`":{"d":"142,-766r243,93r-40,103r-245,-89","w":545},"a":{"d":"278,-511v116,1,170,50,170,169r0,206v2,35,11,44,41,50r-4,97v-70,0,-95,-7,-134,-35v-57,23,-112,35,-163,35v-95,1,-146,-63,-145,-160v1,-110,60,-143,167,-152r124,-10v5,-54,-12,-91,-62,-90v-57,1,-141,7,-193,12r-4,-100v86,-15,154,-22,203,-22xm334,-222r-110,6v-44,4,-66,25,-66,64v0,43,17,65,51,65v35,0,77,-7,125,-20r0,-115","w":526},"b":{"d":"504,-256v0,199,-52,263,-244,267v-35,0,-97,-4,-186,-13r0,-704r114,0r0,222v45,-18,86,-27,121,-27v153,4,195,87,195,255xm388,-256v0,-93,-15,-146,-94,-149v-35,-1,-79,8,-106,14r0,294v35,3,58,5,71,5v112,-2,129,-47,129,-164","w":544},"c":{"d":"40,-256v0,-170,50,-255,210,-255v46,0,112,10,152,19r-4,99v-53,-6,-92,-9,-117,-9v-106,2,-125,38,-125,146v0,118,14,168,126,159r117,-9r3,99v-68,12,-120,18,-155,18v-166,-3,-207,-89,-207,-267","w":436},"d":{"d":"40,-253v0,-167,53,-255,208,-258v31,0,69,4,112,13r0,-202r115,0r0,700r-115,0r0,-24v-47,23,-91,35,-130,35v-152,0,-190,-95,-190,-264xm156,-252v0,99,13,157,92,157v33,0,70,-8,112,-22r0,-281r-60,-6v-16,-2,-31,-3,-44,-3v-82,3,-100,60,-100,155","w":548},"e":{"d":"155,-201v2,76,33,108,112,108v53,0,114,-3,184,-9r2,89v-76,16,-144,24,-203,24v-160,-2,-210,-87,-210,-255v0,-178,72,-267,217,-267v142,0,213,76,213,228r-8,82r-307,0xm357,-290v-1,-82,-22,-119,-100,-119v-75,0,-102,40,-102,119r202,0","w":507},"f":{"d":"249,-613v-62,0,-56,51,-57,114r129,0r0,103r-129,0r0,396r-114,0r0,-396r-57,0r0,-103r57,0v-1,-138,10,-220,142,-217r109,11r-1,94v-32,-1,-58,-2,-79,-2","w":340},"g":{"d":"504,67v2,126,-102,173,-233,173v-143,0,-232,-21,-232,-151v0,-64,31,-87,74,-122v-22,-15,-33,-39,-33,-73v0,-15,12,-42,37,-79v-48,-30,-72,-80,-72,-150v0,-159,155,-199,304,-162r152,-3r0,93r-72,0v14,19,21,43,21,72v-1,138,-66,172,-205,174v-16,0,-31,-1,-44,-4v-8,21,-12,36,-12,45v0,15,6,25,18,30v12,5,41,7,87,7v146,0,208,18,210,150xm152,77v0,55,50,60,120,60v77,0,116,-21,116,-64v0,-62,-32,-52,-103,-57r-97,-6v-24,21,-36,44,-36,67xm160,-335v0,58,24,78,85,78v63,-1,92,-17,92,-78v0,-61,-27,-77,-91,-77v-60,0,-86,19,-86,77","w":531},"h":{"d":"381,-261v-3,-89,-3,-143,-81,-143v-36,0,-84,8,-112,17r0,387r-114,0r0,-710r114,0r0,228v53,-19,97,-29,134,-29v149,3,174,88,174,249r0,262r-115,0r0,-261","w":562},"i":{"d":"72,0r0,-499r114,0r0,499r-114,0xm72,-580r0,-121r114,0r0,121r-114,0","w":257},"j":{"d":"78,-6r0,-493r114,0r0,494v0,66,-11,115,-34,147v-23,32,-70,65,-140,100r-51,-95v47,-28,78,-51,91,-68v13,-17,20,-46,20,-85xm78,-587r0,-121r114,0r0,121r-114,0","w":263},"k":{"d":"188,0r-114,0r0,-706r114,0r0,400r60,-8r115,-185r128,0r-141,234r147,265r-129,0r-118,-202r-62,8r0,194","w":511},"l":{"d":"73,0r0,-706r114,0r0,706r-114,0","w":259},"m":{"d":"612,-511v149,0,174,87,174,250r0,261r-114,0v-2,-108,8,-294,-13,-366v-18,-60,-135,-35,-178,-13v5,11,7,51,7,120r0,259r-114,0r0,-257v0,-57,-6,-95,-16,-116v-24,-52,-126,-26,-170,-8r0,381r-114,0r0,-499r113,0r0,27v39,-22,89,-38,139,-38v49,0,87,16,112,42v74,-29,132,-43,174,-43","w":853},"n":{"d":"382,-260v-3,-89,-3,-144,-82,-144v-36,0,-83,15,-112,23r0,381r-114,0r0,-499r114,0r0,25v53,-25,97,-37,134,-37v149,3,174,88,174,250r0,261r-114,0r0,-260","w":563},"o":{"d":"40,-252v0,-166,59,-259,225,-259v163,0,224,95,224,259v0,169,-55,263,-224,263v-169,0,-225,-93,-225,-263xm156,-252v0,104,13,160,109,160v95,0,108,-57,108,-160v0,-98,-19,-155,-108,-155v-93,0,-109,54,-109,155","w":529},"p":{"d":"505,-255v0,189,-49,262,-224,266v-32,0,-63,-3,-93,-9r0,212r-114,0r0,-713r114,0r0,27v45,-26,87,-39,125,-39v150,4,192,89,192,256xm389,-255v0,-92,-20,-151,-97,-151v-29,0,-64,9,-104,26r0,281v19,5,47,7,85,7v100,0,116,-53,116,-163","w":545},"q":{"d":"40,-243v0,-170,59,-268,228,-268v55,1,142,8,195,12r0,714r-115,0r0,-221v-23,11,-53,17,-90,17v-159,0,-218,-93,-218,-254xm268,-407v-90,2,-112,64,-113,164v0,119,48,168,145,146v23,-5,32,-9,48,-16r0,-292v-35,-1,-62,-2,-80,-2","w":536},"r":{"d":"74,0r0,-499r114,0r0,53v44,-33,94,-54,151,-65r0,122v-60,12,-110,29,-151,52r0,337r-114,0","w":359},"s":{"d":"50,-353v-2,-108,83,-158,189,-158v49,0,112,8,190,23r-2,97v-80,-11,-140,-16,-180,-16v-52,1,-81,6,-83,51v0,15,7,26,20,32v13,6,41,13,84,20v67,11,113,27,138,49v25,22,38,57,38,106v0,107,-66,160,-199,160v-47,0,-111,-8,-190,-23r4,-97v83,11,141,17,175,17v60,-1,96,-4,96,-54v0,-16,-6,-27,-18,-34v-12,-7,-38,-13,-78,-20v-68,-11,-116,-27,-143,-48v-27,-21,-41,-56,-41,-105","w":494},"t":{"d":"232,12v-126,-3,-150,-53,-150,-188r0,-220r-63,0r0,-103r63,0r0,-145r114,0r0,145r135,0r0,103r-135,0r0,204v3,66,-5,97,52,95r81,-3r5,98v-45,9,-79,14,-102,14","w":354},"u":{"d":"372,-499r114,0r0,499r-114,0r0,-25v-52,24,-96,36,-132,36v-69,0,-115,-18,-138,-55v-52,-84,-31,-310,-35,-455r114,0r0,260v0,58,5,97,14,117v24,51,132,23,177,7r0,-384","w":560},"v":{"d":"13,-499r119,0r95,404r30,0r97,-404r116,0r-128,499r-202,0","w":483},"w":{"d":"17,-499r113,0r74,396r22,0r90,-387r120,0r90,387r22,0r74,-396r113,0r-102,499r-185,0r-73,-334r-73,334r-183,0","w":752},"x":{"d":"16,-499r122,0r94,168r95,-168r122,0r-143,250r143,249r-122,0r-95,-167r-94,167r-122,0r142,-249","w":465},"y":{"d":"13,-499r113,0r103,388r26,0r103,-388r113,0r-133,505r-53,207r-113,0r55,-213r-84,0","w":484},"z":{"d":"53,-397r0,-103r371,0r0,103r-233,294r233,0r0,103r-371,0r0,-103r234,-294r-234,0","w":478},"{":{"d":"138,-313v69,24,105,55,100,142r-7,116v2,60,23,69,86,75r-1,112v-134,-6,-205,-44,-208,-173r7,-121v-3,-65,-35,-84,-96,-102r0,-96v62,-18,100,-30,96,-96r-7,-128v2,-135,69,-168,208,-175r1,112v-63,7,-89,11,-86,71r7,127v-1,88,-30,112,-100,136","w":328},"|":{"d":"201,196r0,-936r118,0r0,936r-118,0"},"}":{"d":"188,-310v-69,-24,-105,-55,-100,-142r7,-116v-2,-60,-23,-69,-86,-75r1,-112v134,6,205,44,208,173r-7,121v3,65,35,84,96,102r0,96v-62,18,-100,30,-96,96r7,128v-2,135,-69,168,-208,175r-1,-112v63,-7,89,-11,86,-71r-7,-127v1,-88,30,-112,100,-136","w":328},"\u00a0":{"w":235},"\u00a2":{"d":"138,-249v0,90,30,113,123,109r119,-5r4,99r-85,11r0,112r-97,0r0,-108v-125,-10,-181,-78,-181,-218v0,-137,60,-210,181,-219r0,-107r96,0r0,111r85,10r-3,99v-56,-3,-97,-4,-122,-4v-90,2,-120,21,-120,110","w":437},"\u00a3":{"d":"176,-495v0,-129,38,-181,153,-185v25,0,73,7,142,22r0,115v-56,-19,-98,-24,-144,-11v-32,18,-35,57,-38,116r134,0r0,106r-134,0r-1,226r126,0r72,-16r18,104r-81,17r-309,1r0,-106r62,0r0,-228r-39,0r0,-104r39,0r0,-57","w":570},"\u00a5":{"d":"48,-299r0,-96r108,0r-155,-265r131,0r139,231r138,-231r131,0r-153,265r105,0r0,96r-159,0v-2,15,-2,33,-2,51r161,0r0,96r-161,0r0,152r-118,0r0,-152r-165,0r0,-96r165,0v0,-18,1,-37,-3,-51r-162,0","w":540},"\u00a6":{"d":"201,-750r117,0r0,409r-117,0r0,-409xm201,-211r117,0r0,407r-117,0r0,-407"},"\u00a7":{"d":"90,-475v0,-106,66,-142,175,-143v42,0,94,4,156,13r-2,32v-71,-9,-122,-13,-154,-13v-93,0,-140,36,-140,109v1,47,8,74,38,92v36,20,57,23,110,32v59,10,101,23,127,41v26,18,39,52,39,99v0,42,-13,84,-38,126v23,20,35,51,35,94v0,105,-58,158,-173,158v-50,0,-122,-8,-168,-13r3,-32v73,9,128,14,165,14v92,0,138,-42,138,-126v0,-41,-8,-64,-37,-78v-64,-33,-173,-26,-229,-65v-34,-24,-47,-58,-47,-115v0,-37,15,-74,46,-111v-29,-21,-44,-59,-44,-114xm375,-103v29,-42,48,-156,-3,-185v-31,-28,-179,-40,-213,-59v-37,39,-55,153,2,187v46,28,173,36,214,57"},"\u00a8":{"d":"53,-593r0,-131r118,0r0,131r-118,0xm258,-593r0,-131r118,0r0,131r-118,0","w":833},"\u00a9":{"d":"265,-169v-143,0,-255,-122,-255,-265v0,-143,112,-266,255,-266v143,0,256,123,256,266v0,143,-113,265,-256,265xm265,-668v-126,0,-223,108,-223,234v0,127,97,233,223,233v126,0,224,-107,224,-233v0,-126,-98,-234,-224,-234xm265,-555v-74,2,-77,42,-77,122v0,74,9,127,77,120r73,-8r1,32v-29,5,-53,8,-74,8v-89,-1,-109,-59,-109,-152v0,-95,18,-153,109,-154v25,0,50,2,74,7r-1,32v-27,-5,-52,-7,-73,-7"},"\u00aa":{"d":"263,-659v59,1,83,27,83,88r0,134v4,13,16,21,37,23r-2,28v-21,-1,-39,-8,-54,-22v-42,15,-82,22,-119,22v-43,0,-70,-35,-70,-80v0,-47,25,-72,75,-76r102,-7v2,-49,-3,-81,-52,-78r-104,7r-2,-31v46,-5,81,-8,106,-8xm315,-520r-97,6v-33,3,-45,15,-47,50v-4,70,84,42,128,34r16,-5r0,-85","w":518},"\u00ab":{"d":"387,-380r-135,106r135,117r0,41v-89,-75,-144,-121,-167,-138r0,-36r167,-129r0,39xm594,-380r-135,106r135,117r0,41v-89,-75,-144,-121,-167,-138r0,-36r167,-129r0,39","w":833},"\u00ad":{"d":"68,-225r0,-112r304,0r0,112r-304,0","w":440},"\u00ae":{"d":"265,-169v-143,0,-255,-122,-255,-265v0,-143,112,-266,255,-266v143,0,256,123,256,266v0,143,-113,265,-256,265xm265,-668v-126,0,-223,108,-223,234v0,127,97,233,223,233v126,0,224,-107,224,-233v0,-126,-98,-234,-224,-234xm254,-591v80,1,115,16,115,90v0,51,-20,81,-59,91r65,134r-35,0r-66,-131r-79,0r0,131r-32,0r0,-315r91,0xm337,-501v3,-70,-75,-56,-142,-58r0,120r80,0v46,-1,60,-15,62,-62"},"\u00b0":{"d":"244,-418v-85,0,-147,-61,-147,-146v0,-85,62,-147,147,-147v85,0,147,62,147,147v0,85,-62,146,-147,146xm244,-646v-47,0,-80,35,-80,82v0,47,33,81,80,81v47,0,82,-34,82,-81v0,-47,-35,-82,-82,-82"},"\u00b1":{"d":"24,-306r0,-104r190,0r0,-122r104,0r0,122r193,0r0,104r-193,0r0,117r-104,0r0,-117r-190,0xm24,-144r487,0r0,104r-487,0r0,-104"},"\u00b4":{"d":"92,-673r244,-93r41,107r-244,89","w":833},"\u00b5":{"d":"176,-218v5,87,2,126,82,126v29,0,66,-8,110,-23r0,-384r114,0r0,499r-114,0r0,-25v-52,24,-96,36,-132,36v-25,0,-45,-4,-60,-12r0,227r-114,0r0,-726r114,0r0,282"},"\u00b6":{"d":"-3,-506v0,-110,76,-194,186,-194r388,0r0,113r-67,0r0,587r-114,0r0,-587r-86,0r0,587r-114,0r0,-315v-116,4,-193,-78,-193,-191","w":591},"\u00b8":{"d":"425,47v43,2,53,15,53,60v0,49,-12,63,-61,64v-8,0,-18,-1,-31,-4r2,-26v6,1,15,2,28,2v28,-1,28,-8,28,-36v0,-28,0,-31,-28,-32r-24,0r0,-76r33,0r0,48","w":833},"\u00ba":{"d":"259,-659v83,1,113,47,113,135v0,92,-38,138,-113,138v-77,0,-115,-46,-115,-138v0,-90,38,-135,115,-135xm178,-524v0,70,17,106,81,106v64,0,79,-36,79,-106v0,-70,-15,-103,-79,-103v-63,0,-81,34,-81,103","w":526},"\u00bb":{"d":"582,-274r-135,-106r0,-39r167,129r0,36v-23,17,-78,63,-167,138r0,-41xm375,-274r-135,-106r0,-39r167,129r0,36v-23,17,-78,63,-167,138r0,-41","w":833},"\u00c0":{"d":"26,0r165,-692r231,0r163,692r-118,0r-38,-136r-251,0r-34,136r-118,0xm282,-584r-79,335r203,0r-77,-335r-47,0xm183,-966r243,93r-40,103r-245,-89","w":604},"\u00c1":{"d":"26,0r165,-692r231,0r163,692r-118,0r-38,-136r-251,0r-34,136r-118,0xm282,-584r-79,335r203,0r-77,-335r-47,0xm153,-873r244,-93r41,107r-244,89","w":604},"\u00c2":{"d":"26,0r165,-692r231,0r163,692r-118,0r-38,-136r-251,0r-34,136r-118,0xm282,-584r-79,335r203,0r-77,-335r-47,0xm129,-776r129,-172r92,0r130,172r-114,0r-61,-82r-62,82r-114,0","w":604},"\u00c3":{"d":"26,0r165,-692r231,0r163,692r-118,0r-38,-136r-251,0r-34,136r-118,0xm282,-584r-79,335r203,0r-77,-335r-47,0xm374,-830v-38,0,-98,-54,-129,-54v-17,0,-40,14,-69,41r-25,-18v64,-59,98,-71,167,-27v60,39,60,34,117,-14r22,17v-34,37,-62,55,-83,55","w":604},"\u00c4":{"d":"26,0r165,-692r231,0r163,692r-118,0r-38,-136r-251,0r-34,136r-118,0xm282,-584r-79,335r203,0r-77,-335r-47,0xm143,-793r0,-131r118,0r0,131r-118,0xm348,-793r0,-131r118,0r0,131r-118,0","w":604},"\u00c5":{"d":"26,0r165,-692r231,0r163,692r-118,0r-38,-136r-251,0r-34,136r-118,0xm282,-584r-79,335r203,0r-77,-335r-47,0xm305,-754v-53,0,-94,-41,-94,-94v0,-52,42,-94,94,-94v52,0,94,42,94,94v0,52,-42,94,-94,94xm306,-909v-34,0,-61,27,-61,61v0,34,27,62,61,62v33,0,60,-29,60,-62v0,-33,-27,-61,-60,-61","w":604},"\u00c6":{"d":"428,0r0,-136r-225,0r-39,136r-119,0r198,-692r617,0r0,112r-316,0r0,172r256,0r0,112r-256,0r0,184r316,0r0,112r-432,0xm321,-562r-89,313r196,0r0,-313r-107,0","w":898},"\u00c7":{"d":"494,-120r3,106v-78,17,-143,25,-196,25v-100,0,-167,-28,-203,-84v-36,-56,-54,-147,-54,-272v0,-129,20,-219,56,-275v48,-74,166,-94,289,-76v48,7,73,11,109,20r-4,103v-78,-10,-137,-15,-177,-15v-60,0,-98,19,-121,51v-39,54,-37,325,0,381v31,47,106,58,192,48xm288,47v43,2,53,15,53,60v0,49,-12,63,-61,64v-8,0,-18,-1,-31,-4r2,-26v6,1,15,2,28,2v28,-1,28,-8,28,-36v0,-28,0,-31,-28,-32r-24,0r0,-76r33,0r0,48","w":537},"\u00c8":{"d":"103,0r0,-700r409,0r0,34r-373,0r0,289r313,0r0,34r-313,0r0,309r373,0r0,34r-409,0xm219,-932r192,96r-15,27r-193,-92","w":572},"\u00c9":{"d":"81,0r0,-692r432,0r0,112r-316,0r0,181r256,0r0,110r-256,0r0,177r316,0r0,112r-432,0xm169,-873r244,-93r41,107r-244,89","w":572},"\u00ca":{"d":"81,0r0,-692r432,0r0,112r-316,0r0,181r256,0r0,110r-256,0r0,177r316,0r0,112r-432,0xm136,-776r129,-172r92,0r130,172r-114,0r-61,-82r-62,82r-114,0","w":572},"\u00cb":{"d":"81,0r0,-692r432,0r0,112r-316,0r0,181r256,0r0,110r-256,0r0,177r316,0r0,112r-432,0xm150,-793r0,-131r118,0r0,131r-118,0xm355,-793r0,-131r118,0r0,131r-118,0","w":572},"\u00cc":{"d":"75,0r0,-692r118,0r0,692r-118,0xm1,-966r243,93r-40,103r-245,-89","w":226},"\u00cd":{"d":"75,0r0,-692r118,0r0,692r-118,0xm-49,-873r244,-93r41,107r-244,89","w":226},"\u00ce":{"d":"77,0r0,-692r118,0r0,692r-118,0xm-60,-776r129,-172r92,0r130,172r-114,0r-61,-82r-62,82r-114,0","w":231},"\u00cf":{"d":"75,0r0,-692r118,0r0,692r-118,0xm-48,-793r0,-131r118,0r0,131r-118,0xm157,-793r0,-131r118,0r0,131r-118,0","w":226},"\u00d0":{"d":"18,-288r0,-112r312,0r0,112r-312,0xm310,0r-233,0r0,-692v125,4,279,-15,371,21v111,43,140,155,140,313v-1,116,-10,191,-52,262v-41,68,-115,96,-226,96xm462,-258v11,-80,4,-227,-26,-270v-23,-33,-62,-52,-126,-52r-117,0r0,468v70,-2,153,7,199,-18v41,-23,62,-74,70,-128","w":631},"\u00d1":{"d":"68,0r0,-692r190,0r220,546r17,0r0,-546r118,0r0,692r-185,0r-226,-546r-17,0r0,546r-117,0xm412,-830v-38,0,-98,-54,-129,-54v-17,0,-40,14,-69,41r-25,-18v64,-59,98,-71,167,-27v60,39,60,34,117,-14r22,17v-34,37,-62,55,-83,55","w":687},"\u00d2":{"d":"328,-102v140,0,158,-85,158,-239v0,-86,-12,-149,-34,-189v-22,-40,-63,-60,-124,-60v-61,0,-100,21,-124,60v-42,66,-44,307,-1,372v24,36,64,56,125,56xm607,-341v0,231,-57,352,-279,352v-221,0,-279,-122,-279,-352v0,-230,59,-362,279,-362v220,0,279,132,279,362xm216,-966r243,93r-40,103r-245,-89","w":656},"\u00d3":{"d":"328,-102v140,0,158,-85,158,-239v0,-86,-12,-149,-34,-189v-22,-40,-63,-60,-124,-60v-61,0,-100,21,-124,60v-42,66,-44,307,-1,372v24,36,64,56,125,56xm607,-341v0,231,-57,352,-279,352v-221,0,-279,-122,-279,-352v0,-230,59,-362,279,-362v220,0,279,132,279,362xm166,-873r244,-93r41,107r-244,89","w":656},"\u00d4":{"d":"328,-102v140,0,158,-85,158,-239v0,-86,-12,-149,-34,-189v-22,-40,-63,-60,-124,-60v-61,0,-100,21,-124,60v-42,66,-44,307,-1,372v24,36,64,56,125,56xm607,-341v0,231,-57,352,-279,352v-221,0,-279,-122,-279,-352v0,-230,59,-362,279,-362v220,0,279,132,279,362xm153,-776r129,-172r92,0r130,172r-114,0r-61,-82r-62,82r-114,0","w":656},"\u00d5":{"d":"328,-102v140,0,158,-85,158,-239v0,-86,-12,-149,-34,-189v-22,-40,-63,-60,-124,-60v-61,0,-100,21,-124,60v-42,66,-44,307,-1,372v24,36,64,56,125,56xm607,-341v0,231,-57,352,-279,352v-221,0,-279,-122,-279,-352v0,-230,59,-362,279,-362v220,0,279,132,279,362xm398,-830v-38,0,-98,-54,-129,-54v-17,0,-40,14,-69,41r-25,-18v64,-59,98,-71,167,-27v60,39,60,34,117,-14r22,17v-34,37,-62,55,-83,55","w":656},"\u00d6":{"d":"328,-102v140,0,158,-85,158,-239v0,-86,-12,-149,-34,-189v-22,-40,-63,-60,-124,-60v-61,0,-100,21,-124,60v-42,66,-44,307,-1,372v24,36,64,56,125,56xm607,-341v0,231,-57,352,-279,352v-221,0,-279,-122,-279,-352v0,-230,59,-362,279,-362v220,0,279,132,279,362xm167,-793r0,-131r118,0r0,131r-118,0xm372,-793r0,-131r118,0r0,131r-118,0","w":656},"\u00d7":{"d":"243,-543r178,181r179,-181r75,74r-179,181r179,181r-75,73r-179,-180r-178,180r-74,-73r178,-181r-178,-181","w":591},"\u00d8":{"d":"608,-341v0,231,-57,349,-279,352v-38,0,-72,-4,-101,-12r-58,126r-104,-46r63,-134v-53,-52,-79,-147,-79,-286v0,-230,59,-360,279,-362v35,0,68,4,97,12r55,-119r106,40r-62,134v55,55,83,153,83,295xm196,-513v-29,60,-36,260,-2,318r181,-388v-25,-8,-54,-8,-85,-2v-45,9,-75,34,-94,72xm329,-102v140,-4,158,-85,158,-239v0,-73,-8,-127,-25,-160r-184,393v15,4,32,6,51,6","w":656},"\u00d9":{"d":"322,9v-166,0,-252,-66,-252,-232r0,-469r118,0r0,469v0,87,48,117,134,117v86,0,137,-31,137,-117r0,-469r118,0r0,469v0,166,-87,232,-255,232xm213,-966r243,93r-40,103r-245,-89","w":642},"\u00da":{"d":"322,9v-166,0,-252,-66,-252,-232r0,-469r118,0r0,469v0,87,48,117,134,117v86,0,137,-31,137,-117r0,-469r118,0r0,469v0,166,-87,232,-255,232xm163,-873r244,-93r41,107r-244,89","w":642},"\u00db":{"d":"322,9v-166,0,-252,-66,-252,-232r0,-469r118,0r0,469v0,87,48,117,134,117v86,0,137,-31,137,-117r0,-469r118,0r0,469v0,166,-87,232,-255,232xm150,-776r129,-172r92,0r130,172r-114,0r-61,-82r-62,82r-114,0","w":642},"\u00dc":{"d":"322,9v-166,0,-252,-66,-252,-232r0,-469r118,0r0,469v0,87,48,117,134,117v86,0,137,-31,137,-117r0,-469r118,0r0,469v0,166,-87,232,-255,232xm165,-793r0,-131r118,0r0,131r-118,0xm370,-793r0,-131r118,0r0,131r-118,0","w":642},"\u00dd":{"d":"331,-295r0,295r-118,0r0,-296r-212,-396r131,0r139,265r138,-265r131,0xm96,-873r244,-93r41,107r-244,89","w":540},"\u00de":{"d":"406,-356v0,-82,-37,-121,-118,-121r-132,0r0,257r132,0v81,0,118,-53,118,-136xm526,-356v1,156,-81,251,-237,250r-133,0r0,106r-118,0r0,-692r118,0r0,103r133,0v158,0,237,78,237,233","w":547},"\u00df":{"d":"366,-676v-110,0,-117,36,-117,157r0,519r-36,0r0,-532v3,-134,24,-178,153,-178v123,0,185,26,190,135v5,90,-64,96,-122,125v-13,8,-14,27,0,38v40,30,163,85,200,134v5,7,7,16,7,27v1,130,-22,213,-116,245v-48,17,-134,16,-200,11r4,-34v81,7,127,6,182,-9v51,-14,78,-61,87,-113v4,-24,5,-57,5,-100v0,-8,-10,-18,-27,-31v-22,-17,-156,-92,-176,-110v-19,-17,-20,-63,0,-79v26,-21,94,-34,111,-58v5,-7,7,-23,7,-46v-3,-87,-54,-101,-152,-101","w":833},"\u00e0":{"d":"263,-511v116,1,170,50,170,169r0,206v2,35,11,44,41,50r-4,97v-70,0,-95,-7,-134,-35v-57,23,-112,35,-163,35v-95,1,-146,-63,-145,-160v1,-110,60,-143,167,-152r124,-10v5,-54,-12,-91,-62,-90v-57,1,-141,7,-193,12r-4,-100v86,-15,154,-22,203,-22xm319,-222r-110,6v-44,4,-66,25,-66,64v0,43,17,65,51,65v35,0,77,-7,125,-20r0,-115xm131,-766r243,93r-40,103r-245,-89","w":536},"\u00e1":{"d":"474,-86v-30,-6,-41,-15,-41,-50r0,-206v0,-119,-54,-168,-170,-169v-62,0,-149,13,-203,22r4,100v79,-8,144,-12,193,-12v50,0,68,35,62,90v-88,9,-202,8,-250,51v-26,24,-41,60,-41,111v-1,97,50,161,145,160v51,0,106,-12,163,-35v38,28,64,35,134,35xm209,-216r110,-6r0,115v-48,13,-90,20,-125,20v-34,0,-51,-22,-51,-65v0,-39,22,-62,66,-64xm141,-673r244,-93r41,107r-244,89","w":536},"\u00e2":{"d":"474,-86v-30,-6,-41,-15,-41,-50r0,-206v0,-119,-54,-168,-170,-169v-62,0,-149,13,-203,22r4,100v79,-8,144,-12,193,-12v50,0,68,35,62,90v-88,9,-202,8,-250,51v-26,24,-41,60,-41,111v-1,97,50,161,145,160v51,0,106,-12,163,-35v38,28,64,35,134,35xm209,-216r110,-6r0,115v-48,13,-90,20,-125,20v-34,0,-51,-22,-51,-65v0,-39,22,-62,66,-64xm70,-576r129,-172r92,0r130,172r-114,0r-61,-82r-62,82r-114,0","w":536},"\u00e3":{"d":"474,-86v-30,-6,-41,-15,-41,-50r0,-206v0,-119,-54,-168,-170,-169v-62,0,-149,13,-203,22r4,100v79,-8,144,-12,193,-12v50,0,68,35,62,90v-88,9,-202,8,-250,51v-26,24,-41,60,-41,111v-1,97,50,161,145,160v51,0,106,-12,163,-35v38,28,64,35,134,35xm209,-216r110,-6r0,115v-48,13,-90,20,-125,20v-34,0,-51,-22,-51,-65v0,-39,22,-62,66,-64xm315,-630v-38,0,-98,-54,-129,-54v-17,0,-40,14,-69,41r-25,-18v64,-59,97,-72,166,-27v60,39,63,35,118,-14r22,17v-34,37,-62,55,-83,55","w":536},"\u00e4":{"d":"474,-86v-30,-6,-41,-15,-41,-50r0,-206v0,-119,-54,-168,-170,-169v-62,0,-149,13,-203,22r4,100v79,-8,144,-12,193,-12v50,0,68,35,62,90v-88,9,-202,8,-250,51v-26,24,-41,60,-41,111v-1,97,50,161,145,160v51,0,106,-12,163,-35v38,28,64,35,134,35xm209,-216r110,-6r0,115v-48,13,-90,20,-125,20v-34,0,-51,-22,-51,-65v0,-39,22,-62,66,-64xm82,-593r0,-131r118,0r0,131r-118,0xm287,-593r0,-131r118,0r0,131r-118,0","w":536},"\u00e5":{"d":"474,-86v-30,-6,-41,-15,-41,-50r0,-206v0,-119,-54,-168,-170,-169v-62,0,-149,13,-203,22r4,100v79,-8,144,-12,193,-12v50,0,68,35,62,90v-88,9,-202,8,-250,51v-26,24,-41,60,-41,111v-1,97,50,161,145,160v51,0,106,-12,163,-35v38,28,64,35,134,35xm209,-216r110,-6r0,115v-48,13,-90,20,-125,20v-34,0,-51,-22,-51,-65v0,-39,22,-62,66,-64xm245,-554v-53,0,-94,-41,-94,-94v0,-52,42,-94,94,-94v52,0,94,42,94,94v0,52,-42,94,-94,94xm246,-709v-34,0,-61,27,-61,61v0,34,27,62,61,62v33,0,60,-29,60,-62v0,-33,-27,-61,-60,-61","w":536},"\u00e6":{"d":"458,-201v2,76,32,108,111,108v53,0,115,-3,185,-9r2,89v-77,16,-145,24,-204,24v-67,0,-118,-17,-151,-50v-57,29,-133,50,-204,50v-96,0,-145,-62,-144,-160v1,-115,63,-144,176,-153r115,-9r0,-30v1,-38,-25,-60,-62,-60v-22,0,-49,1,-81,3r-112,7r-4,-100v86,-13,154,-20,203,-20v61,0,104,16,131,49v33,-33,80,-49,141,-49v147,1,212,77,212,228r-8,82r-306,0xm219,-87v40,0,101,-13,130,-22v-4,-34,-6,-72,-6,-113r-109,6v-44,3,-66,25,-66,64v0,43,17,65,51,65xm659,-290v-1,-82,-21,-119,-99,-119v-76,0,-102,40,-102,119r201,0","w":828},"\u00e7":{"d":"40,-256v0,-170,50,-255,210,-255v46,0,112,10,152,19r-4,99v-53,-6,-92,-9,-117,-9v-106,2,-125,38,-125,146v0,118,14,168,126,159r117,-9r3,99v-68,12,-120,18,-155,18v-166,-3,-207,-89,-207,-267xm252,47v43,2,53,15,53,60v0,49,-12,63,-61,64v-8,0,-18,-1,-31,-4r2,-26v6,1,15,2,28,2v28,-1,28,-8,28,-36v0,-28,0,-31,-28,-32r-24,0r0,-76r33,0r0,48","w":436},"\u00e8":{"d":"153,-201v2,76,33,108,112,108v53,0,114,-3,184,-9r2,89v-76,16,-144,24,-203,24v-160,-2,-210,-87,-210,-255v0,-178,72,-267,217,-267v142,0,213,76,213,228r-8,82r-307,0xm355,-290v-1,-82,-22,-119,-100,-119v-75,0,-102,40,-102,119r202,0xm123,-766r243,93r-40,103r-245,-89","w":497},"\u00e9":{"d":"153,-201v2,76,33,108,112,108v53,0,114,-3,184,-9r2,89v-76,16,-144,24,-203,24v-160,-2,-210,-87,-210,-255v0,-178,72,-267,217,-267v142,0,213,76,213,228r-8,82r-307,0xm355,-290v-1,-82,-22,-119,-100,-119v-75,0,-102,40,-102,119r202,0xm115,-673r244,-93r41,107r-244,89","w":497},"\u00ea":{"d":"153,-201v2,76,33,108,112,108v53,0,114,-3,184,-9r2,89v-76,16,-144,24,-203,24v-160,-2,-210,-87,-210,-255v0,-178,72,-267,217,-267v142,0,213,76,213,228r-8,82r-307,0xm355,-290v-1,-82,-22,-119,-100,-119v-75,0,-102,40,-102,119r202,0xm90,-576r129,-172r92,0r130,172r-114,0r-61,-82r-62,82r-114,0","w":497},"\u00eb":{"d":"153,-201v2,76,33,108,112,108v53,0,114,-3,184,-9r2,89v-76,16,-144,24,-203,24v-160,-2,-210,-87,-210,-255v0,-178,72,-267,217,-267v142,0,213,76,213,228r-8,82r-307,0xm355,-290v-1,-82,-22,-119,-100,-119v-75,0,-102,40,-102,119r202,0xm106,-593r0,-131r118,0r0,131r-118,0xm311,-593r0,-131r118,0r0,131r-118,0","w":497},"\u00ec":{"d":"-13,-766r243,93r-40,103r-245,-89xm76,0r0,-499r114,0r0,499r-114,0","w":261},"\u00ed":{"d":"-1,-673r244,-93r41,107r-244,89xm76,0r0,-499r114,0r0,499r-114,0","w":261},"\u00ee":{"d":"76,0r0,-499r114,0r0,499r-114,0xm-45,-576r129,-172r92,0r130,172r-114,0r-61,-82r-62,82r-114,0","w":261},"\u00ef":{"d":"-31,-593r0,-131r118,0r0,131r-118,0xm174,-593r0,-131r118,0r0,131r-118,0xm76,0r0,-499r114,0r0,499r-114,0","w":261},"\u00f1":{"d":"504,-261v-3,-162,-24,-250,-174,-250v-46,0,-100,22,-134,37r0,-25r-114,0r0,499r114,0r0,-381v45,-15,83,-23,112,-23v79,0,82,55,82,144r0,260r114,0r0,-261xm368,-630v-38,0,-98,-54,-129,-54v-17,0,-40,14,-69,41r-25,-18v64,-59,98,-71,167,-27v60,39,60,34,117,-14r22,17v-34,37,-62,55,-83,55","w":574},"\u00f2":{"d":"82,-252v0,-166,59,-259,225,-259v163,0,224,95,224,259v0,169,-55,263,-224,263v-169,0,-225,-93,-225,-263xm198,-252v0,104,13,160,109,160v95,0,108,-57,108,-160v0,-98,-19,-155,-108,-155v-93,0,-109,54,-109,155xm131,-766r243,93r-40,103r-245,-89","w":536},"\u00f3":{"d":"531,-252v0,-164,-61,-259,-224,-259v-165,0,-225,93,-225,259v0,170,56,263,225,263v169,0,224,-94,224,-263xm415,-252v0,103,-13,160,-108,160v-96,0,-109,-56,-109,-160v0,-101,16,-155,109,-155v89,0,108,58,108,155xm121,-673r244,-93r41,107r-244,89","w":536},"\u00f4":{"d":"531,-252v0,-164,-61,-259,-224,-259v-165,0,-225,93,-225,259v0,170,56,263,225,263v169,0,224,-94,224,-263xm415,-252v0,103,-13,160,-108,160v-96,0,-109,-56,-109,-160v0,-101,16,-155,109,-155v89,0,108,58,108,155xm88,-576r129,-172r92,0r130,172r-114,0r-61,-82r-62,82r-114,0","w":536},"\u00f5":{"d":"531,-252v0,-164,-61,-259,-224,-259v-165,0,-225,93,-225,259v0,170,56,263,225,263v169,0,224,-94,224,-263xm415,-252v0,103,-13,160,-108,160v-96,0,-109,-56,-109,-160v0,-101,16,-155,109,-155v89,0,108,58,108,155xm333,-630v-38,0,-98,-54,-129,-54v-17,0,-40,14,-69,41r-25,-18v64,-59,97,-72,166,-27v60,39,63,35,118,-14r22,17v-34,37,-62,55,-83,55","w":536},"\u00f6":{"d":"531,-252v0,-164,-61,-259,-224,-259v-165,0,-225,93,-225,259v0,170,56,263,225,263v169,0,224,-94,224,-263xm415,-252v0,103,-13,160,-108,160v-96,0,-109,-56,-109,-160v0,-101,16,-155,109,-155v89,0,108,58,108,155xm102,-593r0,-131r118,0r0,131r-118,0xm307,-593r0,-131r118,0r0,131r-118,0","w":536},"\u00f7":{"d":"167,-388r0,-113r173,0r0,113r-173,0xm44,-280r0,-113r413,0r0,113r-413,0xm197,-65r0,-121r114,0r0,121r-114,0"},"\u00f8":{"d":"60,-261v0,-174,42,-244,205,-248v31,0,59,4,83,12r40,-96r30,11r-40,98v59,34,88,109,88,225v0,98,-14,167,-41,207v-27,40,-81,61,-160,61v-33,0,-61,-3,-85,-9r-42,104r-30,-10r42,-104v-80,-40,-90,-120,-90,-251xm265,-477v-144,4,-168,61,-168,216v0,65,4,115,13,148v9,33,26,57,53,71r173,-424v-22,-7,-46,-11,-71,-11xm193,-30v42,11,124,9,159,-6v44,-18,65,-66,72,-118v3,-26,5,-61,5,-105v0,-97,-22,-161,-65,-192","w":526},"\u00f9":{"d":"385,-499r114,0r0,499r-114,0r0,-25v-52,24,-96,36,-132,36v-69,0,-116,-18,-139,-55v-52,-84,-30,-310,-34,-455r114,0r0,260v0,58,5,97,14,117v24,51,133,24,177,7r0,-384xm140,-766r243,93r-40,103r-245,-89","w":511},"\u00fa":{"d":"499,-499r-114,0r0,384v-43,15,-80,23,-109,23v-36,0,-59,-10,-68,-30v-9,-20,-14,-59,-14,-117r0,-260r-114,0v4,147,-16,369,34,455v28,48,119,68,196,46v32,-9,50,-16,75,-27r0,25r114,0r0,-499xm130,-673r244,-93r41,107r-244,89","w":511},"\u00fb":{"d":"499,-499r-114,0r0,384v-43,15,-80,23,-109,23v-36,0,-59,-10,-68,-30v-9,-20,-14,-59,-14,-117r0,-260r-114,0v4,147,-16,369,34,455v28,48,119,68,196,46v32,-9,50,-16,75,-27r0,25r114,0r0,-499xm97,-576r129,-172r92,0r130,172r-114,0r-61,-82r-62,82r-114,0","w":511},"\u00fc":{"d":"499,-499r-114,0r0,384v-43,15,-80,23,-109,23v-36,0,-59,-10,-68,-30v-9,-20,-14,-59,-14,-117r0,-260r-114,0v4,147,-16,369,34,455v28,48,119,68,196,46v32,-9,50,-16,75,-27r0,25r114,0r0,-499xm111,-593r0,-131r118,0r0,131r-118,0xm316,-593r0,-131r118,0r0,131r-118,0","w":511},"\u00fd":{"d":"5,-499r113,0r103,388r26,0r103,-388r113,0r-133,505r-53,207r-113,0r55,-213r-84,0xm104,-673r244,-93r41,107r-244,89","w":480},"\u00fe":{"d":"401,-256v0,-93,-15,-146,-94,-149v-34,-1,-78,8,-106,14r0,294v35,3,58,5,71,5v112,-2,129,-47,129,-164xm272,11r-71,-3r0,206r-114,0r0,-920r114,0r0,222v45,-18,86,-27,121,-27v153,4,195,87,195,255v0,199,-53,263,-245,267","w":538},"\u00ff":{"d":"30,-500r155,500r61,0r-72,230r37,0r229,-730r-37,0r-148,468r-41,0r-147,-468r-37,0xm137,-638r0,-62r35,0r0,62r-35,0xm307,-638r0,-62r35,0r0,62r-35,0","w":480},"\u0152":{"d":"877,0r-429,0v-92,15,-188,20,-256,-10v-110,-48,-132,-172,-132,-335v0,-129,19,-221,58,-276v39,-55,107,-82,204,-82v38,0,79,11,125,11r430,0r0,113r-314,0r0,171r254,0r0,112r-254,0r0,183r314,0r0,113xm341,-104v16,0,51,-2,106,-7r0,-470v-55,-5,-91,-7,-109,-7v-61,0,-99,19,-124,51v-41,54,-42,325,-2,381v23,33,64,52,129,52","w":944},"\u0153":{"d":"507,-201v2,76,32,108,111,108v53,0,115,-3,184,-9r2,89v-137,27,-286,49,-359,-35v-34,39,-88,59,-162,59v-169,0,-225,-93,-225,-263v0,-166,59,-259,225,-259v77,0,133,23,167,68v35,-45,88,-68,159,-68v147,1,212,77,212,228r-8,82r-306,0xm175,-252v0,104,13,160,108,160v95,0,108,-57,108,-160v0,-98,-18,-155,-108,-155v-92,0,-108,55,-108,155xm708,-290v-1,-82,-21,-119,-99,-119v-76,0,-103,40,-103,119r202,0","w":876},"\u0178":{"d":"289,-301r0,301r-36,0r0,-301r-228,-399r41,0r205,359r202,-359r42,0xm167,-838r0,-62r35,0r0,62r-35,0xm337,-838r0,-62r35,0r0,62r-35,0","w":540},"\u02c6":{"d":"235,-576r129,-172r92,0r130,172r-114,0r-61,-82r-62,82r-114,0","w":833},"\u02dc":{"d":"301,-630v-38,0,-98,-54,-129,-54v-17,0,-40,14,-69,41r-25,-18v64,-59,97,-72,166,-27v60,39,63,35,118,-14r22,17v-34,37,-62,55,-83,55","w":833},"\u2018":{"d":"154,-727r-47,238r-117,0r56,-238r108,0","w":170},"\u2019":{"d":"15,-527r47,-238r117,0r-56,238r-108,0","w":170},"\u2022":{"d":"247,0r0,-80r40,0r0,80r-40,0"},"\u20ac":{"d":"360,11v-167,-1,-223,-62,-244,-212r-61,0r0,-90r55,0r0,-74r-55,0r0,-90r61,0v20,-153,77,-216,244,-218v58,0,132,8,178,19r-4,104v-66,-5,-119,-7,-158,-7v-90,1,-122,25,-137,103r229,0r0,89r-237,0r0,74r237,0r0,90r-228,0v16,74,49,102,139,97r155,-8r3,106v-65,11,-124,17,-177,17","w":580},"\u2122":{"d":"7,-590r0,-31r200,0r0,31r-83,0r0,258r-33,0r0,-258r-84,0xm242,-331r0,-290r50,0r84,242r87,-242r50,0r0,290r-32,0r0,-258r-88,247r-35,0r-84,-247r0,258r-32,0"}}});
