/*!
 * The following copyright notice may not be removed under any circumstances.
 * 
 * Copyright:
 * Generated in 2009 by FontLab Studio. Copyright info pending.
 */
Cufon.registerFont({"w":530,"face":{"font-family":"TitilliumText14L","font-weight":900,"font-stretch":"normal","units-per-em":"1000","panose-1":"0 0 0 0 0 0 0 0 0 0","ascent":"750","descent":"-250","x-height":"12","bbox":"-70 -974 945 248","underline-thickness":"50","underline-position":"-50","unicode-range":"U+0020-U+2122"},"glyphs":{" ":{"w":235},"!":{"d":"200,0r0,-166r144,0r0,166r-144,0xm203,-260r-5,-440r148,0r-5,440r-138,0"},"\"":{"d":"325,-440r-122,0r-2,-250r129,0xm157,-440r-122,0r-2,-250r129,0","w":355},"#":{"d":"529,-165r-96,0r0,165r-116,0r0,-165r-104,0r0,165r-116,0r0,-165r-96,0r0,-112r96,0r0,-106r-96,0r0,-112r96,0r0,-165r116,0r0,165r104,0r0,-165r116,0r0,165r96,0r0,112r-96,0r0,106r96,0r0,112xm317,-277r0,-106r-104,0r0,106r104,0"},"$":{"d":"493,-180v2,146,-95,195,-248,186r-14,114v-23,-2,-35,-4,-35,-7r14,-109r-144,-13r4,-35v51,7,99,12,144,15r39,-298v-64,-12,-97,-20,-140,-49v-38,-26,-52,-66,-52,-129v-1,-137,94,-168,237,-166r16,-119r35,0r-16,121r141,14r-3,34v-53,-6,-100,-11,-142,-14r-36,277v70,13,101,18,148,48v39,26,51,65,52,130xm279,-27v138,5,198,-83,168,-207v-17,-68,-84,-73,-159,-87r-38,294r29,0xm294,-637v-117,-1,-194,20,-194,130v0,48,11,81,34,99v23,18,65,33,124,44"},"%":{"d":"1,-556v0,-88,39,-145,125,-145v83,0,125,50,125,151v0,84,-40,140,-125,140v-86,0,-125,-59,-125,-146xm279,-148v0,-88,39,-145,125,-145v86,0,125,58,125,145v0,87,-39,146,-125,146v-86,0,-125,-59,-125,-146xm98,-6r246,-714r86,30r-246,714xm126,-621v-29,3,-27,27,-27,65v0,39,-2,62,27,66v29,-3,27,-28,27,-66v0,-39,2,-61,-27,-65xm404,-213v-29,3,-27,27,-27,65v0,39,-2,62,27,66v29,-3,27,-28,27,-66v0,-39,2,-61,-27,-65"},"&":{"d":"120,-550v-1,-108,88,-164,203,-164v125,0,204,55,204,175v0,43,-9,80,-29,109v-20,29,-54,62,-103,98r78,80v13,-57,21,-95,24,-116r130,3v-10,69,-27,135,-50,196r112,104r-80,90r-103,-89v-76,56,-117,85,-235,87v-142,1,-241,-80,-239,-221v0,-84,46,-152,139,-205v-36,-52,-50,-69,-51,-147xm170,-199v-2,57,47,97,105,96v63,-1,87,-15,130,-44r-153,-163v-37,22,-80,61,-82,111xm255,-530v0,40,28,85,58,114v29,-21,49,-39,61,-54v12,-15,17,-33,17,-54v0,-43,-23,-64,-68,-64v-45,0,-68,19,-68,58","w":700},"'":{"d":"-18,-440r-2,-250r129,0r-5,250r-122,0","w":100},"(":{"d":"102,125v-41,-89,-97,-288,-97,-426v0,-151,54,-339,97,-449r146,0v-38,97,-93,310,-95,449v-2,112,37,275,95,426r-146,0","w":260},")":{"d":"142,-755v41,89,97,288,97,426v0,151,-54,339,-97,449r-146,0v38,-97,93,-310,95,-449v2,-112,-37,-275,-95,-426r146,0","w":260},"*":{"d":"454,-499r-123,0r38,120r-73,22r-41,-121r-103,79r-47,-59r105,-78r-102,-73r46,-63r99,69r41,-117r75,25r-38,122r123,0r0,74"},"+":{"d":"16,-230r0,-122r189,0r0,-188r122,0r0,188r191,0r0,122r-191,0r0,190r-122,0r0,-190r-189,0"},",":{"d":"-6,123r52,-260r144,0r-61,260r-135,0","w":170},"-":{"d":"70,-215r0,-132r300,0r0,132r-300,0","w":440},".":{"d":"45,0r0,-166r144,0r0,166r-144,0","w":248},"\/":{"d":"56,-20r283,-700r128,44r-283,700"},"0":{"d":"264,-672v85,0,149,27,192,82v43,55,65,143,65,264v0,121,-22,208,-65,260v-43,52,-107,78,-192,78v-85,0,-149,-26,-192,-78v-43,-52,-65,-139,-65,-260v0,-121,22,-209,65,-264v43,-55,107,-82,192,-82xm265,-540v-41,0,-67,17,-85,47v-30,49,-33,282,0,329v26,58,140,56,170,1v27,-49,28,-284,-1,-331v-18,-30,-44,-46,-84,-46"},"1":{"d":"28,-516r216,-144r128,0r0,660r-138,0r0,-499r-142,93"},"2":{"d":"253,-672v141,0,213,56,215,189v0,49,-11,91,-30,127v-34,63,-140,162,-203,224r244,0r0,132r-428,0r0,-126r137,-136r60,-60v29,-35,78,-77,78,-141v0,-103,-154,-69,-240,-61r-23,4r-8,-126v70,-17,136,-26,198,-26"},"3":{"d":"254,-391v38,3,85,-42,84,-77v0,-47,-33,-70,-99,-70v-55,0,-126,7,-173,13r-12,-121v77,-17,142,-26,195,-26v156,1,231,40,231,182v0,75,-29,109,-77,142v60,34,89,60,89,149v0,148,-72,211,-225,211v-71,0,-163,-13,-221,-24r13,-124v75,9,137,14,188,14v69,0,103,-25,103,-74v0,-47,-32,-70,-96,-70r-133,0r0,-125r133,0"},"4":{"d":"305,10r0,-106r-283,0r0,-112r164,-452r152,0r-160,432r127,0r0,-169r138,0r0,169r61,0r0,132r-61,0r0,106r-138,0"},"5":{"d":"353,-207v0,-57,-35,-85,-92,-85v-40,0,-75,5,-105,15r-106,-23r22,-361r403,0r0,132r-279,0r-16,126v43,-12,75,-18,96,-18v145,0,219,62,219,206v1,143,-83,228,-226,227v-69,0,-147,-11,-234,-33r15,-123v87,16,159,24,214,24v53,1,89,-34,89,-87"},"6":{"d":"265,12v-189,-2,-242,-135,-243,-339v0,-126,22,-215,66,-267v82,-97,237,-88,397,-56r-12,126v-68,-10,-130,-15,-186,-15v-91,0,-122,49,-123,141v29,-10,78,-24,116,-25v149,0,227,65,227,214v1,147,-94,223,-242,221xm163,-279v2,90,17,160,102,161v67,0,100,-30,100,-91v0,-59,-32,-88,-97,-88v-36,0,-78,10,-105,18"},"7":{"d":"49,-528r0,-133r422,0r0,157r-238,522r-128,-36r224,-486r0,-24r-280,0"},"8":{"d":"29,-492v0,-122,107,-180,239,-180v132,0,243,59,243,181v0,90,-18,105,-72,151v53,48,80,71,82,161v1,137,-112,191,-253,191v-167,0,-250,-60,-250,-180v1,-95,29,-123,83,-172v-51,-43,-72,-69,-72,-152xm268,-120v62,1,104,-24,105,-80v0,-33,-20,-58,-59,-73r-88,0v-40,15,-60,40,-60,73v0,53,34,80,102,80xm270,-540v-62,0,-93,23,-93,70v0,28,16,53,49,76r88,0v33,-23,49,-48,49,-76v0,-47,-31,-70,-93,-70"},"9":{"d":"500,-324v0,210,-60,338,-265,336v-56,0,-122,-7,-198,-22r12,-126v68,10,130,15,186,15v88,0,122,-45,123,-132v-35,6,-79,16,-116,16v-143,0,-227,-71,-227,-214v0,-144,98,-222,242,-221v162,0,243,116,243,348xm257,-542v-61,0,-100,30,-100,91v0,59,32,88,97,88v36,0,71,-4,105,-13v0,-111,-34,-166,-102,-166"},":":{"d":"35,-289r0,-166r144,0r0,166r-144,0xm35,0r0,-166r144,0r0,166r-144,0","w":230},";":{"d":"66,-157r-62,270r125,0r81,-270r-144,0xm56,-289r0,-166r144,0r0,166r-144,0","w":241},"<":{"d":"410,-419r-215,110r215,113r0,140r-347,-181r0,-140r347,-182r0,140"},"=":{"d":"21,-333r0,-122r475,0r0,122r-475,0xm21,-116r0,-122r475,0r0,122r-475,0"},">":{"d":"278,-309r-215,-110r0,-140r347,182r0,140r-347,181r0,-140"},"?":{"d":"176,-714v156,2,223,46,225,198v1,100,-56,155,-115,195v-27,18,-62,38,-62,73r0,38r-144,0v-1,-44,0,-79,18,-108v34,-56,100,-75,137,-126v12,-16,18,-34,18,-54v-2,-62,-15,-73,-83,-74v-46,0,-105,11,-149,18r-16,-132v78,-19,135,-28,171,-28xm80,0r0,-166r144,0r0,166r-144,0","w":386},"@":{"d":"504,-729v292,-1,441,148,441,441v0,106,-16,182,-48,228v-32,46,-80,70,-145,70v-58,0,-101,-14,-130,-43v-57,28,-108,42,-151,42v-142,0,-187,-91,-187,-251v-1,-157,36,-267,191,-267v19,0,50,7,93,22r0,-13r134,0r0,200v0,53,2,93,5,119v7,42,8,61,45,61v21,0,36,-12,45,-34v9,-22,14,-88,13,-152v-1,-214,-91,-291,-306,-292v-217,-1,-331,119,-329,337v2,245,85,337,329,339r143,-9r5,130v-293,35,-512,-18,-582,-235v-20,-61,-30,-136,-30,-225v0,-300,174,-468,464,-468xm505,-382v-86,4,-85,41,-85,140v0,44,4,74,14,92v27,44,85,25,141,12v-11,-63,-6,-158,-7,-234v-29,-7,-50,-10,-63,-10","w":985},"A":{"d":"20,0r153,-690r262,0r150,690r-138,0r-31,-116r-232,0r-26,116r-138,0xm280,-563r-67,314r177,0r-65,-314r-45,0","w":605},"B":{"d":"560,-195v1,135,-85,195,-221,195r-269,0r0,-690r265,0v126,0,213,51,212,175v-1,90,-20,126,-75,162v63,29,87,68,88,158xm332,-127v58,0,86,-22,86,-79v0,-51,-29,-77,-86,-77r-126,0r0,156r126,0xm328,-563r-122,0r0,155r123,0v51,0,77,-27,77,-82v0,-49,-26,-73,-78,-73","w":605},"C":{"d":"495,-139r3,124v-79,18,-145,27,-198,27v-101,0,-170,-28,-206,-84v-36,-56,-54,-146,-54,-273v0,-131,20,-222,58,-277v50,-72,168,-92,290,-73v48,7,73,13,111,22r-4,121v-81,-9,-139,-14,-175,-14v-77,1,-107,20,-125,82v-20,67,-14,275,15,315v30,42,100,49,179,41","w":534},"D":{"d":"445,-22v-91,35,-250,18,-375,22r0,-690v174,6,385,-28,460,82v44,65,56,136,56,250v0,121,-8,194,-52,266v-20,32,-50,55,-89,70xm364,-142v92,-31,81,-164,78,-280v-1,-32,-7,-71,-21,-90v-23,-34,-65,-47,-124,-47r-91,0r0,428v54,-1,118,3,158,-11","w":626},"E":{"d":"70,0r0,-690r438,0r0,132r-302,0r0,154r242,0r0,129r-242,0r0,143r302,0r0,132r-438,0","w":553},"F":{"d":"70,0r0,-690r438,0r0,132r-302,0r0,199r242,0r0,131r-242,0r0,228r-136,0","w":538},"G":{"d":"335,-567v-141,0,-153,62,-153,220v0,89,10,148,29,179v19,31,59,49,120,46r83,-4r0,-117r-62,0r0,-123r198,0r0,355v-95,15,-173,23,-232,23v-222,-2,-278,-128,-278,-359v0,-234,55,-352,273,-355v77,-1,175,15,237,29r-4,119v-80,-9,-150,-13,-211,-13","w":595},"H":{"d":"461,0r0,-285r-253,0r0,285r-138,0r0,-690r138,0r0,272r253,0r0,-272r138,0r0,690r-138,0","w":669},"I":{"d":"70,0r0,-690r138,0r0,690r-138,0","w":278},"J":{"d":"243,-690r1,575v-2,150,-61,182,-214,185r0,-128v51,0,76,-21,76,-64r0,-568r137,0","w":314},"K":{"d":"414,0r-114,-271r-92,10r0,261r-138,0r0,-690r138,0r0,296r90,-10r112,-286r159,0r-148,343r152,347r-159,0","w":593},"L":{"d":"457,0r-387,0r0,-690r138,0r0,557r249,0r0,133","w":487},"M":{"d":"70,0r0,-690r220,0r135,496r135,-496r218,0r0,690r-138,0r0,-516r-15,0r-131,486r-138,0r-133,-486r-15,0r0,516r-138,0","w":848},"N":{"d":"70,0r0,-690r217,0r191,516r15,0r0,-516r138,0r0,690r-210,0r-198,-516r-15,0r0,516r-138,0","w":701},"O":{"d":"182,-340v0,139,15,219,140,219v125,0,140,-81,140,-219v0,-79,-10,-137,-30,-174v-20,-37,-57,-55,-110,-55v-124,0,-140,90,-140,229xm604,-340v0,229,-61,352,-282,352v-220,0,-282,-123,-282,-352v0,-230,62,-362,282,-362v220,0,282,132,282,362","w":644},"P":{"d":"562,-449v0,160,-83,253,-242,252r-112,0r0,197r-138,0r0,-690r250,0v161,0,242,80,242,241xm208,-330r111,0v69,0,103,-40,103,-119v0,-72,-34,-108,-103,-108r-111,0r0,227","w":592},"Q":{"d":"322,-702v220,0,282,132,282,362v0,153,-34,254,-103,305r81,132r-126,59r-90,-146v-19,1,-33,2,-44,2v-220,-2,-282,-123,-282,-352v0,-230,62,-362,282,-362xm182,-340v0,139,15,219,140,219v125,0,140,-81,140,-219v0,-79,-10,-137,-30,-174v-20,-37,-57,-55,-110,-55v-124,0,-140,90,-140,229","w":644},"R":{"d":"334,-690v165,1,239,65,240,229v0,89,-33,155,-100,197r97,264r-151,0r-80,-223r-132,0r0,223r-138,0r0,-690r264,0xm433,-459v0,-67,-33,-100,-99,-100r-126,0r0,205r128,0v65,0,97,-35,97,-105","w":614},"S":{"d":"50,-505v0,-159,142,-219,308,-190v32,6,58,9,78,13r30,7r-11,124v-81,-11,-140,-16,-179,-16v-59,0,-88,20,-88,60v0,22,8,39,22,50v14,11,48,29,102,52v65,27,108,54,132,81v24,27,36,69,36,126v1,140,-81,210,-222,210v-51,0,-121,-9,-210,-28r14,-124v83,11,148,17,195,17v57,0,85,-24,85,-72v0,-21,-6,-36,-18,-47v-12,-11,-40,-25,-83,-43v-77,-33,-128,-63,-153,-91v-25,-28,-38,-71,-38,-129"},"T":{"d":"-10,-557r0,-133r500,0r0,133r-180,0r0,557r-138,0r0,-557r-182,0","w":480},"U":{"d":"319,9v-171,0,-259,-69,-259,-239r0,-460r138,0r0,460v0,77,45,103,121,104v81,0,121,-35,121,-104r0,-460r138,0r0,460v0,170,-88,239,-259,239","w":638},"V":{"d":"448,-690r145,0r-160,690r-255,0r-158,-690r145,0r118,558r45,0","w":613},"W":{"d":"24,-690r145,0r104,548r15,0r104,-548r157,0r104,548r15,0r104,-548r145,0r-154,690r-205,0r-88,-487r-87,487r-205,0","w":941},"X":{"d":"168,-690r123,241r122,-241r153,0r-183,348r183,342r-153,0r-122,-237r-123,237r-153,0r186,-342r-186,-348r153,0","w":581},"Y":{"d":"356,-294r0,294r-138,0r0,-295r-208,-395r153,0r123,241r122,-241r153,0","w":571},"Z":{"d":"60,-557r0,-133r450,0r0,133r-273,409r0,15r273,0r0,133r-450,0r0,-133r273,-409r0,-15r-273,0","w":570},"[":{"d":"281,-749r0,132r-115,0r0,608r115,0r0,132r-252,0r-1,-872r253,0","w":300},"\\":{"d":"643,0r-149,0r-308,-702r150,0","w":833},"]":{"d":"-69,-617r0,-132r253,0r-1,872r-252,0r0,-132r115,0r0,-608r-115,0","w":300},"^":{"d":"379,-439r-110,-215r-113,215r-140,0r181,-347r140,0r182,347r-140,0"},"_":{"d":"27,-15r428,0r0,122r-428,0r0,-122","w":520},"`":{"d":"136,-774r256,92r-47,122r-257,-88","w":545},"a":{"d":"280,-511v120,1,176,49,176,172r0,185v1,37,3,45,32,52r-4,114v-77,0,-98,-6,-142,-34v-56,23,-107,34,-153,34v-99,1,-149,-64,-149,-164v1,-115,62,-145,174,-154r108,-7v5,-43,-12,-70,-50,-70v-57,0,-142,5,-194,11r-4,-117v89,-15,157,-22,206,-22xm322,-211r-91,4v-37,2,-56,19,-56,51v0,84,93,47,147,38r0,-93","w":528},"b":{"d":"511,-255v0,203,-55,263,-249,267r-157,-10r-38,-4r0,-698r134,0r0,212v43,-15,79,-23,108,-23v156,4,202,85,202,256xm375,-255v0,-81,-17,-138,-84,-132r-90,8r0,265v31,3,51,5,61,5v98,-2,113,-42,113,-146","w":546},"c":{"d":"35,-255v0,-167,52,-256,211,-256v49,0,117,13,160,21r-4,115v-53,-5,-92,-8,-117,-8v-97,2,-114,30,-114,128v0,105,14,146,115,139r116,-8r4,115v-71,14,-126,21,-163,21v-163,-3,-208,-92,-208,-267","w":436},"d":{"d":"35,-255v-4,-180,75,-273,250,-253r65,10r0,-202r134,0r0,700r-134,0r0,-20v-46,21,-86,31,-120,31v-160,-3,-192,-96,-195,-266xm171,-255v0,89,7,142,82,142v26,0,58,-5,97,-14r0,-254v-37,-6,-69,-9,-98,-9v-54,0,-81,45,-81,135","w":551},"e":{"d":"170,-192v3,62,33,81,101,81v55,0,116,-3,185,-9r2,104v-77,19,-146,28,-208,28v-161,-2,-214,-85,-215,-255v0,-179,74,-268,221,-268v145,0,218,75,218,225r-10,94r-294,0xm342,-295v-1,-69,-20,-97,-86,-97v-66,0,-85,31,-87,97r173,0","w":507},"f":{"d":"253,-590v-50,-2,-48,40,-48,91r121,0r0,121r-121,0r0,378r-134,0r0,-378r-54,0r0,-121r54,0r0,-23v2,-132,24,-188,146,-188v34,0,83,8,114,13r-2,109v-29,-1,-55,-2,-76,-2","w":343},"g":{"d":"513,62v3,127,-107,178,-237,178v-80,0,-140,-11,-180,-32v-40,-21,-61,-60,-61,-117v0,-43,24,-83,71,-120v-31,-22,-47,-65,-26,-106v10,-20,19,-33,29,-49v-45,-33,-68,-82,-68,-149v0,-160,160,-201,311,-164r154,-3r0,107r-63,0v11,20,17,40,17,60v-1,139,-70,174,-211,176v-15,0,-29,-1,-41,-4v-12,30,-18,53,8,65v11,5,38,7,79,7v150,3,215,18,218,151xm378,70v0,-49,-33,-38,-94,-43r-90,-7v-18,18,-27,37,-27,57v0,29,37,43,110,43v67,0,101,-17,101,-50xm175,-333v0,48,23,64,74,64v53,-1,79,-14,79,-64v0,-48,-27,-63,-78,-63v-50,0,-75,16,-75,63","w":538},"h":{"d":"367,-262v-2,-73,-5,-121,-70,-124v-22,0,-54,4,-96,12r0,374r-134,0r0,-700r134,0r0,215v51,-17,93,-26,124,-26v147,3,176,92,176,249r0,262r-134,0r0,-262","w":561},"i":{"d":"67,0r0,-499r134,0r0,499r-134,0xm67,-564r0,-137r134,0r0,137r-134,0","w":268},"j":{"d":"70,-6r0,-493r134,0r0,494v0,68,-12,119,-36,151v-24,32,-71,66,-142,102r-60,-111v45,-27,74,-49,86,-64v12,-15,18,-42,18,-79xm70,-573r0,-137r134,0r0,137r-134,0","w":271},"k":{"d":"201,0r-134,0r0,-700r134,0r0,391r51,-10r99,-180r150,0r-129,236r136,263r-151,0r-102,-188r-54,10r0,178","w":518},"l":{"d":"67,0r0,-700r134,0r0,700r-134,0","w":268},"m":{"d":"360,-257v-3,-83,2,-129,-70,-129v-29,0,-67,9,-89,17r0,369r-134,0r0,-499r133,0r0,24v32,-16,78,-36,118,-36v54,0,95,14,122,41v73,-27,130,-41,171,-41v148,3,176,89,176,250r0,261r-134,0r0,-206v0,-77,-3,-124,-10,-142v-9,-25,-29,-38,-60,-38v-27,0,-58,6,-93,19v3,46,4,82,4,108r0,259r-134,0r0,-257","w":847},"n":{"d":"367,-261v-2,-74,-4,-125,-70,-125v-30,0,-72,9,-96,17r0,369r-134,0r0,-499r134,0r0,22v51,-23,93,-34,124,-34v148,3,176,92,176,250r0,261r-134,0r0,-261","w":561},"o":{"d":"35,-250v0,-164,63,-261,230,-261v167,0,230,97,230,261v0,164,-63,262,-230,262v-167,0,-230,-98,-230,-262xm171,-250v0,88,14,141,94,141v80,0,94,-54,94,-141v0,-88,-14,-140,-94,-140v-80,0,-94,53,-94,140"},"p":{"d":"511,-254v0,192,-49,261,-227,266v-25,0,-52,-3,-83,-8r0,206r-134,0r0,-709r134,0r0,23v43,-23,80,-35,113,-35v153,4,197,87,197,257xm274,-109v89,-3,101,-47,101,-145v0,-89,-29,-134,-87,-134v-23,0,-52,6,-87,19r0,255v30,3,54,5,73,5","w":546},"q":{"d":"263,12v-152,0,-228,-85,-228,-256v0,-178,76,-267,228,-267v39,0,127,6,167,9r39,3r0,710r-134,0r0,-211v-17,8,-41,12,-72,12xm263,-390v-63,0,-94,49,-94,146v0,104,43,149,127,130v18,-4,26,-7,39,-12r0,-262v-31,-1,-55,-2,-72,-2","w":536},"r":{"d":"67,0r0,-499r134,0r0,47v40,-29,86,-49,139,-59r0,144v-48,10,-105,25,-139,43r0,324r-134,0","w":360},"s":{"d":"47,-348v-1,-139,131,-181,275,-156r113,18r-2,112v-83,-11,-143,-16,-182,-16v-46,0,-67,2,-70,39v0,11,6,20,18,25v12,5,37,9,76,16v118,21,175,39,175,160v0,108,-67,162,-202,162v-60,0,-146,-13,-196,-25r4,-113v85,11,145,17,179,17v49,-1,81,-2,81,-38v0,-11,-5,-20,-15,-25v-10,-5,-32,-11,-66,-17v-69,-12,-118,-29,-146,-50v-28,-21,-42,-58,-42,-109","w":497},"t":{"d":"230,12v-131,-3,-156,-52,-156,-190r0,-200r-59,0r0,-121r59,0r0,-140r134,0r0,140r123,0r0,121r-123,0r0,189v-1,48,0,74,42,73r76,-2r6,115v-45,10,-79,15,-102,15","w":350},"u":{"d":"360,-499r134,0r0,499r-134,0r0,-21v-52,22,-93,33,-124,33v-70,0,-116,-19,-140,-57v-53,-85,-31,-307,-36,-454r134,0r0,261v0,51,4,84,12,102v19,44,112,21,154,10r0,-373","w":561},"v":{"d":"8,-499r139,0r82,388r27,0r84,-388r136,0r-120,499r-228,0","w":484},"w":{"d":"12,-499r132,0r61,378r24,0r76,-369r140,0r76,369r24,0r61,-378r132,0r-93,499r-215,0r-56,-306r-57,306r-212,0","w":750},"x":{"d":"10,-499r143,0r80,154r81,-154r143,0r-137,250r137,249r-143,0r-81,-153r-80,153r-143,0r136,-249","w":467},"y":{"d":"8,-499r132,0r91,368r23,0r91,-368r132,0r-175,708r-132,0r51,-209r-90,0","w":485},"z":{"d":"53,-379r0,-121r371,0r0,121r-210,258r210,0r0,121r-371,0r0,-121r210,-258r-210,0","w":477},"{":{"d":"163,-314v69,24,105,55,100,142r-7,117v2,50,18,50,71,57r0,132v-138,-6,-213,-41,-216,-172r7,-121v-3,-63,-34,-80,-94,-98r0,-112v61,-18,97,-27,94,-90r-7,-127v3,-138,74,-168,216,-175r0,132v-53,7,-74,3,-71,53r7,128v-1,87,-30,110,-100,134","w":339},"|":{"d":"191,230r0,-980r138,0r0,980r-138,0"},"}":{"d":"176,-309v-69,-24,-105,-55,-100,-142r7,-117v-2,-50,-18,-50,-71,-57r0,-132v138,6,213,41,216,172r-7,121v3,63,34,80,94,98r0,112v-61,18,-97,27,-94,90r7,127v-3,138,-74,168,-216,175r0,-132v53,-7,74,-3,71,-53r-7,-128v1,-87,30,-110,100,-134","w":339},"\u00a0":{"w":235},"\u00a2":{"d":"148,-250v0,80,31,97,115,94r116,-4r4,115v-25,4,-50,8,-77,11r0,109r-112,0r0,-104v-121,-9,-182,-82,-182,-221v0,-137,61,-210,182,-220r0,-101r112,0r0,106r77,10r-4,115v-53,-2,-92,-3,-117,-3v-83,2,-114,14,-114,93","w":437},"\u00a3":{"d":"168,-501v-6,-147,75,-195,211,-173v25,4,46,8,65,12r29,7r0,135v-44,-19,-78,-23,-122,-18v-19,2,-40,16,-43,38v-3,13,-6,31,-7,54r122,0r0,124r-122,0r-1,198r114,0r69,-16r21,122r-81,17r-309,1r0,-124r54,0r0,-200r-31,0r0,-122r31,0r0,-55","w":570},"\u00a5":{"d":"48,-291r0,-112r92,0r-145,-257r153,0r123,211r122,-211r153,0r-143,257r89,0r0,112r-151,0r0,35r151,0r0,112r-151,0r0,144r-138,0r0,-144r-155,0r0,-112r155,0r0,-35r-155,0","w":540},"\u00a6":{"d":"191,-750r138,0r0,422r-138,0r0,-422xm191,-190r138,0r0,420r-138,0r0,-420"},"\u00a7":{"d":"90,-475v0,-106,66,-142,175,-143v42,0,94,4,156,13r-2,32v-71,-9,-122,-13,-154,-13v-93,0,-140,36,-140,109v1,47,8,74,38,92v36,20,57,23,110,32v59,10,101,23,127,41v26,18,39,52,39,99v0,42,-13,84,-38,126v23,20,35,51,35,94v0,105,-58,158,-173,158v-50,0,-122,-8,-168,-13r3,-32v73,9,128,14,165,14v92,0,138,-42,138,-126v0,-41,-8,-64,-37,-78v-63,-33,-172,-26,-227,-65v-34,-24,-47,-58,-47,-115v0,-39,15,-76,44,-111v-29,-21,-44,-59,-44,-114xm375,-103v29,-42,48,-156,-3,-185v-31,-28,-179,-40,-213,-59v-37,39,-52,153,4,187v46,28,170,34,212,57"},"\u00a8":{"d":"38,-582r0,-148r139,0r0,148r-139,0xm252,-582r0,-148r139,0r0,148r-139,0","w":833},"\u00a9":{"d":"265,-169v-143,0,-255,-122,-255,-265v0,-143,112,-266,255,-266v143,0,256,123,256,266v0,143,-113,265,-256,265xm265,-668v-126,0,-223,108,-223,234v0,127,97,233,223,233v126,0,224,-107,224,-233v0,-126,-98,-234,-224,-234xm265,-555v-74,2,-77,42,-77,122v0,74,9,127,77,120r73,-8r1,32v-29,5,-53,8,-74,8v-89,-1,-109,-59,-109,-152v0,-95,18,-153,109,-154v25,0,50,2,74,7r-1,32v-27,-5,-52,-7,-73,-7"},"\u00aa":{"d":"263,-659v59,1,83,27,83,88r0,134v4,13,16,21,37,23r-2,28v-21,-1,-39,-8,-54,-22v-42,15,-82,22,-119,22v-43,0,-70,-35,-70,-80v0,-47,25,-72,75,-76r102,-7v2,-49,-3,-81,-52,-78r-104,7r-2,-31v46,-5,81,-8,106,-8xm315,-520r-97,6v-33,3,-45,15,-47,50v-4,70,84,42,128,34r16,-5r0,-85","w":518},"\u00ab":{"d":"387,-380r-135,106r135,117r0,41v-89,-75,-144,-121,-167,-138r0,-36r167,-129r0,39xm594,-380r-135,106r135,117r0,41v-89,-75,-144,-121,-167,-138r0,-36r167,-129r0,39","w":833},"\u00ad":{"d":"70,-215r0,-132r300,0r0,132r-300,0","w":440},"\u00ae":{"d":"265,-169v-143,0,-255,-122,-255,-265v0,-143,112,-266,255,-266v143,0,256,123,256,266v0,143,-113,265,-256,265xm265,-668v-126,0,-223,108,-223,234v0,127,97,233,223,233v126,0,224,-107,224,-233v0,-126,-98,-234,-224,-234xm254,-591v80,1,115,16,115,90v0,51,-20,81,-59,91r65,134r-35,0r-66,-131r-79,0r0,131r-32,0r0,-315r91,0xm337,-501v3,-70,-75,-56,-142,-58r0,120r80,0v46,-1,60,-15,62,-62"},"\u00b0":{"d":"244,-415v-88,0,-150,-61,-150,-149v0,-88,62,-150,150,-150v88,0,150,62,150,150v0,88,-62,149,-150,149xm244,-641v-45,0,-75,32,-75,77v0,45,30,76,75,76v45,0,77,-31,77,-76v0,-45,-32,-77,-77,-77"},"\u00b1":{"d":"16,-300r0,-122r189,0r0,-118r122,0r0,118r191,0r0,122r-191,0r0,110r-122,0r0,-110r-189,0xm16,-152r502,0r0,122r-502,0r0,-122"},"\u00b4":{"d":"78,-682r256,-92r48,126r-257,88","w":833},"\u00b5":{"d":"189,-212v4,70,4,103,70,103v30,0,71,-11,96,-17r0,-373r134,0r0,499r-134,0r0,-21v-72,28,-100,39,-166,30r0,211r-134,0r0,-720r134,0r0,288"},"\u00b6":{"d":"-33,-502v0,-113,74,-198,186,-198r398,0r0,133r-60,0r0,567r-133,0r0,-567r-65,0r0,567r-133,0r0,-306v-118,4,-193,-81,-193,-196"},"\u00b8":{"d":"425,47v43,2,53,15,53,60v0,49,-12,63,-61,64v-8,0,-18,-1,-31,-4r2,-26v6,1,15,2,28,2v28,-1,28,-8,28,-36v0,-28,0,-31,-28,-32r-24,0r0,-76r33,0r0,48","w":833},"\u00ba":{"d":"259,-659v83,1,113,47,113,135v0,92,-38,138,-113,138v-77,0,-115,-46,-115,-138v0,-90,38,-135,115,-135xm178,-524v0,70,17,106,81,106v64,0,79,-36,79,-106v0,-70,-15,-103,-79,-103v-63,0,-81,34,-81,103","w":526},"\u00bb":{"d":"582,-274r-135,-106r0,-39r167,129r0,36v-23,17,-78,63,-167,138r0,-41xm375,-274r-135,-106r0,-39r167,129r0,36v-23,17,-78,63,-167,138r0,-41","w":833},"\u00c0":{"d":"24,0r153,-690r262,0r150,690r-138,0r-31,-116r-232,0r-26,116r-138,0xm284,-563r-67,314r177,0r-65,-314r-45,0xm178,-974r256,92r-47,122r-257,-88","w":604},"\u00c1":{"d":"24,0r153,-690r262,0r150,690r-138,0r-31,-116r-232,0r-26,116r-138,0xm284,-563r-67,314r177,0r-65,-314r-45,0xm140,-882r256,-92r48,126r-257,88","w":604},"\u00c2":{"d":"24,0r153,-690r262,0r150,690r-138,0r-31,-116r-232,0r-26,116r-138,0xm284,-563r-67,314r177,0r-65,-314r-45,0xm120,-770r131,-182r108,0r132,182r-132,0r-53,-78r-54,78r-132,0","w":604},"\u00c3":{"d":"24,0r153,-690r262,0r150,690r-138,0r-31,-116r-232,0r-26,116r-138,0xm284,-563r-67,314r177,0r-65,-314r-45,0xm375,-830v-38,0,-98,-54,-129,-54v-17,0,-40,14,-69,41r-25,-18v64,-59,97,-72,166,-27v60,39,63,35,118,-14r22,17v-34,37,-62,55,-83,55","w":604},"\u00c4":{"d":"24,0r153,-690r262,0r150,690r-138,0r-31,-116r-232,0r-26,116r-138,0xm284,-563r-67,314r177,0r-65,-314r-45,0xm129,-782r0,-148r139,0r0,148r-139,0xm343,-782r0,-148r139,0r0,148r-139,0","w":604},"\u00c5":{"d":"24,0r153,-690r262,0r150,690r-138,0r-31,-116r-232,0r-26,116r-138,0xm284,-563r-67,314r177,0r-65,-314r-45,0xm306,-754v-52,0,-94,-42,-94,-94v0,-52,42,-94,94,-94v52,0,94,42,94,94v0,52,-42,94,-94,94xm307,-909v-34,0,-61,27,-61,61v0,34,27,62,61,62v33,0,60,-29,60,-62v0,-33,-27,-61,-60,-61","w":604},"\u00c6":{"d":"428,0r0,-116r-213,0r-29,116r-138,0r184,-690r634,0r0,132r-302,0r0,143r242,0r0,131r-242,0r0,152r302,0r0,132r-438,0xm323,-536r-74,287r179,0r0,-287r-105,0","w":898},"\u00c7":{"d":"495,-139r3,124v-79,18,-145,27,-198,27v-101,0,-170,-28,-206,-84v-36,-56,-54,-146,-54,-273v0,-131,20,-222,58,-277v50,-72,168,-92,290,-73v48,7,73,13,111,22r-4,121v-81,-9,-139,-14,-175,-14v-77,1,-107,20,-125,82v-20,67,-14,275,15,315v30,42,100,49,179,41xm288,47v43,2,53,15,53,60v0,49,-12,63,-61,64v-8,0,-18,-1,-31,-4r2,-26v6,1,15,2,28,2v28,-1,28,-8,28,-36v0,-28,0,-31,-28,-32r-24,0r0,-76r33,0r0,48","w":537},"\u00c8":{"d":"103,0r0,-700r409,0r0,34r-373,0r0,289r313,0r0,34r-313,0r0,309r373,0r0,34r-409,0xm219,-932r192,96r-15,27r-193,-92","w":572},"\u00c9":{"d":"75,0r0,-690r438,0r0,132r-302,0r0,154r242,0r0,129r-242,0r0,143r302,0r0,132r-438,0xm156,-882r256,-92r48,126r-257,88","w":572},"\u00ca":{"d":"75,0r0,-690r438,0r0,132r-302,0r0,154r242,0r0,129r-242,0r0,143r302,0r0,132r-438,0xm127,-770r131,-182r108,0r132,182r-132,0r-53,-78r-54,78r-132,0","w":572},"\u00cb":{"d":"75,0r0,-690r438,0r0,132r-302,0r0,154r242,0r0,129r-242,0r0,143r302,0r0,132r-438,0xm136,-782r0,-148r139,0r0,148r-139,0xm350,-782r0,-148r139,0r0,148r-139,0","w":572},"\u00cc":{"d":"70,0r0,-690r138,0r0,690r-138,0xm-5,-974r256,92r-47,122r-257,-88","w":226},"\u00cd":{"d":"70,0r0,-690r138,0r0,690r-138,0xm-63,-882r256,-92r48,126r-257,88","w":226},"\u00ce":{"d":"72,0r0,-690r138,0r0,690r-138,0xm-70,-770r131,-182r108,0r132,182r-132,0r-53,-78r-54,78r-132,0","w":231},"\u00cf":{"d":"70,0r0,-690r138,0r0,690r-138,0xm-63,-782r0,-148r139,0r0,148r-139,0xm151,-782r0,-148r139,0r0,148r-139,0","w":226},"\u00d0":{"d":"16,-279r0,-132r320,0r0,132r-320,0xm445,-22v-91,35,-250,18,-375,22r0,-690v174,6,385,-28,460,82v44,65,56,136,56,250v0,121,-8,194,-52,266v-20,32,-50,55,-89,70xm364,-142v92,-31,81,-164,78,-280v-1,-32,-7,-71,-21,-90v-23,-34,-65,-47,-124,-47r-91,0r0,428v54,-1,118,3,158,-11","w":626},"\u00d1":{"d":"59,0r0,-690r217,0r191,516r15,0r0,-516r138,0r0,690r-210,0r-198,-516r-15,0r0,516r-138,0xm412,-830v-38,0,-98,-54,-129,-54v-17,0,-40,14,-69,41r-25,-18v64,-59,98,-71,167,-27v60,39,60,34,117,-14r22,17v-34,37,-62,55,-83,55","w":687},"\u00d2":{"d":"188,-340v0,139,15,219,140,219v125,0,140,-81,140,-219v0,-79,-10,-137,-30,-174v-20,-37,-57,-55,-110,-55v-124,0,-140,90,-140,229xm610,-340v0,229,-61,352,-282,352v-220,0,-282,-123,-282,-352v0,-230,62,-362,282,-362v220,0,282,132,282,362xm210,-974r256,92r-47,122r-257,-88","w":656},"\u00d3":{"d":"188,-340v0,139,15,219,140,219v125,0,140,-81,140,-219v0,-79,-10,-137,-30,-174v-20,-37,-57,-55,-110,-55v-124,0,-140,90,-140,229xm610,-340v0,229,-61,352,-282,352v-220,0,-282,-123,-282,-352v0,-230,62,-362,282,-362v220,0,282,132,282,362xm152,-882r256,-92r48,126r-257,88","w":656},"\u00d4":{"d":"188,-340v0,139,15,219,140,219v125,0,140,-81,140,-219v0,-79,-10,-137,-30,-174v-20,-37,-57,-55,-110,-55v-124,0,-140,90,-140,229xm610,-340v0,229,-61,352,-282,352v-220,0,-282,-123,-282,-352v0,-230,62,-362,282,-362v220,0,282,132,282,362xm143,-770r131,-182r108,0r132,182r-132,0r-53,-78r-54,78r-132,0","w":656},"\u00d5":{"d":"188,-340v0,139,15,219,140,219v125,0,140,-81,140,-219v0,-79,-10,-137,-30,-174v-20,-37,-57,-55,-110,-55v-124,0,-140,90,-140,229xm610,-340v0,229,-61,352,-282,352v-220,0,-282,-123,-282,-352v0,-230,62,-362,282,-362v220,0,282,132,282,362xm398,-830v-38,0,-98,-54,-129,-54v-17,0,-40,14,-69,41r-25,-18v64,-59,98,-71,167,-27v60,39,60,34,117,-14r22,17v-34,37,-62,55,-83,55","w":656},"\u00d6":{"d":"188,-340v0,139,15,219,140,219v125,0,140,-81,140,-219v0,-79,-10,-137,-30,-174v-20,-37,-57,-55,-110,-55v-124,0,-140,90,-140,229xm610,-340v0,229,-61,352,-282,352v-220,0,-282,-123,-282,-352v0,-230,62,-362,282,-362v220,0,282,132,282,362xm152,-782r0,-148r139,0r0,148r-139,0xm366,-782r0,-148r139,0r0,148r-139,0","w":656},"\u00d7":{"d":"248,-558r173,174r174,-174r87,86r-174,174r174,174r-87,86r-174,-173r-173,173r-86,-86r173,-174r-173,-174"},"\u00d8":{"d":"611,-340v0,229,-61,350,-282,352v-31,0,-62,-3,-92,-10r-59,127r-121,-55r63,-135v-49,-54,-73,-147,-73,-279v0,-230,62,-360,282,-362v31,0,60,3,86,9r56,-121r125,46r-64,138v53,57,79,153,79,290xm356,-567v-141,-14,-168,83,-167,227v0,49,3,86,9,112xm329,-121v125,-4,140,-81,140,-219v0,-56,-4,-99,-12,-129r-162,346v15,1,26,2,34,2","w":656},"\u00d9":{"d":"324,9v-171,0,-259,-69,-259,-239r0,-460r138,0r0,460v0,77,45,103,121,104v81,0,121,-35,121,-104r0,-460r138,0r0,460v0,170,-88,239,-259,239xm208,-974r256,92r-47,122r-257,-88","w":642},"\u00da":{"d":"324,9v-171,0,-259,-69,-259,-239r0,-460r138,0r0,460v0,77,45,103,121,104v81,0,121,-35,121,-104r0,-460r138,0r0,460v0,170,-88,239,-259,239xm150,-882r256,-92r48,126r-257,88","w":642},"\u00db":{"d":"324,9v-171,0,-259,-69,-259,-239r0,-460r138,0r0,460v0,77,45,103,121,104v81,0,121,-35,121,-104r0,-460r138,0r0,460v0,170,-88,239,-259,239xm141,-770r131,-182r108,0r132,182r-132,0r-53,-78r-54,78r-132,0","w":642},"\u00dc":{"d":"324,9v-171,0,-259,-69,-259,-239r0,-460r138,0r0,460v0,77,45,103,121,104v81,0,121,-35,121,-104r0,-460r138,0r0,460v0,170,-88,239,-259,239xm151,-782r0,-148r139,0r0,148r-139,0xm365,-782r0,-148r139,0r0,148r-139,0","w":642},"\u00dd":{"d":"341,-294r0,294r-138,0r0,-295r-208,-395r153,0r123,241r122,-241r153,0xm79,-882r256,-92r48,126r-257,88","w":540},"\u00de":{"d":"271,-233v70,0,106,-47,105,-120v0,-71,-35,-107,-105,-107r-111,0r0,227r111,0xm516,-353v1,159,-85,255,-244,254r-112,0r0,99r-138,0r0,-690r138,0r0,98r112,0v163,0,244,80,244,239"},"\u00df":{"d":"366,-676v-110,0,-117,36,-117,157r0,519r-36,0r0,-532v3,-134,24,-178,153,-178v123,0,185,26,190,135v5,90,-64,96,-122,125v-13,8,-14,27,0,38v40,30,163,85,200,134v5,7,7,16,7,27v1,130,-22,213,-116,245v-48,17,-134,16,-200,11r4,-34v81,7,127,6,182,-9v51,-14,78,-61,87,-113v4,-24,5,-57,5,-100v0,-8,-10,-18,-27,-31v-22,-17,-156,-92,-176,-110v-19,-17,-20,-63,0,-79v26,-21,94,-34,111,-58v5,-7,7,-23,7,-46v-3,-87,-54,-101,-152,-101","w":833},"\u00e0":{"d":"261,-511v120,1,176,49,176,172r0,185v1,37,3,45,32,52r-4,114v-77,0,-98,-6,-142,-34v-56,23,-107,34,-153,34v-99,1,-149,-64,-149,-164v1,-115,62,-145,174,-154r108,-7v5,-43,-12,-70,-50,-70v-57,0,-142,5,-194,11r-4,-117v89,-15,157,-22,206,-22xm303,-211r-91,4v-37,2,-56,19,-56,51v0,84,93,47,147,38r0,-93xm125,-774r256,92r-47,122r-257,-88","w":536},"\u00e1":{"d":"469,-102v-29,-7,-31,-15,-32,-52r0,-185v0,-123,-56,-172,-176,-172v-62,0,-150,14,-206,22r4,117v80,-7,145,-11,194,-11v38,0,56,27,50,70v-86,6,-194,8,-239,47v-27,24,-43,61,-43,114v0,100,50,165,149,164v53,0,115,-20,153,-34v44,28,65,34,142,34xm212,-207r91,-4r0,93v-43,10,-79,15,-106,15v-27,0,-41,-18,-41,-53v0,-32,19,-49,56,-51xm127,-682r256,-92r48,126r-257,88","w":536},"\u00e2":{"d":"469,-102v-29,-7,-31,-15,-32,-52r0,-185v0,-123,-56,-172,-176,-172v-62,0,-150,14,-206,22r4,117v80,-7,145,-11,194,-11v38,0,56,27,50,70v-86,6,-194,8,-239,47v-27,24,-43,61,-43,114v0,100,50,165,149,164v53,0,115,-20,153,-34v44,28,65,34,142,34xm212,-207r91,-4r0,93v-43,10,-79,15,-106,15v-27,0,-41,-18,-41,-53v0,-32,19,-49,56,-51xm60,-570r131,-182r108,0r132,182r-132,0r-53,-78r-54,78r-132,0","w":536},"\u00e3":{"d":"469,-102v-29,-7,-31,-15,-32,-52r0,-185v0,-123,-56,-172,-176,-172v-62,0,-150,14,-206,22r4,117v80,-7,145,-11,194,-11v38,0,56,27,50,70v-86,6,-194,8,-239,47v-27,24,-43,61,-43,114v0,100,50,165,149,164v53,0,115,-20,153,-34v44,28,65,34,142,34xm212,-207r91,-4r0,93v-43,10,-79,15,-106,15v-27,0,-41,-18,-41,-53v0,-32,19,-49,56,-51xm315,-630v-38,0,-98,-54,-129,-54v-17,0,-40,14,-69,41r-25,-18v64,-59,97,-72,166,-27v60,39,63,35,118,-14r22,17v-34,37,-62,55,-83,55","w":536},"\u00e4":{"d":"469,-102v-29,-7,-31,-15,-32,-52r0,-185v0,-123,-56,-172,-176,-172v-62,0,-150,14,-206,22r4,117v80,-7,145,-11,194,-11v38,0,56,27,50,70v-86,6,-194,8,-239,47v-27,24,-43,61,-43,114v0,100,50,165,149,164v53,0,115,-20,153,-34v44,28,65,34,142,34xm212,-207r91,-4r0,93v-43,10,-79,15,-106,15v-27,0,-41,-18,-41,-53v0,-32,19,-49,56,-51xm67,-582r0,-148r139,0r0,148r-139,0xm281,-582r0,-148r139,0r0,148r-139,0","w":536},"\u00e5":{"d":"469,-102v-29,-7,-31,-15,-32,-52r0,-185v0,-123,-56,-172,-176,-172v-62,0,-150,14,-206,22r4,117v80,-7,145,-11,194,-11v38,0,56,27,50,70v-86,6,-194,8,-239,47v-27,24,-43,61,-43,114v0,100,50,165,149,164v53,0,115,-20,153,-34v44,28,65,34,142,34xm212,-207r91,-4r0,93v-43,10,-79,15,-106,15v-27,0,-41,-18,-41,-53v0,-32,19,-49,56,-51xm245,-554v-53,0,-94,-41,-94,-94v0,-52,42,-94,94,-94v52,0,94,42,94,94v0,52,-42,94,-94,94xm246,-709v-34,0,-61,27,-61,61v0,34,27,62,61,62v33,0,60,-29,60,-62v0,-33,-27,-61,-60,-61","w":536},"\u00e6":{"d":"468,-192v3,62,33,81,101,81v55,0,116,-3,185,-9r2,104v-77,19,-146,28,-208,28v-68,0,-119,-16,-153,-48v-55,28,-129,48,-194,48v-99,0,-149,-64,-149,-164v1,-113,64,-146,174,-154r108,-7v5,-43,-12,-70,-50,-70v-57,0,-142,5,-194,11r-4,-117v89,-15,157,-22,206,-22v57,0,100,12,129,37v35,-25,79,-37,133,-37v145,0,218,75,218,225r-10,94r-294,0xm334,-118r-1,-93r-90,4v-37,2,-56,19,-56,51v0,84,93,47,147,38xm640,-295v-1,-69,-20,-97,-86,-97v-66,0,-85,30,-86,97r172,0","w":828},"\u00e7":{"d":"35,-255v0,-167,52,-256,211,-256v49,0,117,13,160,21r-4,115v-53,-5,-92,-8,-117,-8v-97,2,-114,30,-114,128v0,105,14,146,115,139r116,-8r4,115v-71,14,-126,21,-163,21v-163,-3,-208,-92,-208,-267xm252,47v43,2,53,15,53,60v0,49,-12,63,-61,64v-8,0,-18,-1,-31,-4r2,-26v6,1,15,2,28,2v28,-1,28,-8,28,-36v0,-28,0,-31,-28,-32r-24,0r0,-76r33,0r0,48","w":436},"\u00e8":{"d":"168,-192v3,62,33,81,101,81v55,0,116,-3,185,-9r2,104v-77,19,-146,28,-208,28v-161,-2,-214,-85,-215,-255v0,-179,74,-268,221,-268v145,0,218,75,218,225r-10,94r-294,0xm340,-295v-1,-69,-20,-97,-86,-97v-66,0,-85,31,-87,97r173,0xm117,-774r256,92r-47,122r-257,-88","w":497},"\u00e9":{"d":"168,-192v3,62,33,81,101,81v55,0,116,-3,185,-9r2,104v-77,19,-146,28,-208,28v-161,-2,-214,-85,-215,-255v0,-179,74,-268,221,-268v145,0,218,75,218,225r-10,94r-294,0xm340,-295v-1,-69,-20,-97,-86,-97v-66,0,-85,31,-87,97r173,0xm101,-682r256,-92r48,126r-257,88","w":497},"\u00ea":{"d":"168,-192v3,62,33,81,101,81v55,0,116,-3,185,-9r2,104v-77,19,-146,28,-208,28v-161,-2,-214,-85,-215,-255v0,-179,74,-268,221,-268v145,0,218,75,218,225r-10,94r-294,0xm340,-295v-1,-69,-20,-97,-86,-97v-66,0,-85,31,-87,97r173,0xm80,-570r131,-182r108,0r132,182r-132,0r-53,-78r-54,78r-132,0","w":497},"\u00eb":{"d":"168,-192v3,62,33,81,101,81v55,0,116,-3,185,-9r2,104v-77,19,-146,28,-208,28v-161,-2,-214,-85,-215,-255v0,-179,74,-268,221,-268v145,0,218,75,218,225r-10,94r-294,0xm340,-295v-1,-69,-20,-97,-86,-97v-66,0,-85,31,-87,97r173,0xm91,-582r0,-148r139,0r0,148r-139,0xm305,-582r0,-148r139,0r0,148r-139,0","w":497},"\u00ec":{"d":"-19,-774r256,92r-47,122r-257,-88xm67,0r0,-499r134,0r0,499r-134,0","w":261},"\u00ed":{"d":"-15,-682r256,-92r48,126r-257,88xm67,0r0,-499r134,0r0,499r-134,0","w":261},"\u00ee":{"d":"67,0r0,-499r134,0r0,499r-134,0xm-55,-570r131,-182r108,0r132,182r-132,0r-53,-78r-54,78r-132,0","w":261},"\u00ef":{"d":"-46,-582r0,-148r139,0r0,148r-139,0xm168,-582r0,-148r139,0r0,148r-139,0xm67,0r0,-499r134,0r0,499r-134,0","w":261},"\u00f1":{"d":"511,-261v-3,-158,-28,-250,-176,-250v-41,0,-94,20,-124,34r0,-22r-134,0r0,499r134,0r0,-369v42,-11,74,-17,96,-17v66,2,70,51,70,125r0,261r134,0r0,-261xm368,-630v-38,0,-98,-54,-129,-54v-17,0,-40,14,-69,41r-25,-18v64,-59,98,-71,167,-27v60,39,60,34,117,-14r22,17v-34,37,-62,55,-83,55","w":574},"\u00f2":{"d":"88,-250v0,-164,63,-261,230,-261v167,0,230,97,230,261v0,164,-63,262,-230,262v-167,0,-230,-98,-230,-262xm224,-250v0,88,14,141,94,141v80,0,94,-54,94,-141v0,-88,-14,-140,-94,-140v-80,0,-94,53,-94,140xm125,-774r256,92r-47,122r-257,-88","w":536},"\u00f3":{"d":"548,-250v0,-164,-63,-261,-230,-261v-167,0,-230,97,-230,261v0,164,63,262,230,262v167,0,230,-98,230,-262xm412,-250v0,88,-14,141,-94,141v-80,0,-94,-54,-94,-141v0,-88,14,-140,94,-140v80,0,94,53,94,140xm107,-682r256,-92r48,126r-257,88","w":536},"\u00f4":{"d":"548,-250v0,-164,-63,-261,-230,-261v-167,0,-230,97,-230,261v0,164,63,262,230,262v167,0,230,-98,230,-262xm412,-250v0,88,-14,141,-94,141v-80,0,-94,-54,-94,-141v0,-88,14,-140,94,-140v80,0,94,53,94,140xm78,-570r131,-182r108,0r132,182r-132,0r-53,-78r-54,78r-132,0","w":536},"\u00f5":{"d":"548,-250v0,-164,-63,-261,-230,-261v-167,0,-230,97,-230,261v0,164,63,262,230,262v167,0,230,-98,230,-262xm412,-250v0,88,-14,141,-94,141v-80,0,-94,-54,-94,-141v0,-88,14,-140,94,-140v80,0,94,53,94,140xm333,-630v-38,0,-98,-54,-129,-54v-17,0,-40,14,-69,41r-25,-18v64,-59,97,-72,166,-27v60,39,63,35,118,-14r22,17v-34,37,-62,55,-83,55","w":536},"\u00f6":{"d":"548,-250v0,-164,-63,-261,-230,-261v-167,0,-230,97,-230,261v0,164,63,262,230,262v167,0,230,-98,230,-262xm412,-250v0,88,-14,141,-94,141v-80,0,-94,-54,-94,-141v0,-88,14,-140,94,-140v80,0,94,53,94,140xm87,-582r0,-148r139,0r0,148r-139,0xm301,-582r0,-148r139,0r0,148r-139,0","w":536},"\u00f7":{"d":"201,-402r0,-132r132,0r0,132r-132,0xm10,-229r0,-122r506,0r0,122r-506,0xm201,-46r0,-132r132,0r0,132r-132,0"},"\u00f8":{"d":"60,-261v0,-174,42,-244,205,-248v31,0,59,4,83,12r40,-96r30,11r-40,98v59,34,88,109,88,225v0,98,-14,167,-41,207v-27,40,-81,61,-160,61v-33,0,-61,-3,-85,-9r-42,104r-30,-10r42,-104v-80,-40,-90,-120,-90,-251xm265,-477v-144,4,-168,61,-168,216v0,65,4,115,13,148v9,33,26,57,53,71r173,-424v-22,-7,-46,-11,-71,-11xm193,-30v42,11,124,9,159,-6v44,-18,65,-66,72,-118v3,-26,5,-61,5,-105v0,-97,-22,-161,-65,-192","w":526},"\u00f9":{"d":"377,-499r134,0r0,499r-134,0r0,-21v-52,22,-93,33,-124,33v-70,0,-117,-19,-141,-57v-53,-85,-30,-307,-35,-454r134,0r0,261v0,51,3,84,11,102v19,44,113,21,155,10r0,-373xm134,-774r256,92r-47,122r-257,-88","w":511},"\u00fa":{"d":"511,-499r-134,0r0,373v-42,11,-74,17,-96,17v-31,0,-51,-9,-59,-27v-8,-18,-11,-51,-11,-102r0,-261r-134,0v4,148,-17,367,35,454v28,47,114,70,192,49v31,-8,50,-14,73,-25r0,21r134,0r0,-499xm116,-682r256,-92r48,126r-257,88","w":511},"\u00fb":{"d":"511,-499r-134,0r0,373v-42,11,-74,17,-96,17v-31,0,-51,-9,-59,-27v-8,-18,-11,-51,-11,-102r0,-261r-134,0v4,148,-17,367,35,454v28,47,114,70,192,49v31,-8,50,-14,73,-25r0,21r134,0r0,-499xm87,-570r131,-182r108,0r132,182r-132,0r-53,-78r-54,78r-132,0","w":511},"\u00fc":{"d":"511,-499r-134,0r0,373v-42,11,-74,17,-96,17v-31,0,-51,-9,-59,-27v-8,-18,-11,-51,-11,-102r0,-261r-134,0v4,148,-17,367,35,454v28,47,114,70,192,49v31,-8,50,-14,73,-25r0,21r134,0r0,-499xm96,-582r0,-148r139,0r0,148r-139,0xm310,-582r0,-148r139,0r0,148r-139,0","w":511},"\u00fd":{"d":"-1,-499r132,0r91,368r23,0r91,-368r132,0r-175,708r-132,0r51,-209r-90,0xm90,-682r256,-92r48,126r-257,88","w":480},"\u00fe":{"d":"381,-255v0,-81,-17,-138,-84,-132r-90,8r0,265v31,3,51,5,61,5v98,-2,113,-42,113,-146xm268,12r-61,-3r0,201r-134,0r0,-910r134,0r0,212v43,-15,79,-23,108,-23v156,4,202,85,202,256v0,203,-55,263,-249,267","w":538},"\u00ff":{"d":"30,-500r155,500r61,0r-72,230r37,0r229,-730r-37,0r-148,468r-41,0r-147,-468r-37,0xm137,-638r0,-62r35,0r0,62r-35,0xm307,-638r0,-62r35,0r0,62r-35,0","w":480},"\u0152":{"d":"875,0r-436,0v-139,27,-272,11,-325,-72v-36,-56,-54,-146,-54,-273v0,-131,19,-223,58,-277v57,-80,181,-68,319,-68r438,0r0,132r-302,0r0,143r242,0r0,131r-242,0r0,152r302,0r0,132xm344,-124v17,0,48,-2,93,-6r0,-430v-85,-7,-131,-14,-181,12v-20,10,-32,32,-41,64v-20,67,-15,276,15,315v21,28,56,45,114,45","w":944},"\u0153":{"d":"517,-192v3,62,33,81,101,81v55,0,116,-3,185,-9r2,104v-77,19,-146,28,-208,28v-68,0,-119,-16,-153,-48v-37,32,-89,48,-156,48v-167,1,-230,-98,-230,-262v0,-164,63,-262,230,-261v70,0,124,18,162,54v37,-36,88,-54,153,-54v145,0,218,75,218,225r-10,94r-294,0xm194,-250v0,88,14,141,94,141v80,0,94,-54,94,-141v0,-88,-14,-140,-94,-140v-80,0,-94,53,-94,140xm689,-295v-1,-69,-20,-97,-86,-97v-65,0,-86,32,-87,97r173,0","w":876},"\u0178":{"d":"289,-301r0,301r-36,0r0,-301r-228,-399r41,0r205,359r202,-359r42,0xm167,-838r0,-62r35,0r0,62r-35,0xm337,-838r0,-62r35,0r0,62r-35,0","w":540},"\u02c6":{"d":"225,-570r131,-182r108,0r132,182r-132,0r-53,-78r-54,78r-132,0","w":833},"\u02dc":{"d":"301,-630v-38,0,-98,-54,-129,-54v-17,0,-40,14,-69,41r-25,-18v64,-59,97,-72,166,-27v60,39,63,35,118,-14r22,17v-34,37,-62,55,-83,55","w":833},"\u2018":{"d":"165,-727r-50,247r-137,0r58,-247r129,0","w":170},"\u2019":{"d":"4,-527r50,-247r136,0r-57,247r-129,0","w":170},"\u2022":{"d":"247,0r0,-80r40,0r0,80r-40,0"},"\u20ac":{"d":"371,12v-164,-1,-221,-58,-243,-202r-60,0r0,-104r53,0r0,-64r-53,0r0,-104r60,0v21,-151,79,-210,243,-210v58,0,133,9,179,19r-4,121v-67,-3,-119,-4,-155,-4v-76,1,-103,14,-119,75r209,0r0,103r-218,0r0,64r218,0r0,104r-208,0v17,55,48,68,122,66r151,-5r3,124v-66,11,-125,17,-178,17","w":593},"\u2122":{"d":"7,-590r0,-31r200,0r0,31r-83,0r0,258r-33,0r0,-258r-84,0xm242,-331r0,-290r50,0r84,242r87,-242r50,0r0,290r-32,0r0,-258r-88,247r-35,0r-84,-247r0,258r-32,0"}}});
