/*!
 * The following copyright notice may not be removed under any circumstances.
 * 
 * Copyright:
 * Generated in 2009 by FontLab Studio. Copyright info pending.
 */
Cufon.registerFont({"w":833,"face":{"font-family":"TitilliumTitle01","font-weight":250,"font-stretch":"normal","units-per-em":"1000","panose-1":"0 0 0 0 0 0 0 0 0 0","ascent":"750","descent":"-250","x-height":"6","bbox":"-97 -942 1090 250","underline-thickness":"50","underline-position":"-50","unicode-range":"U+0020-U+2122"},"glyphs":{" ":{"w":235},"!":{"d":"111,0r0,-80r40,0r0,80r-40,0xm113,-213r0,-486r35,0r0,486r-35,0","w":261},"\"":{"d":"52,-501r0,-200r35,0r0,200r-35,0xm193,-501r0,-200r35,0r0,200r-35,0","w":280},"#":{"d":"508,-480r4,-190r36,0r-4,190r120,0r-2,32r-120,0r-6,226r120,0r-2,32r-120,0r-4,190r-36,0r4,-190r-188,0r-4,190r-36,0r4,-190r-120,0r2,-32r120,0r6,-226r-120,0r2,-32r120,0r4,-190r36,0r-4,190r188,0xm500,-222r6,-226r-188,0r-6,226r188,0"},"$":{"d":"38,-505v1,-131,82,-164,217,-166v51,0,117,5,196,16r-3,34v-90,-11,-154,-16,-193,-16v-111,2,-178,25,-178,130v0,64,18,99,67,119v90,36,235,27,294,94v22,25,33,65,32,114v0,134,-76,187,-213,187v-63,0,-156,-9,-214,-16r4,-35v92,11,162,17,209,17v117,0,175,-51,175,-152v-1,-55,-8,-86,-43,-107v-99,-60,-301,-19,-340,-149v-6,-20,-10,-43,-10,-70xm173,113r118,-903r35,0r-118,910v-23,-2,-35,-4,-35,-7","w":509},"%":{"d":"256,-6r144,-695r36,7r-144,695xm99,-569v0,-87,26,-133,106,-133v80,0,106,47,106,134v0,92,-35,138,-106,138v-80,0,-106,-52,-106,-139xm205,-670v-58,0,-71,38,-71,101v0,65,12,107,71,107v60,0,71,-41,71,-106v0,-64,-11,-102,-71,-102xm380,-139v0,-87,26,-133,106,-133v80,0,106,47,106,134v0,92,-35,138,-106,138v-80,0,-106,-52,-106,-139xm486,-240v-58,0,-71,38,-71,101v0,65,12,107,71,107v60,0,71,-41,71,-106v0,-64,-11,-102,-71,-102","w":686},"&":{"d":"116,-546v0,-104,52,-143,159,-143r104,10r0,33v-48,-7,-83,-10,-104,-10v-81,1,-119,30,-119,110v0,24,4,46,16,64v63,98,184,241,261,342v43,-54,66,-115,81,-201r32,6v-11,85,-41,159,-90,220r54,58v5,5,31,15,77,28r-10,33v-55,-14,-85,-25,-91,-32r-54,-58v-55,64,-102,97,-223,95v-146,-3,-187,-56,-189,-202v0,-49,11,-90,34,-121v23,-31,64,-62,122,-93v-40,-55,-60,-66,-60,-139xm57,-192v2,121,31,167,154,167v56,0,89,-2,123,-23v39,-25,38,-28,75,-65r-208,-266v-57,28,-95,56,-115,83v-20,27,-29,62,-29,104","w":625},"'":{"d":"32,-488r-2,-210r40,0r-5,210r-33,0","w":100},"(":{"d":"154,120v-35,-91,-98,-295,-98,-421v0,-134,60,-305,98,-409r34,0v-35,88,-91,286,-94,409v-2,90,36,251,94,421r-34,0","w":260},")":{"d":"60,120v34,-91,90,-295,94,-421v2,-89,-36,-245,-94,-409r34,0v36,88,98,285,98,409v0,137,-61,313,-98,421r-34,0","w":260},"*":{"d":"275,-519r0,-34r159,0r0,34r-159,0xm292,-531r-32,-11r49,-151r32,10xm286,-551r-20,27r-129,-94r20,-27xm265,-552r20,28r-130,93r-19,-27xm258,-532r32,-10r49,152r-32,10","w":530},"+":{"d":"-48,-234r0,-34r502,0r0,34r-502,0xm184,0r0,-500r36,0r0,500r-36,0","w":410},",":{"d":"42,38v17,-3,40,-21,40,-42r0,-90r37,0v-3,54,12,112,-23,139v-16,12,-33,20,-54,21r0,-28","w":170},"-":{"d":"60,-244r0,-34r320,0r0,34r-320,0","w":440},".":{"d":"77,0r0,-80r40,0r0,80r-40,0","w":141},"\/":{"d":"259,-12r277,-690r33,14r-277,689"},"0":{"d":"30,-418v-2,-162,81,-252,234,-252v155,0,235,91,235,252r0,189v2,152,-86,238,-234,238v-147,0,-235,-87,-235,-238r0,-189xm463,-418v1,-138,-65,-218,-199,-218v-133,1,-198,79,-198,218r0,189v-2,128,74,204,199,204v125,0,198,-76,198,-204r0,-189","w":530},"1":{"d":"90,-514r204,-136r36,0r0,650r-36,0r0,-611r-187,126","w":530},"2":{"d":"263,-670v110,-1,196,62,196,170v0,124,-41,177,-109,241r-242,224r381,0r0,35r-428,0r0,-35r262,-246v60,-58,97,-106,97,-219v0,-84,-74,-137,-158,-136v-33,0,-97,8,-190,23r-3,-35v95,-15,159,-22,194,-22","w":530},"3":{"d":"279,-366v79,-9,139,-45,141,-125r0,-38v0,-71,-53,-107,-159,-107v-56,0,-145,12,-196,22r-4,-33v93,-15,159,-23,199,-23v132,0,198,47,198,142r0,38v-2,84,-43,113,-112,137v84,22,132,48,132,151r0,47v2,107,-99,165,-209,164v-67,0,-161,-12,-217,-23r6,-34v87,15,158,23,211,23v86,1,173,-48,171,-132r0,-44v-2,-107,-56,-131,-161,-131r-136,0r0,-34r136,0","w":530},"4":{"d":"355,20r0,-159r-328,0r0,-63r189,-468r40,0r-191,472r0,25r290,0r0,-184r36,0r0,184r92,0r0,34r-92,0r0,159r-36,0","w":530},"5":{"d":"435,-245v0,-109,-115,-144,-227,-117r-111,24r-28,-3r18,-320r365,0r0,35r-331,0r-17,253v77,-21,134,-32,171,-32v110,-1,199,53,198,160r0,79v2,147,-136,190,-288,168r-122,-18r5,-34v98,15,161,23,190,23v99,0,178,-40,177,-139r0,-79","w":530},"6":{"d":"47,-431v-4,-181,116,-258,301,-235r113,12r-3,35v-92,-11,-149,-17,-170,-17v-132,0,-204,71,-203,205r0,68v47,-19,123,-45,187,-45v139,0,209,57,209,172r0,52v-1,123,-84,193,-215,193v-146,0,-219,-79,-219,-237r0,-203xm266,-25v113,1,176,-53,177,-159r0,-52v0,-92,-58,-138,-173,-138v-62,0,-139,26,-185,45r0,99v0,139,49,203,181,205","w":530},"7":{"d":"63,-636r0,-34r403,0r0,66r-264,604r-35,-14r261,-598r0,-24r-365,0","w":530},"8":{"d":"35,-497v2,-131,83,-173,228,-173v152,0,231,38,231,174v0,93,-29,121,-96,149v52,24,73,27,94,78v9,23,13,54,13,94v0,141,-96,184,-242,184v-145,0,-238,-44,-238,-184v0,-115,26,-136,106,-171v-62,-25,-97,-64,-96,-151xm64,-175v0,121,74,150,199,150v125,0,203,-29,203,-150v0,-113,-30,-153,-131,-153r-152,0v-92,20,-119,43,-119,153xm455,-495v0,-115,-63,-141,-192,-141v-128,0,-187,26,-189,140v-2,86,35,135,109,135r151,0v82,-12,121,-42,121,-134","w":530},"9":{"d":"481,-230v4,181,-116,258,-301,235r-114,-12r4,-35v92,11,149,17,170,17v132,0,204,-71,203,-205r0,-76v-47,19,-123,45,-187,45v-139,0,-209,-57,-209,-172r0,-44v0,-122,86,-193,215,-193v146,0,219,79,219,237r0,203xm262,-636v-113,-1,-176,53,-177,159r0,44v0,92,58,138,173,138v61,0,138,-27,185,-45r0,-91v0,-139,-49,-203,-181,-205","w":530},":":{"d":"77,-344r0,-80r40,0r0,80r-40,0xm77,0r0,-80r40,0r0,80r-40,0","w":141},";":{"d":"42,66v39,0,78,-31,77,-70r0,-90r-37,0r0,90v1,20,-15,34,-40,42r0,28xm80,-344r0,-80r37,0r0,80r-37,0","w":170},"<":{"d":"350,-520r-315,206r315,217r0,41v-211,-142,-328,-221,-351,-238r0,-37r351,-228r0,39","w":350},"=":{"d":"199,-343r0,-34r505,0r0,34r-505,0xm200,-174r0,-34r505,0r0,34r-505,0"},">":{"d":"0,-520r0,-39r351,228r0,37r-351,238r0,-41r315,-217","w":350},"?":{"d":"160,-708v116,-1,191,54,191,167v0,53,-26,101,-76,147v-38,35,-114,87,-113,144r0,50r-35,0v0,-40,-2,-85,13,-108v23,-34,77,-79,111,-111v41,-38,62,-78,62,-122v0,-89,-51,-133,-153,-133v-43,0,-117,11,-159,16r-3,-34v81,-11,135,-16,162,-16xm124,0r0,-81r39,0r0,81r-39,0","w":372},"A":{"d":"35,0r211,-700r112,0r211,698r-36,0r-67,-213r-328,0r-67,215r-36,0xm275,-666r-127,417r308,0r-127,-417r-54,0","w":604},"B":{"d":"577,-196v0,130,-75,196,-206,196r-268,0r0,-700r249,0v131,0,197,58,197,173v-1,96,-31,131,-100,163v82,30,128,59,128,168xm371,-34v109,1,168,-55,168,-162v0,-99,-59,-149,-176,-149r-224,0r0,311r232,0xm510,-527v0,-95,-60,-139,-158,-139r-213,0r0,287r224,0v102,0,146,-48,147,-148","w":637},"C":{"d":"312,-675v-122,-2,-194,80,-194,199r0,246v0,137,65,205,194,205v37,0,101,-6,190,-19r4,34v-87,13,-151,19,-194,19v-155,0,-232,-80,-232,-239r0,-246v-1,-141,88,-235,232,-233v59,0,144,13,194,21r-4,34v-86,-14,-149,-21,-190,-21","w":551},"D":{"d":"571,-233v1,141,-88,233,-232,233r-236,0r0,-700r236,0v155,0,232,80,232,239r0,228xm339,-34v121,2,196,-80,195,-199r0,-228v0,-137,-65,-205,-195,-205r-200,0r0,632r200,0","w":651},"E":{"d":"103,0r0,-700r409,0r0,36r-373,0r0,282r313,0r0,36r-313,0r0,310r373,0r0,36r-409,0","w":572},"F":{"d":"103,0r0,-700r410,0r0,34r-374,0r0,310r314,0r0,34r-314,0r0,322r-36,0","w":563},"G":{"d":"118,-230v-3,136,97,205,228,205v47,0,107,-6,180,-18r0,-270r-151,0r0,-34r187,0r0,334v-91,15,-163,22,-215,22v-156,-1,-267,-78,-267,-239r0,-246v-2,-145,118,-236,267,-233v63,2,159,19,215,31r-5,34v-104,-21,-174,-31,-210,-31v-126,-2,-229,77,-229,199r0,246","w":637},"H":{"d":"557,0r0,-334r-418,0r0,334r-36,0r0,-700r36,0r0,332r418,0r0,-332r36,0r0,700r-36,0","w":696},"I":{"d":"95,0r0,-700r36,0r0,700r-36,0","w":226},"J":{"d":"208,-701r1,596v1,55,-7,101,-23,135v-7,15,-28,29,-42,34v-29,11,-67,9,-109,9r0,-34v45,-1,54,2,87,-6v28,-7,29,-14,40,-39v13,-30,9,-62,10,-109r0,-586r36,0","w":304},"K":{"d":"501,0r-261,-329r-101,0r0,329r-36,0r0,-700r36,0r0,337r99,0r250,-337r43,0r-261,352r277,348r-46,0","w":597},"L":{"d":"491,0r-377,0r0,-700r36,0r0,666r341,0r0,34","w":504},"M":{"d":"103,0r0,-700r112,0r192,641r204,-641r112,0r0,700r-36,0r0,-666r-47,0r-206,646r-54,0r-195,-646r-46,0r0,666r-36,0","w":826},"N":{"d":"103,0r0,-700r112,0r0,4r303,662r50,0r0,-666r35,0r0,700r-112,0r0,-4r-303,-662r-49,0r0,666r-36,0","w":706},"O":{"d":"332,10v-167,0,-252,-75,-252,-241r0,-238v0,-166,85,-240,252,-240v172,0,258,80,258,240r0,238v0,161,-86,241,-258,241xm332,-675v-145,0,-212,62,-213,206r0,238v1,144,68,207,213,207v145,0,219,-62,219,-207r0,-238v0,-144,-74,-206,-219,-206","w":670},"P":{"d":"562,-439v-1,115,-71,184,-193,184r-230,0r0,255r-36,0r0,-700r266,0v116,-1,193,52,193,164r0,97xm369,-289v99,2,156,-56,157,-150r0,-96v0,-90,-62,-132,-157,-131r-230,0r0,377r230,0","w":627},"Q":{"d":"522,138r-96,-158r34,-17r98,158xm332,10v-167,0,-252,-75,-252,-241r0,-238v0,-166,85,-240,252,-240v172,0,258,80,258,240r0,238v0,161,-86,241,-258,241xm332,-675v-145,0,-212,62,-213,206r0,238v1,144,68,207,213,207v145,0,219,-62,219,-207r0,-238v0,-144,-74,-206,-219,-206","w":670},"R":{"d":"521,-534v0,-90,-62,-133,-157,-132r-225,0r0,343r225,0r0,34r-225,0r0,289r-36,0r0,-700r261,0v116,-1,192,54,193,165v1,87,0,151,-49,197v-33,31,-81,49,-144,49r0,-34v95,2,156,-53,157,-139r0,-72xm546,0r-163,-299r34,-15r168,314r-39,0","w":640},"S":{"d":"270,-27v119,-1,175,-52,175,-173v0,-48,-13,-81,-39,-100v-26,-19,-71,-33,-136,-44v-62,-11,-86,-14,-134,-34v-60,-25,-83,-75,-83,-157v0,-117,72,-176,216,-176v51,0,116,5,195,16r-2,34v-90,-11,-154,-16,-193,-16v-141,-2,-195,69,-173,193v5,28,23,50,42,63v37,26,83,32,141,41v72,12,124,30,156,53v32,23,48,65,48,124v0,149,-66,210,-212,210v-63,0,-156,-9,-214,-16r4,-35v92,11,162,17,209,17","w":536},"T":{"d":"0,-666r0,-34r500,0r0,34r-231,0r0,666r-36,0r0,-666r-233,0","w":500},"U":{"d":"402,-28v90,0,135,-74,135,-169r0,-503r36,0r0,503v2,115,-61,203,-171,203r-123,0v-108,-1,-179,-85,-179,-203r0,-503r36,0r0,503v-3,94,59,168,144,169r122,0","w":673},"V":{"d":"544,-700r-194,700r-116,0r-199,-700r36,0r192,666r58,0r187,-666r36,0","w":579},"W":{"d":"531,0r-142,-365r-147,365r-98,0r-94,-700r36,0r89,667r44,0r153,-372r0,-82r36,0r0,82r146,371r41,0r108,-666r36,0r-113,700r-95,0","w":789},"X":{"d":"83,-700r208,326r207,-326r43,0r-223,353r223,347r-43,0r-206,-322r-209,322r-43,0r226,-347r-226,-353r43,0","w":581},"Y":{"d":"289,-321r0,321r-36,0r0,-321r-228,-379r41,0r205,346r202,-346r42,0","w":540},"Z":{"d":"60,-666r0,-34r450,0r0,70r-414,575r0,22r414,0r0,34r-450,0r0,-69r414,-571r0,-27r-414,0","w":570},"[":{"d":"245,-749r0,32r-147,0r0,808r147,0r0,32r-182,0r-1,-872r183,0","w":300},"\\":{"d":"292,-702r277,690r-33,13r-277,-689"},"]":{"d":"57,-717r0,-32r183,0r-1,872r-182,0r0,-32r147,0r0,-808r-147,0","w":300},"_":{"d":"42,34r428,0r0,34r-428,0r0,-34","w":520},"`":{"d":"166,-682r192,96r-15,27r-193,-92","w":545},"a":{"d":"386,-363v1,-62,-36,-116,-97,-113r-204,9r0,-32v88,-6,156,-9,204,-9v77,-1,132,63,132,141r0,328r76,15r-2,32r-98,-20v-117,14,-187,21,-212,21v-116,0,-169,-161,-98,-245v21,-26,50,-40,85,-43r214,-18r0,-66xm114,-214v-48,65,-13,199,72,191r200,-19r0,-223r-209,17v-28,3,-49,14,-63,34","w":512},"b":{"d":"319,-509v88,0,156,69,153,163v-3,87,10,175,-14,244v-18,53,-70,116,-141,112r-216,-13r0,-697r35,0r0,234v81,-29,142,-43,183,-43xm437,-346v2,-71,-51,-132,-118,-131v-37,0,-98,15,-183,44r0,401v88,7,148,10,181,10v74,0,120,-85,120,-167r0,-157","w":535},"c":{"d":"256,-509r134,9r0,32v-77,-6,-122,-9,-134,-9v-105,0,-158,57,-158,170r0,108v0,117,53,183,158,176r134,-9r0,32v-71,6,-115,9,-134,9v-129,0,-193,-70,-193,-209r0,-107v0,-135,65,-211,193,-202","w":440},"d":{"d":"63,-323v-2,-98,58,-187,153,-186v23,0,84,6,183,18r0,-209r35,0r0,700r-35,0r0,-56v-81,43,-142,65,-183,65v-91,0,-153,-67,-153,-163r0,-169xm98,-154v-2,71,50,132,118,131v37,0,98,-22,183,-66r0,-369v-86,-13,-147,-19,-183,-19v-75,0,-118,75,-118,157r0,166","w":535},"e":{"d":"98,-237v2,134,23,211,147,214v39,0,112,-5,148,-7r29,-2r0,32v-87,6,-147,9,-178,9v-148,-4,-179,-89,-181,-246r0,-81v-3,-115,75,-191,185,-191v123,0,191,67,190,191r0,81r-340,0xm248,-477v-94,-1,-151,64,-150,159r0,49r305,0r0,-49v0,-106,-52,-159,-155,-159","w":495},"f":{"d":"231,-707v-86,4,-89,46,-92,147r0,60r162,0r0,32r-162,0r0,468r-35,0r0,-468r-69,0r0,-32r69,0r0,-61v2,-125,16,-174,127,-178r92,3r0,31v-43,-1,-73,-2,-92,-2","w":328},"g":{"d":"476,84v0,130,-115,160,-259,155v-97,-3,-162,-58,-162,-159v0,-39,20,-74,39,-91v9,-8,25,-20,48,-37v-22,-14,-33,-57,-18,-92r24,-53v-57,-26,-86,-76,-86,-150v-1,-97,56,-166,153,-166v49,0,72,-1,118,14r145,-5r0,35r-114,0v29,28,44,69,44,122v1,101,-53,164,-153,164v-32,-1,-49,2,-81,-4v-15,38,-23,61,-23,70v2,55,24,54,87,54r75,0v108,1,163,38,163,143xm441,84v0,-85,-40,-110,-128,-111r-77,0r-68,-5v-30,21,-51,39,-62,54v-11,15,-16,34,-16,57v-2,79,52,128,127,128r51,0v115,0,173,-41,173,-123xm97,-343v0,75,42,132,112,132r45,0v79,0,119,-44,119,-132v0,-85,-38,-134,-115,-135r-43,0v-79,0,-118,54,-118,135","w":503},"h":{"d":"439,-344v2,-72,-51,-134,-118,-133v-37,0,-99,17,-185,52r0,425r-35,0r0,-730r35,0r0,272v83,-34,144,-51,185,-51v88,0,153,69,153,163r0,346r-35,0r0,-344","w":564},"i":{"d":"90,0r0,-500r35,0r0,500r-35,0xm90,-645r0,-55r35,0r0,55r-35,0","w":215},"j":{"d":"73,-52r0,-448r35,0r0,449v3,101,-68,188,-109,259r-29,-20v38,-67,103,-147,103,-240xm73,-645r0,-55r35,0r0,55r-35,0","w":198},"k":{"d":"136,0r-35,0r0,-730r35,0r0,438r94,0r182,-208r42,0r-192,226r192,274r-42,0r-182,-257r-94,0r0,257","w":484},"l":{"d":"130,0r-35,0r0,-700r35,0r0,700","w":225},"m":{"d":"419,-346v1,-72,-31,-130,-98,-131v-38,0,-100,17,-185,51r0,426r-35,0r0,-500r35,0r0,41v87,-33,148,-50,185,-50v45,0,80,17,104,51v87,-34,149,-51,184,-51v88,0,153,69,153,163r0,346r-35,0r0,-346v2,-71,-51,-132,-118,-131v-34,0,-91,16,-170,47v10,23,15,51,15,84r0,346r-35,0r0,-346","w":860},"n":{"d":"439,-346v2,-71,-51,-132,-118,-131v-33,0,-94,20,-185,59r0,418r-35,0r0,-500r35,0r0,49v84,-39,146,-58,185,-58v88,0,153,69,153,163r0,346r-35,0r0,-346","w":572},"o":{"d":"453,-167v2,98,-69,174,-163,173r-64,0v-94,1,-163,-75,-163,-173r0,-158v-3,-98,68,-185,163,-183r64,0v95,-2,163,85,163,183r0,158xm98,-167v-2,74,56,143,128,141r64,0v72,2,128,-67,128,-141r0,-158v2,-75,-55,-153,-128,-151r-64,0v-73,-2,-128,77,-128,151r0,158","w":516},"p":{"d":"472,-178v2,98,-58,187,-153,186v-45,0,-106,-6,-183,-18r0,209r-35,0r0,-699r35,0r0,49v75,-39,132,-58,173,-58v90,-1,163,68,163,163r0,168xm437,-346v3,-72,-60,-132,-128,-131v-37,0,-94,20,-173,59r0,376v81,12,142,18,183,18v75,0,118,-75,118,-157r0,-165","w":535},"q":{"d":"216,10v-88,0,-156,-69,-153,-163v3,-87,-10,-174,14,-243v18,-53,70,-117,141,-113r216,13r0,697r-35,0r0,-234v-81,29,-142,43,-183,43xm98,-153v-2,71,51,132,118,131v37,0,98,-15,183,-44r0,-401v-88,-7,-148,-10,-181,-10v-74,0,-120,85,-120,167r0,157","w":535},"r":{"d":"101,0r0,-500r35,0r0,86v73,-46,143,-78,208,-95r0,35v-59,16,-128,48,-208,95r0,379r-35,0","w":364},"s":{"d":"63,-375v0,-93,74,-139,167,-134r178,10r-1,33v-95,-7,-154,-11,-177,-11v-74,0,-130,28,-130,100v-1,93,86,91,176,104v100,14,151,57,151,132v0,100,-62,161,-186,150r-162,-14r2,-33v88,10,141,15,160,15v99,0,149,-39,149,-117v0,-58,-41,-91,-122,-100v-107,-11,-205,-23,-205,-135","w":490},"t":{"d":"263,0v-106,0,-145,-56,-146,-163r0,-305r-82,0r0,-32r82,0r0,-114r35,0r0,114r168,0r0,32r-168,0r0,305v1,86,26,131,111,131r57,0r0,32r-57,0","w":350},"u":{"d":"125,-153v-2,71,51,132,118,131v31,0,92,-18,182,-54r0,-424r35,0r0,500r-35,0r0,-42v-90,35,-151,52,-182,52v-88,0,-153,-69,-153,-163r0,-347r35,0r0,347","w":561},"v":{"d":"72,-500r136,468r51,0r136,-468r37,0r-147,500r-103,0r-147,-500r37,0","w":467},"w":{"d":"38,-500r35,0r112,468r55,0r126,-456r37,0r127,456r55,0r113,-468r35,0r-122,500r-108,0r-119,-437r-118,437r-108,0","w":771},"x":{"d":"187,-250r-169,-250r40,0r150,223r150,-223r40,0r-169,250r169,250r-41,0r-149,-223r-149,223r-41,0","w":436},"y":{"d":"190,0r-155,-500r35,0r147,468r25,0r148,-468r35,0r-229,730r-35,0r72,-230r-43,0","w":460},"z":{"d":"98,-33r321,0r0,33r-364,0r0,-31r324,-437r-324,1r0,-33r364,0r0,33","w":474},"|":{"d":"402,59r0,-759r35,0r0,759r-35,0"},"\u00a0":{"w":235},"\u00a3":{"d":"206,-501v1,-125,26,-175,137,-179v25,0,65,4,120,12r0,32v-58,-8,-98,-12,-120,-12v-86,4,-101,47,-102,147r0,95r182,0r0,32r-182,0r0,340r174,0r82,-16r7,32r-81,17r-309,1r0,-34r92,0r0,-340r-69,0r0,-32r69,0r0,-95","w":504},"\u00a5":{"d":"289,-311r0,311r-36,0r0,-311r-228,-349r41,0r205,309r202,-309r42,0xm287,-331r0,-34r205,0r0,34r-205,0xm48,-182r0,-34r445,0r0,34r-445,0xm47,-331r0,-34r205,0r0,34r-205,0","w":540},"\u00a6":{"d":"409,-750r34,0r0,356r-34,0r0,-356xm409,-296r34,0r0,356r-34,0r0,-356"},"\u00a7":{"d":"280,-475v0,-106,66,-142,175,-143v42,0,94,3,156,9r-2,32v-71,-6,-122,-9,-154,-9v-93,0,-140,36,-140,109v1,47,8,74,38,92v36,20,57,23,110,32v59,10,101,23,127,41v43,29,48,115,24,175v-11,26,-21,48,-32,63r-23,-22v34,-36,55,-159,3,-192v-52,-33,-182,-34,-235,-72v-34,-24,-47,-58,-47,-115xm356,-354v-40,35,-65,161,-3,194v36,19,57,24,110,32v59,9,101,22,126,39v25,17,37,49,37,96v0,105,-58,158,-173,158v-50,0,-122,-8,-168,-13r3,-32v73,9,128,14,165,14v92,0,138,-42,138,-126v0,-41,-8,-64,-37,-78v-63,-33,-172,-26,-227,-65v-34,-24,-47,-58,-47,-115v0,-45,18,-85,55,-122"},"\u00a8":{"d":"232,-638r0,-62r35,0r0,62r-35,0xm402,-638r0,-62r35,0r0,62r-35,0"},"\u00a9":{"d":"425,-169v-143,0,-255,-122,-255,-265v0,-143,112,-266,255,-266v143,0,256,123,256,266v0,143,-113,265,-256,265xm425,-668v-126,0,-223,108,-223,234v0,127,97,233,223,233v126,0,224,-107,224,-233v0,-126,-98,-234,-224,-234xm425,-555v-74,2,-77,42,-77,122v0,74,9,127,77,120r73,-8r1,32v-29,5,-53,8,-74,8v-89,-1,-109,-59,-109,-152v0,-95,18,-153,109,-154v25,0,50,2,74,7r-1,32v-27,-5,-52,-7,-73,-7"},"\u00aa":{"d":"386,-363v1,-62,-36,-116,-97,-113r-204,9r0,-32v88,-6,156,-9,204,-9v77,-1,132,63,132,141r0,328r76,15r-2,32r-98,-20v-117,14,-187,21,-212,21v-116,0,-169,-161,-98,-245v21,-26,50,-40,85,-43r214,-18r0,-66xm114,-214v-48,65,-13,199,72,191r200,-19r0,-223r-209,17v-28,3,-49,14,-63,34","w":512},"\u00ab":{"d":"387,-380r-135,106r135,117r0,41v-89,-75,-144,-121,-167,-138r0,-36r167,-129r0,39xm594,-380r-135,106r135,117r0,41v-89,-75,-144,-121,-167,-138r0,-36r167,-129r0,39"},"\u00ad":{"d":"60,-244r0,-34r320,0r0,34r-320,0","w":440},"\u00ae":{"d":"425,-169v-143,0,-255,-122,-255,-265v0,-143,112,-266,255,-266v143,0,256,123,256,266v0,143,-113,265,-256,265xm497,-501v3,-70,-75,-56,-142,-58r0,120r80,0r0,32r-80,0r0,131r-32,0r0,-315r91,0v80,1,115,16,115,90v0,63,-28,94,-94,94r0,-32v46,-1,60,-15,62,-62xm500,-276r-66,-131r32,-12r69,143r-35,0xm425,-668v-126,0,-223,108,-223,234v0,127,97,233,223,233v126,0,224,-107,224,-233v0,-126,-98,-234,-224,-234"},"\u00b0":{"d":"414,-429v-80,0,-136,-55,-136,-135v0,-80,56,-136,136,-136v80,0,136,56,136,136v0,80,-56,135,-136,135xm414,-668v-61,0,-102,43,-102,104v0,61,41,103,102,103v61,0,104,-42,104,-103v0,-60,-44,-104,-104,-104"},"\u00b1":{"d":"196,-114r428,0r0,34r-428,0r0,-34xm195,-330r0,-34r428,0r0,34r-428,0xm388,-186r0,-316r36,0r0,316r-36,0"},"\u00b4":{"d":"150,-586r192,-96r16,31r-193,92"},"\u00b5":{"d":"247,-173v-3,70,53,152,118,151v31,0,92,-18,182,-54r0,-424r35,0r0,500r-35,0r0,-42v-90,35,-151,52,-182,52v-108,2,-153,-114,-153,-223r0,-287r35,0r0,327xm212,250r0,-751r35,0r0,751r-35,0"},"\u00b8":{"d":"399,50v50,-8,82,1,79,57v-2,49,-12,63,-61,64v-8,0,-18,-1,-31,-4r2,-26v6,1,15,2,28,2v28,-1,28,-8,28,-36v0,-28,0,-31,-28,-32r-24,0xm392,75r0,-76r33,0r0,69"},"\u00ba":{"d":"144,-524v0,-94,28,-135,115,-135v87,0,113,41,113,135v-1,94,-26,138,-113,138v-87,0,-115,-44,-115,-138xm178,-524v0,76,13,106,81,106v68,0,79,-30,79,-106v0,-76,-10,-103,-79,-103v-68,0,-81,27,-81,103","w":516},"\u00bb":{"d":"427,-380r0,-39r167,129r0,36v-23,17,-78,63,-167,138r0,-41r135,-117xm220,-380r0,-39r167,129r0,36v-23,17,-78,63,-167,138r0,-41r135,-117"},"\u00c0":{"d":"35,0r211,-700r112,0r211,698r-36,0r-67,-213r-328,0r-67,215r-36,0xm275,-666r-127,417r308,0r-127,-417r-54,0xm204,-932r192,96r-15,27r-193,-92","w":604},"\u00c1":{"d":"35,0r211,-700r112,0r211,698r-36,0r-67,-213r-328,0r-67,215r-36,0xm275,-666r-127,417r308,0r-127,-417r-54,0xm208,-836r192,-96r16,31r-193,92","w":604},"\u00c2":{"d":"35,0r211,-700r112,0r211,698r-36,0r-67,-213r-328,0r-67,215r-36,0xm275,-666r-127,417r308,0r-127,-417r-54,0xm166,-800r121,-132r28,0r122,132r-42,0r-93,-98r-94,98r-42,0","w":604},"\u00c3":{"d":"35,0r211,-700r112,0r211,698r-36,0r-67,-213r-328,0r-67,215r-36,0xm275,-666r-127,417r308,0r-127,-417r-54,0xm370,-827v-38,0,-98,-54,-129,-54v-15,0,-37,14,-66,41r-28,-24v64,-59,98,-72,167,-28v60,39,60,35,117,-13r25,23v-34,37,-63,55,-86,55","w":604},"\u00c4":{"d":"35,0r211,-700r112,0r211,698r-36,0r-67,-213r-328,0r-67,215r-36,0xm275,-666r-127,417r308,0r-127,-417r-54,0xm199,-838r0,-62r35,0r0,62r-35,0xm369,-838r0,-62r35,0r0,62r-35,0","w":604},"\u00c5":{"d":"35,0r211,-700r112,0r211,698r-36,0r-67,-213r-328,0r-67,215r-36,0xm275,-666r-127,417r308,0r-127,-417r-54,0xm302,-754v-52,0,-94,-42,-94,-94v0,-52,42,-94,94,-94v52,0,94,42,94,94v0,52,-42,94,-94,94xm303,-909v-34,0,-61,27,-61,61v0,34,27,62,61,62v33,0,60,-29,60,-62v0,-33,-27,-61,-60,-61","w":604},"\u00c6":{"d":"677,0r0,-215r-275,0r-79,215r-40,0r251,-700r552,0r0,36r-373,0r0,282r313,0r0,36r-313,0r0,310r373,0r0,36r-409,0xm562,-664r-148,415r263,0r0,-415r-115,0","w":1176},"\u00c7":{"d":"312,-675v-122,-2,-194,80,-194,199r0,246v0,137,65,205,194,205v37,0,101,-6,190,-19r4,34v-87,13,-151,19,-194,19v-155,0,-232,-80,-232,-239r0,-246v-1,-141,88,-235,232,-233v59,0,144,13,194,21r-4,34v-86,-14,-149,-21,-190,-21xm303,50v50,-8,82,1,79,57v-2,49,-12,63,-61,64v-8,0,-18,-1,-31,-4r2,-26v6,1,15,2,28,2v28,-1,28,-8,28,-36v0,-28,0,-31,-28,-32r-24,0xm296,75r0,-76r33,0r0,69","w":551},"\u00c8":{"d":"103,0r0,-700r409,0r0,36r-373,0r0,282r313,0r0,36r-313,0r0,310r373,0r0,36r-409,0xm219,-932r192,96r-15,27r-193,-92","w":572},"\u00c9":{"d":"103,0r0,-700r409,0r0,36r-373,0r0,282r313,0r0,36r-313,0r0,310r373,0r0,36r-409,0xm223,-836r192,-96r16,31r-193,92","w":572},"\u00ca":{"d":"103,0r0,-700r409,0r0,36r-373,0r0,282r313,0r0,36r-313,0r0,310r373,0r0,36r-409,0xm172,-800r121,-132r28,0r122,132r-42,0r-93,-98r-94,98r-42,0","w":572},"\u00cb":{"d":"103,0r0,-700r409,0r0,36r-373,0r0,282r313,0r0,36r-313,0r0,310r373,0r0,36r-409,0xm205,-838r0,-62r35,0r0,62r-35,0xm375,-838r0,-62r35,0r0,62r-35,0","w":572},"\u00cc":{"d":"95,0r0,-700r36,0r0,700r-36,0xm25,-932r192,96r-15,27r-193,-92","w":226},"\u00cd":{"d":"95,0r0,-700r36,0r0,700r-36,0xm9,-836r192,-96r16,31r-193,92","w":226},"\u00ce":{"d":"95,0r0,-700r36,0r0,700r-36,0xm-22,-800r121,-132r28,0r122,132r-42,0r-93,-98r-94,98r-42,0","w":226},"\u00cf":{"d":"95,0r0,-700r36,0r0,700r-36,0xm11,-838r0,-62r35,0r0,62r-35,0xm181,-838r0,-62r35,0r0,62r-35,0","w":226},"\u00d0":{"d":"571,-233v1,141,-88,233,-232,233r-236,0r0,-700r236,0v155,0,232,80,232,239r0,228xm339,-34v121,2,196,-80,195,-199r0,-228v0,-137,-65,-205,-195,-205r-200,0r0,632r200,0xm-64,-324r0,-34r440,0r0,34r-440,0","w":651},"\u00d1":{"d":"103,0r0,-700r112,0r0,4r303,662r50,0r0,-666r35,0r0,700r-112,0r0,-4r-303,-662r-49,0r0,666r-36,0xm421,-827v-38,0,-98,-54,-129,-54v-15,0,-37,14,-66,41r-28,-24v64,-59,97,-73,166,-28v60,39,63,36,118,-13r25,23v-34,37,-63,55,-86,55","w":706},"\u00d2":{"d":"332,10v-167,0,-252,-75,-252,-241r0,-238v0,-166,85,-240,252,-240v172,0,258,80,258,240r0,238v0,161,-86,241,-258,241xm332,-675v-145,0,-212,62,-213,206r0,238v1,144,68,207,213,207v145,0,219,-62,219,-207r0,-238v0,-144,-74,-206,-219,-206xm246,-932r192,96r-15,27r-193,-92","w":670},"\u00d3":{"d":"332,10v-167,0,-252,-75,-252,-241r0,-238v0,-166,85,-240,252,-240v172,0,258,80,258,240r0,238v0,161,-86,241,-258,241xm332,-675v-145,0,-212,62,-213,206r0,238v1,144,68,207,213,207v145,0,219,-62,219,-207r0,-238v0,-144,-74,-206,-219,-206xm231,-836r192,-96r16,31r-193,92","w":670},"\u00d4":{"d":"332,10v-167,0,-252,-75,-252,-241r0,-238v0,-166,85,-240,252,-240v172,0,258,80,258,240r0,238v0,161,-86,241,-258,241xm332,-675v-145,0,-212,62,-213,206r0,238v1,144,68,207,213,207v145,0,219,-62,219,-207r0,-238v0,-144,-74,-206,-219,-206xm199,-800r121,-132r28,0r122,132r-42,0r-93,-98r-94,98r-42,0","w":670},"\u00d5":{"d":"332,10v-167,0,-252,-75,-252,-241r0,-238v0,-166,85,-240,252,-240v172,0,258,80,258,240r0,238v0,161,-86,241,-258,241xm332,-675v-145,0,-212,62,-213,206r0,238v1,144,68,207,213,207v145,0,219,-62,219,-207r0,-238v0,-144,-74,-206,-219,-206xm403,-827v-38,0,-98,-54,-129,-54v-15,0,-37,14,-66,41r-28,-24v64,-59,97,-73,166,-28v60,39,63,36,118,-13r25,23v-34,37,-63,55,-86,55","w":670},"\u00d6":{"d":"231,-838r0,-62r35,0r0,62r-35,0xm401,-838r0,-62r35,0r0,62r-35,0xm332,10v-167,0,-252,-75,-252,-241r0,-238v0,-166,85,-240,252,-240v172,0,258,80,258,240r0,238v0,161,-86,241,-258,241xm332,-675v-145,0,-212,62,-213,206r0,238v1,144,68,207,213,207v145,0,219,-62,219,-207r0,-238v0,-144,-74,-206,-219,-206","w":670},"\u00d7":{"d":"166,-39r422,-443r27,24r-423,442xm195,-482r422,443r-26,23r-423,-442"},"\u00d8":{"d":"332,10v-167,0,-252,-75,-252,-241r0,-238v0,-166,85,-240,252,-240v172,0,258,80,258,240r0,238v0,161,-86,241,-258,241xm332,-675v-145,0,-212,62,-213,206r0,238v1,144,68,207,213,207v145,0,219,-62,219,-207r0,-238v0,-144,-74,-206,-219,-206xm110,98r417,-890r33,14r-417,889","w":670},"\u00d9":{"d":"403,-28v90,0,135,-74,135,-169r0,-503r36,0r0,503v2,115,-61,203,-171,203r-123,0v-108,-1,-179,-85,-179,-203r0,-503r36,0r0,503v-3,94,59,168,144,169r122,0xm249,-932r192,96r-15,27r-193,-92","w":673},"\u00da":{"d":"402,-28v90,0,135,-74,135,-169r0,-503r36,0r0,503v2,115,-61,203,-171,203r-123,0v-108,-1,-179,-85,-179,-203r0,-503r36,0r0,503v-3,94,59,168,144,169r122,0xm232,-836r192,-96r16,31r-193,92","w":673},"\u00db":{"d":"402,-28v90,0,135,-74,135,-169r0,-503r36,0r0,503v2,115,-61,203,-171,203r-123,0v-108,-1,-179,-85,-179,-203r0,-503r36,0r0,503v-3,94,59,168,144,169r122,0xm202,-800r121,-132r28,0r122,132r-42,0r-93,-98r-94,98r-42,0","w":673},"\u00dc":{"d":"236,-838r0,-62r35,0r0,62r-35,0xm406,-838r0,-62r35,0r0,62r-35,0xm402,-28v90,0,135,-74,135,-169r0,-503r36,0r0,503v2,115,-61,203,-171,203r-123,0v-108,-1,-179,-85,-179,-203r0,-503r36,0r0,503v-3,94,59,168,144,169r122,0","w":673},"\u00dd":{"d":"289,-321r0,321r-36,0r0,-321r-228,-379r41,0r205,346r202,-346r42,0xm166,-836r192,-96r16,31r-193,92","w":540},"\u00de":{"d":"139,-700r0,700r-36,0r0,-700r36,0xm562,-317v-1,115,-71,184,-193,184r-250,0r-6,-445r256,0v116,-1,193,52,193,164r0,97xm369,-167v99,2,156,-56,157,-150r0,-96v0,-90,-62,-132,-157,-131r-240,0r0,377r240,0","w":627},"\u00df":{"d":"366,-676v-110,0,-117,36,-117,157r0,519r-36,0r0,-532v3,-134,24,-178,153,-178v123,0,185,26,190,135v5,90,-64,96,-122,125v-13,8,-14,27,0,38v40,30,163,85,200,134v5,7,7,16,7,27v1,130,-22,213,-116,245v-48,17,-134,16,-200,11r4,-34v81,7,127,6,182,-9v51,-14,78,-61,87,-113v4,-24,5,-57,5,-100v0,-8,-10,-18,-27,-31v-22,-17,-156,-92,-176,-110v-19,-17,-20,-63,0,-79v26,-21,94,-34,111,-58v5,-7,7,-23,7,-46v-3,-87,-54,-101,-152,-101"},"\u00e0":{"d":"386,-363v1,-62,-36,-116,-97,-113r-204,9r0,-32v88,-6,156,-9,204,-9v77,-1,132,63,132,141r0,328r66,13r-2,32r-88,-18v-117,14,-187,21,-212,21v-116,0,-169,-161,-98,-245v21,-26,50,-40,85,-43r214,-18r0,-66xm114,-214v-48,65,-13,199,72,191r200,-19r0,-223r-209,17v-28,3,-49,14,-63,34xm158,-732r192,96r-15,27r-193,-92","w":536},"\u00e1":{"d":"421,-367v2,-78,-55,-144,-132,-141r-204,9r0,32v90,-6,158,-9,204,-9v61,-1,98,51,97,113r0,66r-214,18v-70,4,-117,65,-117,139v0,77,51,152,130,149v55,-2,153,-15,212,-21r88,18r2,-32r-66,-13r0,-328xm186,-23v-85,3,-120,-126,-72,-191v14,-20,35,-31,63,-34r209,-17r0,223v-112,13,-179,19,-200,19xm202,-636r192,-96r16,31r-193,92","w":536},"\u00e2":{"d":"421,-367v2,-78,-55,-144,-132,-141r-204,9r0,32v90,-6,158,-9,204,-9v61,-1,98,51,97,113r0,66r-214,18v-70,4,-117,65,-117,139v0,77,51,152,130,149v55,-2,153,-15,212,-21r88,18r2,-32r-66,-13r0,-328xm186,-23v-85,3,-120,-126,-72,-191v14,-20,35,-31,63,-34r209,-17r0,223v-112,13,-179,19,-200,19xm113,-600r121,-132r28,0r122,132r-42,0r-93,-98r-94,98r-42,0","w":536},"\u00e3":{"d":"421,-367v2,-78,-55,-144,-132,-141r-204,9r0,32v90,-6,158,-9,204,-9v61,-1,98,51,97,113r0,66r-214,18v-70,4,-117,65,-117,139v0,77,51,152,130,149v55,-2,153,-15,212,-21r88,18r2,-32r-66,-13r0,-328xm186,-23v-85,3,-120,-126,-72,-191v14,-20,35,-31,63,-34r209,-17r0,223v-112,13,-179,19,-200,19xm316,-627v-38,0,-98,-54,-129,-54v-15,0,-37,14,-66,41r-28,-24v64,-59,98,-72,167,-28v60,39,60,35,117,-13r25,23v-34,37,-63,55,-86,55","w":536},"\u00e4":{"d":"141,-638r0,-62r35,0r0,62r-35,0xm311,-638r0,-62r35,0r0,62r-35,0xm420,-367v2,-78,-55,-144,-132,-141r-204,9r0,32v90,-6,158,-9,204,-9v61,-1,98,51,97,113r0,66r-214,18v-70,4,-117,65,-117,139v0,77,51,152,130,149v55,-2,153,-15,212,-21r88,18r2,-32r-66,-13r0,-328xm185,-23v-85,3,-121,-126,-73,-191v14,-20,36,-31,64,-34r209,-17r0,223v-112,13,-179,19,-200,19","w":536},"\u00e5":{"d":"421,-367v2,-78,-55,-144,-132,-141r-204,9r0,32v90,-6,158,-9,204,-9v61,-1,98,51,97,113r0,66r-214,18v-70,4,-117,65,-117,139v0,77,51,152,130,149v55,-2,153,-15,212,-21r88,18r2,-32r-66,-13r0,-328xm186,-23v-85,3,-120,-126,-72,-191v14,-20,35,-31,63,-34r209,-17r0,223v-112,13,-179,19,-200,19xm248,-560v-49,0,-89,-41,-89,-89v0,-48,41,-89,89,-89v48,0,89,41,89,89v0,48,-41,89,-89,89xm249,-710v-34,0,-61,27,-61,61v0,34,27,62,61,62v33,0,60,-29,60,-62v0,-33,-27,-61,-60,-61","w":536},"\u00e6":{"d":"575,-363v1,-62,-36,-116,-97,-113r-204,9r0,-32v88,-6,156,-9,204,-9v77,-1,132,63,132,141r0,202r30,126r11,15v-160,22,-252,33,-277,33v-116,0,-169,-161,-98,-245v21,-26,50,-40,85,-43r214,-18r0,-66xm302,-214v-48,65,-12,194,73,191v21,0,102,-9,242,-28r-42,-187r0,-27r-209,17v-28,3,-50,14,-64,34xm610,-237v2,134,23,211,147,214v39,0,112,-5,148,-7r29,-2r0,32v-87,6,-147,9,-178,9v-148,-4,-179,-89,-181,-246r0,-81v-3,-115,75,-191,185,-191v123,0,191,67,190,191r0,81r-340,0xm760,-477v-94,-1,-151,64,-150,159r0,49r305,0r0,-49v0,-106,-52,-159,-155,-159","w":1007},"\u00e7":{"d":"256,-509r134,9r0,32v-77,-6,-122,-9,-134,-9v-105,0,-158,57,-158,170r0,108v0,117,53,183,158,176r134,-9r0,32v-71,6,-115,9,-134,9v-129,0,-193,-70,-193,-209r0,-107v0,-135,65,-211,193,-202xm223,50v50,-8,82,1,79,57v-2,49,-12,63,-61,64v-8,0,-18,-1,-31,-4r2,-26v6,1,15,2,28,2v28,-1,28,-8,28,-36v0,-28,0,-31,-28,-32r-24,0xm216,75r0,-76r33,0r0,69","w":440},"\u00e8":{"d":"98,-237v2,134,23,211,147,214v39,0,112,-5,148,-7r29,-2r0,32v-87,6,-147,9,-178,9v-148,-4,-179,-89,-181,-246r0,-81v-3,-115,75,-191,185,-191v123,0,191,67,190,191r0,81r-340,0xm248,-477v-94,-1,-151,64,-150,159r0,49r305,0r0,-49v0,-106,-52,-159,-155,-159xm141,-732r192,96r-15,27r-193,-92","w":497},"\u00e9":{"d":"98,-237v2,134,23,211,147,214v39,0,112,-5,148,-7r29,-2r0,32v-87,6,-147,9,-178,9v-148,-4,-179,-89,-181,-246r0,-81v-3,-115,75,-191,185,-191v123,0,191,67,190,191r0,81r-340,0xm248,-477v-94,-1,-151,64,-150,159r0,49r305,0r0,-49v0,-106,-52,-159,-155,-159xm167,-636r192,-96r16,31r-193,92","w":497},"\u00ea":{"d":"124,-600r121,-132r28,0r122,132r-42,0r-93,-98r-94,98r-42,0xm98,-237v2,134,23,211,147,214v39,0,112,-5,148,-7r29,-2r0,32v-87,6,-147,9,-178,9v-148,-4,-179,-89,-181,-246r0,-81v-3,-115,75,-191,185,-191v123,0,191,67,190,191r0,81r-340,0xm248,-477v-94,-1,-151,64,-150,159r0,49r305,0r0,-49v0,-106,-52,-159,-155,-159","w":497},"\u00eb":{"d":"165,-638r0,-62r35,0r0,62r-35,0xm335,-638r0,-62r35,0r0,62r-35,0xm103,-237v2,134,23,211,147,214v39,0,112,-5,148,-7r29,-2r0,32v-87,6,-147,9,-178,9v-148,-4,-179,-89,-181,-246r0,-81v-3,-115,75,-191,185,-191v124,0,190,66,190,191r0,81r-340,0xm253,-477v-94,-1,-151,64,-150,159r0,49r305,0r0,-49v0,-106,-52,-159,-155,-159","w":497},"\u00ec":{"d":"113,0r0,-500r35,0r0,500r-35,0xm11,-732r192,96r-15,27r-193,-92","w":261},"\u00ed":{"d":"113,0r0,-500r35,0r0,500r-35,0xm57,-636r192,-96r16,31r-193,92","w":261},"\u00ee":{"d":"113,0r0,-500r35,0r0,500r-35,0xm-5,-600r121,-132r28,0r122,132r-42,0r-93,-98r-94,98r-42,0","w":261},"\u00ef":{"d":"403,0r0,-500r35,0r0,500r-35,0xm318,-638r0,-62r35,0r0,62r-35,0xm488,-638r0,-62r35,0r0,62r-35,0"},"\u00f0":{"d":"481,-230v4,181,-116,258,-301,235r-114,-12r4,-35v92,11,149,17,170,17v132,0,204,-71,203,-205r0,-76v-47,19,-123,45,-187,45v-139,0,-209,-57,-209,-172r0,-44v0,-122,86,-193,215,-193v146,0,219,79,219,237r0,203xm262,-636v-113,-1,-176,53,-177,159r0,44v0,92,58,138,173,138v61,0,138,-27,185,-45r0,-91v0,-139,-49,-203,-181,-205","w":530},"\u00f1":{"d":"439,-346v2,-71,-51,-132,-118,-131v-33,0,-94,20,-185,59r0,418r-35,0r0,-500r35,0r0,49v84,-39,146,-58,185,-58v88,0,153,69,153,163r0,346r-35,0r0,-346xm366,-627v-38,0,-98,-54,-129,-54v-15,0,-37,14,-66,41r-28,-24v64,-59,98,-72,167,-28v60,39,60,35,117,-13r25,23v-34,37,-63,55,-86,55","w":574},"\u00f2":{"d":"453,-167v2,98,-69,174,-163,173r-64,0v-94,1,-163,-75,-163,-173r0,-158v-3,-98,68,-185,163,-183r64,0v95,-2,163,85,163,183r0,158xm98,-167v-2,74,56,143,128,141r64,0v72,2,128,-67,128,-141r0,-158v2,-75,-55,-153,-128,-151r-64,0v-73,-2,-128,77,-128,151r0,158xm150,-732r192,96r-15,27r-193,-92","w":536},"\u00f3":{"d":"63,-167v-2,98,69,174,163,173r64,0v94,1,163,-75,163,-173r0,-158v3,-98,-68,-185,-163,-183r-64,0v-95,-2,-163,85,-163,183r0,158xm418,-167v2,74,-56,143,-128,141r-64,0v-72,2,-128,-67,-128,-141r0,-158v-2,-75,55,-153,128,-151r64,0v73,-2,128,77,128,151r0,158xm174,-636r192,-96r16,31r-193,92","w":536},"\u00f4":{"d":"63,-167v-2,98,69,174,163,173r64,0v94,1,163,-75,163,-173r0,-158v3,-98,-68,-185,-163,-183r-64,0v-95,-2,-163,85,-163,183r0,158xm418,-167v2,74,-56,143,-128,141r-64,0v-72,2,-128,-67,-128,-141r0,-158v-2,-75,55,-153,128,-151r64,0v73,-2,128,77,128,151r0,158xm123,-600r121,-132r28,0r122,132r-42,0r-93,-98r-94,98r-42,0","w":536},"\u00f5":{"d":"63,-167v-2,98,69,174,163,173r64,0v94,1,163,-75,163,-173r0,-158v3,-98,-68,-185,-163,-183r-64,0v-95,-2,-163,85,-163,183r0,158xm418,-167v2,74,-56,143,-128,141r-64,0v-72,2,-128,-67,-128,-141r0,-158v-2,-75,55,-153,128,-151r64,0v73,-2,128,77,128,151r0,158xm336,-559v-38,0,-98,-54,-129,-54v-15,0,-37,14,-66,41r-28,-24v64,-59,98,-72,167,-28v60,39,60,35,117,-13r25,23v-34,37,-63,55,-86,55","w":536},"\u00f6":{"d":"63,-167v-2,98,69,174,163,173r64,0v94,1,163,-75,163,-173r0,-158v3,-98,-68,-185,-163,-183r-64,0v-95,-2,-163,85,-163,183r0,158xm418,-167v2,74,-56,143,-128,141r-64,0v-72,2,-128,-67,-128,-141r0,-158v-2,-75,55,-153,128,-151r64,0v73,-2,128,77,128,151r0,158xm161,-638r0,-62r35,0r0,62r-35,0xm331,-638r0,-62r35,0r0,62r-35,0","w":536},"\u00f7":{"d":"51,-483r0,-80r40,0r0,80r-40,0xm51,-139r0,-80r40,0r0,80r-40,0xm-97,-334r0,-36r336,0r0,36r-336,0","w":141},"\u00f8":{"d":"453,-167v2,98,-69,174,-163,173r-64,0v-94,1,-163,-75,-163,-173r0,-158v-3,-98,68,-185,163,-183r64,0v95,-2,163,85,163,183r0,158xm98,-167v-2,74,56,143,128,141r64,0v72,2,128,-67,128,-141r0,-158v2,-75,-55,-153,-128,-151r-64,0v-73,-2,-128,77,-128,151r0,158xm104,94r280,-687r30,11r-280,686","w":516},"\u00f9":{"d":"125,-153v-2,71,51,132,118,131v31,0,92,-18,182,-54r0,-424r35,0r0,500r-35,0r0,-42v-90,35,-151,52,-182,52v-88,0,-153,-69,-153,-163r0,-347r35,0r0,347xm174,-732r192,96r-15,27r-193,-92","w":511},"\u00fa":{"d":"125,-153v-2,71,51,132,118,131v31,0,92,-18,182,-54r0,-424r35,0r0,500r-35,0r0,-42v-90,35,-151,52,-182,52v-88,0,-153,-69,-153,-163r0,-347r35,0r0,347xm193,-636r192,-96r16,31r-193,92","w":511},"\u00fb":{"d":"141,-600r121,-132r28,0r122,132r-42,0r-93,-98r-94,98r-42,0xm125,-153v-2,71,51,132,118,131v31,0,92,-18,182,-54r0,-424r35,0r0,500r-35,0r0,-42v-90,35,-151,52,-182,52v-88,0,-153,-69,-153,-163r0,-347r35,0r0,347","w":511},"\u00fc":{"d":"170,-638r0,-62r35,0r0,62r-35,0xm340,-638r0,-62r35,0r0,62r-35,0xm122,-153v-2,71,51,132,118,131v31,0,92,-18,182,-54r0,-424r35,0r0,500r-35,0r0,-42v-90,35,-151,52,-182,52v-88,0,-153,-69,-153,-163r0,-347r35,0r0,347","w":511},"\u00fd":{"d":"35,-500r155,500r43,0r-72,230r35,0r229,-730r-35,0r-148,468r-25,0r-147,-468r-35,0xm136,-586r192,-96r16,31r-193,92","w":480},"\u00fe":{"d":"449,-509v88,0,156,69,153,163v-3,87,10,175,-14,244v-18,53,-70,116,-141,112r-216,-13r35,-463v81,-29,142,-43,183,-43xm567,-346v2,-71,-51,-132,-118,-131v-37,0,-98,15,-183,44r0,401v88,7,148,10,181,10v74,0,120,-85,120,-167r0,-157xm231,230r0,-959r35,0r0,959r-35,0"},"\u00ff":{"d":"35,-500r155,500r43,0r-72,230r35,0r229,-730r-35,0r-148,468r-25,0r-147,-468r-35,0xm128,-638r0,-62r35,0r0,62r-35,0xm298,-638r0,-62r35,0r0,62r-35,0","w":460},"\u0152":{"d":"417,-45v53,28,216,21,265,10r0,-628v-43,-13,-212,-18,-264,9v-59,31,-93,91,-104,166v-18,118,-18,302,32,380v18,28,41,48,71,63xm534,9v-106,0,-176,-27,-216,-91v-42,-69,-51,-149,-52,-265v0,-123,19,-214,58,-273v39,-59,109,-89,210,-89v71,0,121,3,149,9r0,701v-23,5,-73,8,-149,8xm681,0r0,-700r409,0r0,36r-373,0r0,282r313,0r0,36r-313,0r0,310r373,0r0,36r-409,0","w":1162},"\u0153":{"d":"614,-167v2,98,-69,174,-163,173r-64,0v-94,1,-163,-75,-163,-173r0,-158v-3,-98,68,-185,163,-183r64,0v95,-2,163,85,163,183r0,158xm259,-167v-2,74,56,143,128,141r64,0v72,2,128,-67,128,-141r0,-158v2,-75,-55,-153,-128,-151r-64,0v-73,-2,-128,77,-128,151r0,158xm614,-237v2,134,23,211,147,214v39,0,112,-5,148,-7r29,-2r0,32v-87,6,-147,9,-178,9v-148,-4,-179,-89,-181,-246r0,-81v-3,-115,75,-191,185,-191v123,0,191,67,190,191r0,81r-340,0xm764,-477v-94,-1,-151,64,-150,159r0,49r305,0r0,-49v0,-106,-52,-159,-155,-159","w":1011},"\u0178":{"d":"289,-321r0,321r-36,0r0,-321r-228,-379r41,0r205,346r202,-346r42,0xm168,-838r0,-62r35,0r0,62r-35,0xm338,-838r0,-62r35,0r0,62r-35,0","w":540},"\u02c6":{"d":"275,-600r121,-132r28,0r122,132r-42,0r-93,-98r-94,98r-42,0"},"\u02dc":{"d":"301,-559v-38,0,-98,-54,-129,-54v-15,0,-37,14,-66,41r-28,-24v64,-59,97,-73,166,-28v60,39,63,36,118,-13r25,23v-34,37,-63,55,-86,55"},"\u2018":{"d":"444,-727r-40,200r-38,0r48,-200r30,0"},"\u2019":{"d":"375,-527r40,-200r38,0r-48,200r-30,0"},"\u20ac":{"d":"299,-643v-122,-2,-194,80,-194,199r0,214v0,137,65,205,194,205v37,0,101,-6,190,-19r4,34v-87,13,-151,19,-194,19v-155,0,-232,-80,-232,-239r0,-214v-1,-141,88,-235,232,-233v59,1,142,13,194,21r-4,34v-86,-14,-149,-21,-190,-21xm5,-427r413,1r0,33r-413,0r0,-34xm5,-279r413,1r0,33r-413,0r0,-34","w":530},"\u2122":{"d":"397,-590r0,-31r200,0r0,31r-83,0r0,258r-33,0r0,-258r-84,0xm632,-331r0,-290r50,0r84,242r87,-242r50,0r0,290r-32,0r0,-258r-88,247r-35,0r-84,-247r0,258r-32,0","w":1326}}});
