/*!
 * The following copyright notice may not be removed under any circumstances.
 * 
 * Copyright:
 * Generated in 2009 by FontLab Studio. Copyright info pending.
 */
Cufon.registerFont({"w":530,"face":{"font-family":"TitilliumText14L","font-weight":300,"font-stretch":"normal","units-per-em":"1000","panose-1":"0 0 0 0 0 0 0 0 0 0","ascent":"750","descent":"-250","x-height":"10","bbox":"-33 -942 930 243","underline-thickness":"50","underline-position":"-50","unicode-range":"U+0020-U+2122"},"glyphs":{" ":{"w":235},"!":{"d":"237,0r0,-101r66,0r0,101r-66,0xm240,-225r-2,-474r64,0r-2,474r-60,0"},"\"":{"d":"251,-486r-57,0r-1,-212r59,0xm103,-486r-57,0r0,-212r58,0","w":299},"#":{"d":"517,-184r-114,0r0,184r-56,0r0,-184r-167,0r0,184r-56,0r0,-184r-114,0r0,-52r114,0r0,-196r-114,0r0,-52r114,0r0,-183r56,0r0,183r167,0r0,-183r56,0r0,183r114,0r0,52r-114,0r0,196r114,0r0,52xm347,-236r0,-196r-167,0r0,196r167,0"},"$":{"d":"493,-180v2,146,-95,195,-248,186r-14,114v-23,-2,-35,-4,-35,-7r14,-109r-144,-13r4,-35v51,7,99,12,144,15r39,-298v-64,-12,-97,-20,-140,-49v-38,-26,-52,-66,-52,-129v-1,-137,94,-168,237,-166r16,-119r35,0r-16,121r141,14r-3,34v-53,-6,-100,-11,-142,-14r-36,277v70,13,101,18,148,48v39,26,51,65,52,130xm279,-27v138,5,198,-83,168,-207v-17,-68,-84,-73,-159,-87r-38,294r29,0xm294,-637v-117,-1,-194,20,-194,130v0,48,11,81,34,99v23,18,65,33,124,44"},"%":{"d":"22,-566v0,-87,29,-136,111,-136v82,0,110,50,110,139v0,92,-37,138,-110,138v-74,0,-111,-47,-111,-141xm302,-141v0,-87,29,-136,111,-136v74,0,111,46,111,137v0,93,-37,140,-111,140v-74,0,-111,-47,-111,-141xm164,-6r169,-700r49,13r-170,700xm133,-658v-52,0,-60,35,-60,92v0,59,8,97,60,97v52,0,60,-37,60,-96v0,-58,-8,-93,-60,-93xm413,-233v-51,0,-60,35,-60,92v0,58,8,97,60,97v52,0,60,-38,60,-96v0,-58,-8,-93,-60,-93"},"&":{"d":"157,-550v0,-94,67,-149,166,-149v107,0,165,52,166,153v0,47,-12,84,-36,111v-24,27,-64,53,-121,77r160,159v13,-44,23,-90,29,-139r59,1v-9,72,-23,131,-42,178r133,129r-38,42r-124,-120v-49,78,-109,121,-225,121v-155,0,-233,-73,-233,-218v0,-125,58,-165,157,-202v-39,-46,-51,-68,-51,-143xm248,-365v-88,28,-136,56,-136,159v0,108,58,162,174,162v93,0,141,-38,178,-104xm217,-545v0,48,15,87,45,117r31,31v51,-20,85,-41,105,-61v20,-20,30,-48,30,-85v0,-67,-35,-100,-105,-100v-71,0,-106,33,-106,98","w":700},"'":{"d":"19,-476r-2,-220r63,0r-5,220r-56,0","w":100},"(":{"d":"140,125v-41,-89,-97,-288,-97,-426v0,-151,54,-339,97,-449r63,0v-38,97,-93,310,-95,449v-2,112,37,275,95,426r-63,0","w":260},")":{"d":"104,-755v41,89,97,288,97,426v0,151,-54,339,-97,449r-63,0v38,-97,93,-310,95,-449v2,-112,-37,-275,-95,-426r63,0","w":260},"*":{"d":"439,-514r-134,0r41,127r-42,13r-42,-128r-108,79r-26,-35r109,-79r-107,-79r26,-36r107,78r42,-126r43,14r-41,128r132,0r0,44"},"+":{"d":"-33,-233r0,-56r221,0r0,-221r58,0r0,221r223,0r0,56r-223,0r0,223r-58,0r0,-223r-221,0","w":440},",":{"d":"34,123r44,-222r66,0r-53,222r-57,0","w":170},"-":{"d":"62,-252r0,-58r315,0r0,58r-315,0","w":440},".":{"d":"85,0r0,-101r66,0r0,101r-66,0","w":248},"\/":{"d":"96,-14r278,-692r57,21r-279,692"},"0":{"d":"136,-640v61,-39,197,-39,258,0v32,21,58,56,76,108v18,52,28,124,28,215v0,121,-19,207,-58,255v-39,48,-97,72,-175,72v-190,2,-235,-132,-235,-328v0,-90,9,-161,28,-214v19,-53,46,-88,78,-108xm264,-612v-92,0,-125,35,-149,114v-23,76,-27,272,1,347v27,73,59,102,149,102v89,0,123,-28,148,-102v13,-40,20,-96,20,-167v0,-113,-13,-190,-39,-232v-26,-42,-69,-62,-130,-62"},"1":{"d":"74,-522r207,-138r59,0r0,660r-61,0r0,-590r-176,117"},"2":{"d":"253,-670v133,1,206,45,207,174v0,47,-11,88,-33,124v-22,36,-55,76,-100,120r-193,193r345,0r0,59r-428,0r0,-57r212,-213v47,-47,81,-87,102,-118v21,-31,31,-66,31,-103v-1,-93,-55,-119,-153,-120v-57,0,-135,13,-182,24r-5,-57v69,-17,135,-26,197,-26"},"3":{"d":"399,-496v-4,-91,-46,-114,-144,-115v-61,0,-139,10,-188,20r-8,-56v69,-15,135,-23,198,-23v140,1,206,39,206,169v0,82,-47,124,-104,149v80,29,122,59,122,166v-1,137,-72,196,-213,196v-71,0,-160,-13,-218,-23r8,-57v71,14,140,21,205,21v103,-1,154,-45,154,-134v0,-85,-49,-132,-146,-132r-134,0r0,-57r133,0v61,0,132,-55,129,-124"},"4":{"d":"354,3r0,-126r-325,0r0,-50r203,-487r68,0r-199,479r253,0r0,-177r61,0r0,177r84,0r0,58r-84,0r0,126r-61,0"},"5":{"d":"265,-50v99,0,158,-64,158,-167v0,-93,-50,-139,-151,-139v-59,0,-123,24,-160,45r-52,-9r19,-340r380,0r0,59r-323,0r-18,230v54,-29,107,-43,159,-43v140,0,210,65,210,195v0,146,-78,227,-220,227v-67,0,-138,-9,-215,-26r8,-56v77,16,145,24,205,24"},"6":{"d":"490,-208v0,141,-78,219,-221,218v-79,0,-137,-28,-174,-84v-37,-56,-55,-143,-55,-260v0,-121,21,-208,64,-259v43,-51,105,-77,187,-77v56,0,112,6,169,19r-6,57v-106,-23,-246,-36,-302,40v-29,40,-47,101,-48,186v63,-28,121,-42,173,-42v142,0,213,67,213,202xm273,-353v-58,0,-129,22,-170,41v1,87,15,154,40,198v25,44,67,66,126,66v105,0,157,-53,157,-160v0,-97,-51,-145,-153,-145"},"7":{"d":"49,-601r0,-59r407,0r0,88r-261,583r-58,-19r255,-570r0,-23r-343,0"},"8":{"d":"144,-346v-70,-33,-112,-63,-112,-156v0,-112,79,-168,236,-168v138,0,240,43,240,169v0,95,-46,124,-122,155v78,33,131,65,132,167v1,146,-101,189,-250,189v-165,0,-247,-59,-247,-178v0,-104,53,-144,123,-178xm209,-316v-73,21,-122,52,-122,139v0,85,60,128,181,128v113,0,184,-27,184,-134v0,-93,-55,-108,-133,-133r-110,0xm442,-495v0,-95,-68,-117,-174,-117v-104,0,-171,21,-171,116v0,78,46,103,112,125r110,0v70,-21,123,-46,123,-124"},"9":{"d":"39,-458v0,-135,89,-213,225,-212v80,0,137,30,172,88v35,58,53,144,53,258v0,122,-21,207,-62,258v-54,68,-150,86,-265,71v-43,-5,-64,-10,-97,-16r7,-56v112,21,249,39,307,-39v29,-39,45,-98,46,-179r-26,8v-33,10,-103,26,-147,26v-136,0,-213,-71,-213,-207xm264,-612v-99,-1,-162,55,-161,154v0,100,51,150,154,150v55,-1,128,-20,169,-35v-4,-107,-13,-183,-66,-235v-24,-23,-57,-34,-96,-34"},":":{"d":"66,-330r0,-102r66,0r0,102r-66,0xm66,0r0,-101r66,0r0,101r-66,0","w":163},";":{"d":"75,-104r-46,225r54,0r59,-225r-67,0xm70,-330r0,-102r66,0r0,102r-66,0","w":188},"<":{"d":"410,-495r-290,182r290,191r0,66v-9,-5,-37,-22,-86,-54r-261,-170r0,-62r347,-217r0,64"},"=":{"d":"36,-340r0,-56r452,0r0,56r-452,0xm37,-159r0,-56r452,0r0,56r-452,0"},">":{"d":"353,-313r-290,-182r0,-64r347,217r0,62r-176,114v-103,68,-160,105,-171,110r0,-66"},"?":{"d":"176,-710v132,1,206,40,206,168v0,135,-113,177,-173,255v-22,28,-21,51,-20,92r-63,0v-1,-46,0,-75,20,-107v41,-65,114,-99,153,-166v13,-22,20,-45,20,-70v0,-152,-190,-113,-303,-86r-7,-59v75,-18,131,-27,167,-27xm125,-1r0,-101r66,0r0,101r-66,0","w":386},"@":{"d":"504,-721v301,-2,426,133,426,433v0,89,-7,167,-30,222v-22,54,-65,78,-141,76v-66,-1,-93,-9,-112,-58v-72,38,-132,57,-181,57v-142,1,-174,-108,-174,-252v0,-170,41,-266,205,-266v39,0,92,14,123,26r0,-17r59,0r0,200v0,83,2,142,7,176v10,61,13,79,73,79v46,0,59,-5,79,-35v32,-48,30,-134,30,-226v0,-258,-103,-359,-364,-359v-276,0,-388,120,-388,404v0,297,100,401,388,406r143,-10r3,57v-286,34,-503,-12,-567,-228v-19,-60,-28,-136,-28,-225v0,-318,140,-458,449,-460xm352,-240v0,107,18,192,116,192v46,0,100,-16,162,-49v-12,-58,-10,-236,-10,-333v-44,-15,-82,-23,-115,-23v-131,2,-153,74,-153,213","w":985},"A":{"d":"31,0r200,-697r145,0r197,696r-62,0r-58,-189r-304,0r-56,190r-62,0xm276,-640r-112,391r275,0r-111,-391r-52,0","w":604},"B":{"d":"569,-196v1,141,-75,196,-213,196r-261,0r0,-697r246,0v136,0,204,57,204,171v0,85,-30,141,-91,167v77,25,115,79,115,163xm354,-57v99,-1,153,-39,152,-141v0,-85,-53,-128,-158,-128r-192,0r0,269r198,0xm482,-520v0,-90,-49,-119,-143,-120r-183,0r0,258r192,0v93,0,134,-46,134,-138","w":621},"C":{"d":"490,-68r3,56v-120,23,-222,37,-315,-1v-68,-28,-99,-99,-114,-181v-14,-77,-14,-229,0,-306v15,-82,47,-153,114,-184v80,-37,229,-20,316,-2r-4,57v-71,-13,-131,-19,-180,-19v-82,0,-131,24,-159,79v-39,76,-39,216,-30,328v7,86,34,154,106,178v74,25,183,5,263,-5","w":536},"D":{"d":"346,0r-251,0r0,-697r251,0v165,0,248,113,248,338v0,239,-83,359,-248,359xm530,-359v0,-187,-61,-280,-184,-280r-190,0r0,581r190,0v115,0,159,-92,176,-191v6,-33,8,-70,8,-110","w":646},"E":{"d":"95,0r0,-697r416,0r0,58r-355,0r0,255r295,0r0,58r-295,0r0,268r355,0r0,58r-416,0","w":567},"F":{"d":"95,0r0,-697r417,0r0,58r-356,0r0,287r296,0r0,58r-296,0r0,294r-61,0","w":557},"G":{"d":"355,-295r0,-57r189,0r0,337v-95,17,-169,25,-223,25v-99,0,-165,-31,-207,-88v-76,-104,-75,-436,-1,-540v41,-58,108,-89,207,-89v70,0,145,9,224,26r-3,56v-83,-15,-155,-23,-216,-23v-81,0,-132,26,-163,72v-54,82,-53,373,0,456v38,60,126,80,228,67r93,-12r0,-230r-128,0","w":611},"H":{"d":"533,0r0,-322r-377,0r0,322r-61,0r0,-697r61,0r0,317r377,0r0,-317r61,0r0,697r-61,0","w":689},"I":{"d":"89,0r0,-697r61,0r0,697r-61,0","w":239},"J":{"d":"217,-698r1,591v-1,87,-11,154,-80,171v-36,9,-57,8,-104,8r0,-57v57,0,97,0,112,-41v9,-25,8,-53,9,-91r0,-581r62,0","w":306},"K":{"d":"479,0r-202,-314r-121,2r0,312r-61,0r0,-697r61,0r0,326r119,-2r193,-324r72,0r-210,349r223,348r-74,0","w":596},"L":{"d":"474,0r-379,0r0,-697r61,0r0,638r318,0r0,59","w":519},"M":{"d":"95,0r0,-697r112,0r218,607r219,-607r111,0r0,697r-61,0r0,-628r-14,0r-220,605r-72,0r-218,-605r-14,0r0,628r-61,0","w":850},"N":{"d":"95,0r0,-697r118,0r297,628r24,0r0,-628r62,0r0,697r-117,0r-300,-628r-23,0r0,628r-61,0","w":690},"O":{"d":"326,-49v83,0,138,-22,166,-67v28,-45,42,-122,42,-229v0,-104,-15,-180,-44,-229v-29,-49,-84,-74,-164,-74v-81,0,-135,24,-164,73v-29,49,-43,125,-43,230v1,97,6,162,39,221v30,54,84,75,168,75xm326,10v-103,0,-173,-29,-212,-86v-39,-57,-59,-146,-59,-269v0,-122,20,-213,59,-273v39,-60,110,-89,212,-89v102,0,172,30,212,89v40,59,60,150,60,273v0,125,-19,215,-58,271v-39,56,-111,84,-214,84","w":653},"P":{"d":"348,-697v149,1,215,69,216,218v0,158,-72,237,-216,237r-192,0r0,242r-61,0r0,-697r253,0xm501,-479v-1,-110,-44,-159,-153,-160r-192,0r0,338r192,0v102,0,153,-59,153,-178","w":609},"Q":{"d":"598,-345v0,161,-21,266,-117,322r85,138r-58,28r-88,-144v-28,7,-59,11,-94,11v-103,0,-173,-29,-212,-86v-39,-57,-59,-146,-59,-269v0,-122,20,-213,59,-273v39,-60,110,-89,212,-89v102,0,172,30,212,89v40,59,60,150,60,273xm326,-49v83,0,138,-22,166,-67v28,-45,42,-122,42,-229v0,-104,-15,-180,-44,-229v-29,-49,-84,-74,-164,-74v-81,0,-135,24,-164,73v-29,49,-43,125,-43,230v1,97,6,162,39,221v30,54,84,75,168,75","w":653},"R":{"d":"349,-697v146,1,216,61,216,207v0,112,-45,180,-134,203r143,287r-69,0r-137,-273r-212,0r0,273r-61,0r0,-697r254,0xm349,-331v109,1,152,-54,152,-159v0,-104,-48,-149,-152,-149r-193,0r0,308r193,0","w":626},"S":{"d":"267,-51v102,-1,152,-44,152,-148v0,-41,-13,-69,-33,-87v-30,-27,-166,-50,-216,-68v-43,-16,-91,-43,-106,-88v-8,-22,-12,-51,-12,-85v0,-121,73,-182,219,-182v60,0,145,10,196,19r-5,57v-89,-11,-152,-16,-191,-16v-126,-3,-176,65,-149,171v11,47,56,64,100,77v15,4,36,9,65,15v71,16,122,36,151,60v29,24,44,66,44,124v0,148,-69,209,-214,210v-51,0,-122,-6,-213,-19r6,-57v90,11,159,17,206,17","w":534},"T":{"d":"-3,-639r0,-58r500,0r0,58r-218,0r0,639r-61,0r0,-639r-221,0","w":495},"U":{"d":"317,9v-153,0,-235,-61,-235,-213r0,-493r62,0r0,493v0,103,58,154,173,154v115,0,180,-40,180,-154r0,-493r61,0r0,493v0,155,-85,213,-241,213","w":641},"V":{"d":"493,-697r63,0r-185,697r-151,0r-189,-697r63,0r174,639r55,0","w":587},"W":{"d":"40,-697r62,0r133,636r33,0r142,-629r69,0r146,629r32,0r130,-636r62,0r-146,697r-123,0r-136,-604r-131,604r-123,0","w":889},"X":{"d":"104,-697r187,304r186,-304r70,0r-213,351r213,346r-70,0r-185,-301r-188,301r-70,0r216,-346r-216,-351r70,0","w":581},"Y":{"d":"306,-299r0,299r-62,0r0,-299r-223,-398r69,0r185,329r182,-329r69,0","w":548},"Z":{"d":"60,-639r0,-58r450,0r0,85r-378,534r0,20r378,0r0,59r-450,0r0,-85r378,-533r0,-22r-378,0","w":570},"[":{"d":"243,-749r0,57r-139,0r0,758r139,0r0,57r-199,0r-1,-872r200,0","w":300},"\\":{"d":"597,-10r-63,10r-303,-691r64,-10","w":833},"]":{"d":"21,-692r0,-57r200,0r-1,872r-199,0r0,-57r139,0r0,-758r-139,0","w":300},"^":{"d":"379,-439r-110,-215r-113,215r-140,0r181,-347r140,0r182,347r-140,0","w":757},"_":{"d":"27,22r428,0r0,56r-428,0r0,-56","w":520},"`":{"d":"158,-742r208,95r-23,50r-209,-91","w":545},"a":{"d":"274,-509v106,0,153,52,153,160r0,261v3,25,24,40,65,45r-3,52v-53,0,-90,-13,-113,-38v-60,26,-124,39,-192,39v-88,0,-134,-59,-133,-151v1,-99,52,-137,147,-146r170,-17r0,-45v0,-69,-32,-103,-96,-103v-56,0,-139,9,-190,16r-4,-54v79,-13,144,-19,196,-19xm113,-142v-1,59,24,99,78,99v60,0,133,-17,177,-34r0,-177r-163,15v-61,5,-92,38,-92,97","w":520},"b":{"d":"486,-259v0,194,-44,266,-233,269v-42,0,-96,-3,-161,-10r0,-722r60,0r0,248v52,-23,104,-35,156,-35v151,0,178,85,178,250xm424,-258v0,-125,-10,-196,-120,-196v-50,0,-101,11,-152,32r0,372v47,4,80,6,100,6v149,-2,172,-61,172,-214","w":540},"c":{"d":"54,-259v0,-173,44,-250,206,-250v38,0,95,7,130,12r-2,53v-53,-6,-93,-9,-118,-9v-130,3,-155,57,-155,194v0,150,15,209,155,213r119,-9r3,53v-60,8,-104,12,-133,12v-176,-4,-205,-81,-205,-269","w":437},"d":{"d":"54,-246v0,-170,46,-261,209,-263v33,0,75,4,126,12r0,-203r60,0r0,700r-60,0r0,-36v-53,31,-106,46,-160,46v-144,2,-175,-111,-175,-256xm114,-244v0,111,18,199,121,199v55,0,117,-25,154,-43r0,-356v-73,-7,-115,-11,-124,-11v-125,2,-151,77,-151,211","w":541},"e":{"d":"115,-225v1,115,30,178,139,180v40,0,117,-5,154,-7r29,-2r2,50v-75,9,-139,14,-191,14v-155,0,-194,-94,-194,-258v0,-174,69,-261,206,-261v159,0,208,113,195,284r-340,0xm397,-275v-1,-119,-29,-181,-137,-181v-97,0,-145,60,-145,181r282,0","w":507},"f":{"d":"236,-678v-75,3,-79,41,-81,128r0,50r152,0r0,55r-152,0r0,445r-59,0r0,-445r-66,0r0,-55r66,0r0,-51v2,-127,18,-177,131,-181r98,6r-1,50v-39,-1,-69,-2,-88,-2","w":332},"g":{"d":"478,79v0,122,-86,160,-219,160v-147,0,-209,-22,-209,-156v0,-73,32,-86,81,-126v-17,-11,-25,-33,-25,-68v0,-11,11,-37,32,-78v-54,-23,-81,-73,-81,-151v0,-113,60,-170,180,-170v35,0,70,4,105,13r144,-3r0,53r-97,0v23,23,34,58,34,107v-1,128,-59,165,-189,167v-19,0,-36,-1,-51,-4v-13,33,-20,53,-20,62v0,22,6,36,19,41v13,5,49,8,108,8v134,0,188,17,188,145xm416,81v0,-89,-35,-91,-130,-94r-113,-4v-40,31,-63,40,-63,96v0,94,43,106,150,106v96,0,156,-19,156,-104xm117,-340v0,84,31,115,117,115v90,0,128,-26,128,-115v0,-96,-29,-117,-126,-117v-85,0,-119,31,-119,117","w":512},"h":{"d":"152,0r-60,0r0,-737r60,0r0,263v57,-23,111,-35,162,-35v67,0,112,18,134,53v50,81,29,312,33,456r-60,0r0,-259v0,-76,-7,-128,-21,-155v-14,-27,-46,-40,-93,-40v-50,0,-102,11,-155,33r0,421","w":565},"i":{"d":"84,0r0,-500r60,0r0,500r-60,0xm84,-625r0,-75r60,0r0,75r-60,0","w":228},"j":{"d":"98,-6r0,-494r60,0r0,495v0,59,-10,104,-32,135v-22,31,-66,63,-132,96r-25,-51v54,-31,89,-57,105,-79v16,-22,24,-56,24,-102xm98,-627r0,-75r60,0r0,75r-60,0","w":242},"k":{"d":"152,0r-60,0r0,-722r60,0r0,426r83,-3r162,-201r68,0r-176,229r178,271r-69,0r-162,-240r-84,3r0,237","w":492},"l":{"d":"88,0r0,-722r60,0r0,722r-60,0","w":236},"m":{"d":"152,0r-60,0r0,-500r60,0r0,36v58,-35,119,-50,196,-42v38,4,66,19,84,43v82,-31,143,-46,184,-46v67,0,112,18,134,53v50,80,29,313,33,456r-60,0v-3,-125,11,-334,-21,-412v-19,-46,-103,-50,-164,-32v-36,11,-60,20,-81,31v24,88,11,290,14,413r-59,0r0,-258v0,-78,-8,-130,-22,-156v-14,-26,-45,-40,-93,-40v-49,0,-97,14,-145,42r0,412","w":868},"n":{"d":"152,0r-60,0r0,-500r60,0r0,36v57,-30,111,-45,162,-45v67,0,112,18,134,53v50,81,29,312,33,456r-59,0r0,-259v0,-76,-8,-128,-22,-155v-14,-27,-45,-40,-93,-40v-49,0,-101,14,-155,42r0,412","w":570},"o":{"d":"54,-258v0,-171,47,-251,211,-251v156,0,208,87,208,252v0,180,-35,267,-208,267v-177,0,-211,-82,-211,-268xm265,-455v-128,0,-150,59,-150,197v0,81,10,137,29,168v19,31,60,46,121,46v61,0,101,-16,119,-48v18,-32,27,-87,27,-165v-1,-128,-30,-198,-146,-198","w":527},"p":{"d":"488,-256v0,180,-47,263,-216,266v-43,0,-83,-4,-120,-13r0,228r-60,0r0,-725r60,0r0,38v52,-31,105,-47,158,-47v142,0,178,95,178,253xm269,-44v130,-3,157,-72,157,-214v0,-70,-10,-120,-31,-151v-32,-50,-96,-56,-161,-35v-37,11,-55,20,-82,34r0,354v45,8,84,12,117,12","w":541},"q":{"d":"54,-240v0,-181,50,-267,228,-269r163,9r0,725r-60,0r0,-247v-41,21,-87,32,-139,32v-149,-1,-192,-93,-192,-250xm115,-242v0,119,22,198,131,198v49,0,96,-12,139,-35r0,-371v-47,-3,-81,-5,-103,-5v-138,2,-167,70,-167,213","w":537},"r":{"d":"92,0r0,-500r60,0r0,71v37,-30,120,-70,183,-81r0,61v-63,12,-140,46,-183,76r0,373r-60,0","w":355},"s":{"d":"57,-368v-2,-128,124,-153,255,-136r99,12r-2,53v-72,-11,-130,-16,-173,-16v-79,0,-118,28,-118,85v0,26,9,45,26,56v17,11,51,20,104,28v69,11,116,26,142,44v26,18,38,51,38,97v0,143,-119,166,-264,151r-102,-14r4,-53v75,11,130,17,164,17v87,-2,136,-16,137,-98v0,-29,-9,-49,-27,-60v-18,-11,-54,-20,-110,-29v-65,-10,-110,-24,-135,-42v-25,-18,-38,-50,-38,-95","w":486},"t":{"d":"238,11v-115,-4,-134,-53,-134,-181r0,-275r-74,0r0,-55r74,0r0,-157r60,0r0,157r167,0r0,55r-167,0r0,243v0,65,5,107,14,127v18,45,104,26,158,23r3,53v-44,7,-78,10,-101,10","w":366},"u":{"d":"406,-500r59,0r0,500r-59,0r0,-35v-52,30,-103,45,-154,45v-68,0,-112,-17,-134,-52v-49,-80,-29,-315,-33,-458r59,0r0,259v0,78,9,130,22,157v21,43,104,48,163,30v36,-12,52,-19,77,-32r0,-414","w":558},"v":{"d":"28,-500r63,0r130,448r39,0r131,-448r62,0r-148,500r-131,0","w":481},"w":{"d":"31,-500r61,0r111,446r14,0r130,-436r64,0r129,436r15,0r111,-446r61,0r-126,500r-105,0r-118,-412r-118,412r-104,0","w":758},"x":{"d":"31,-500r66,0r132,206r133,-206r66,0r-161,250r161,250r-67,0r-132,-205r-132,205r-66,0r161,-250","w":459},"y":{"d":"28,-500r61,0r133,443r36,0r134,-443r61,0r-216,725r-60,0r66,-225r-68,0","w":481},"z":{"d":"54,-446r0,-54r371,0r0,54r-298,392r298,0r0,54r-371,0r0,-54r299,-392r-299,0","w":480},"{":{"d":"70,-312v70,24,105,53,100,142r-7,117v2,89,34,117,125,123r-2,57v-127,-6,-184,-49,-186,-176r7,-123v-2,-72,-36,-93,-101,-113r0,-52v66,-17,105,-40,101,-112r-7,-128v2,-128,58,-170,186,-176r2,57v-92,6,-130,32,-125,122r7,121v-1,91,-29,116,-100,141","w":298},"|":{"d":"229,102r0,-814r61,0r0,814r-61,0"},"}":{"d":"220,-311v-70,-24,-105,-53,-100,-142r7,-117v-2,-89,-34,-117,-125,-123r2,-57v127,6,184,49,186,176r-7,123v2,72,36,93,101,113r0,52v-66,17,-105,40,-101,112r7,128v-2,128,-58,170,-186,176r-2,-57v92,-6,130,-32,125,-122r-7,-121v1,-91,29,-116,100,-141","w":298},"\u00a0":{"w":235},"\u00a2":{"d":"111,-248v0,118,28,157,145,151r127,-7r2,55v-43,5,-79,9,-107,10r0,122r-54,0r0,-121v-134,-8,-176,-62,-177,-210v-1,-137,53,-208,176,-215r0,-123r54,0r0,125r107,10r-3,55v-63,-5,-108,-8,-133,-8v-107,2,-137,45,-137,156","w":437},"\u00a3":{"d":"196,-477v2,-141,20,-203,142,-203v25,0,68,5,127,15r0,58v-51,-9,-88,-14,-110,-14v-61,1,-81,20,-91,73v-5,27,-7,71,-8,132r167,0r0,55r-167,0r0,305r159,0r78,-16r11,54r-81,17r-309,1r0,-56r82,0r0,-305r-59,0r0,-55r59,0r0,-61","w":570},"\u00a5":{"d":"47,-321r0,-53r151,0r-181,-286r69,0r185,285r182,-285r70,0r-179,286r148,0r0,53r-180,0r-10,20r0,75r191,0r0,54r-191,0r0,172r-62,0r0,-172r-192,0r0,-54r192,0r0,-75r-9,-20r-184,0","w":540},"\u00a6":{"d":"227,-750r60,0r0,373r-60,0r0,-373xm227,-269r60,0r0,372r-60,0r0,-372"},"\u00a7":{"d":"90,-475v0,-106,66,-142,175,-143v42,0,94,4,156,13r-2,32v-71,-9,-122,-13,-154,-13v-93,0,-140,36,-140,109v1,47,8,74,38,92v36,20,57,23,110,32v59,10,101,23,127,41v26,18,39,52,39,99v0,42,-13,84,-39,127v24,19,36,50,36,93v0,105,-58,158,-173,158v-50,0,-122,-8,-168,-13r3,-32v73,9,128,14,165,14v92,0,138,-42,138,-126v0,-38,-11,-63,-31,-76v-48,-31,-192,-30,-242,-68v-33,-25,-46,-58,-46,-115v0,-37,17,-74,52,-110v-29,-22,-44,-60,-44,-114xm374,-102v29,-40,50,-157,-2,-186v-31,-28,-179,-40,-213,-59v-18,19,-42,60,-42,94v0,44,13,72,33,89v32,28,186,39,224,62"},"\u00a8":{"d":"93,-624r0,-83r61,0r0,83r-61,0xm274,-624r0,-83r61,0r0,83r-61,0","w":833},"\u00a9":{"d":"265,-169v-143,0,-255,-122,-255,-265v0,-143,112,-266,255,-266v143,0,256,123,256,266v0,143,-113,265,-256,265xm265,-668v-126,0,-223,108,-223,234v0,127,97,233,223,233v126,0,224,-107,224,-233v0,-126,-98,-234,-224,-234xm265,-555v-74,2,-77,42,-77,122v0,74,9,127,77,120r73,-8r1,32v-29,5,-53,8,-74,8v-89,-1,-109,-59,-109,-152v0,-95,18,-153,109,-154v25,0,50,2,74,7r-1,32v-27,-5,-52,-7,-73,-7"},"\u00aa":{"d":"263,-659v59,1,83,27,83,88r0,134v4,13,16,21,37,23r-2,28v-21,-1,-39,-8,-54,-22v-42,15,-82,22,-119,22v-43,0,-70,-35,-70,-80v0,-47,25,-72,75,-76r102,-7v2,-49,-3,-81,-52,-78r-104,7r-2,-31v46,-5,81,-8,106,-8xm315,-520r-97,6v-33,3,-45,15,-47,50v-4,70,84,42,128,34r16,-5r0,-85","w":518},"\u00ab":{"d":"387,-380r-135,106r135,117r0,41v-89,-75,-144,-121,-167,-138r0,-36r167,-129r0,39xm594,-380r-135,106r135,117r0,41v-89,-75,-144,-121,-167,-138r0,-36r167,-129r0,39","w":833},"\u00ad":{"d":"62,-252r0,-58r315,0r0,58r-315,0","w":440},"\u00ae":{"d":"265,-169v-143,0,-255,-122,-255,-265v0,-143,112,-266,255,-266v143,0,256,123,256,266v0,143,-113,265,-256,265xm265,-668v-126,0,-223,108,-223,234v0,127,97,233,223,233v126,0,224,-107,224,-233v0,-126,-98,-234,-224,-234xm254,-591v80,1,115,16,115,90v0,51,-20,81,-59,91r65,134r-35,0r-66,-131r-79,0r0,131r-32,0r0,-315r91,0xm337,-501v3,-70,-75,-56,-142,-58r0,120r80,0v46,-1,60,-15,62,-62"},"\u00b0":{"d":"244,-425v-81,0,-140,-58,-140,-139v0,-81,59,-139,140,-139v81,0,139,58,139,139v0,81,-58,139,-139,139xm244,-661v-57,0,-95,40,-95,97v0,58,38,96,95,96v57,0,97,-39,97,-96v0,-58,-39,-97,-97,-97"},"\u00b1":{"d":"45,-322r0,-56r192,0r0,-133r58,0r0,133r197,0r0,56r-197,0r0,135r-58,0r0,-135r-192,0xm46,-123r446,0r0,56r-446,0r0,-56"},"\u00b4":{"d":"132,-647r208,-95r24,54r-209,91","w":833},"\u00b5":{"d":"81,243r0,-743r60,0r0,266v0,75,8,126,21,152v21,42,105,46,163,28v36,-12,52,-19,77,-32r0,-414r60,0r0,500r-60,0r0,-35v-52,30,-103,45,-154,45v-51,0,-87,-13,-107,-39r0,272r-60,0"},"\u00b6":{"d":"79,-518v0,-105,82,-182,186,-182r361,0r0,58r-88,0r0,642r-60,0r0,-642r-145,0r0,642r-61,0r0,-339v-110,4,-193,-73,-193,-179","w":757},"\u00b8":{"d":"425,47v43,2,53,15,53,60v0,49,-12,63,-61,64v-8,0,-18,-1,-31,-4r2,-26v6,1,15,2,28,2v28,-1,28,-8,28,-36v0,-28,0,-31,-28,-32r-24,0r0,-76r33,0r0,48","w":833},"\u00ba":{"d":"259,-659v83,1,113,47,113,135v0,92,-38,138,-113,138v-77,0,-115,-46,-115,-138v0,-90,38,-135,115,-135xm178,-524v0,70,17,106,81,106v64,0,79,-36,79,-106v0,-70,-15,-103,-79,-103v-63,0,-81,34,-81,103","w":526},"\u00bb":{"d":"582,-274r-135,-106r0,-39r167,129r0,36v-23,17,-78,63,-167,138r0,-41xm375,-274r-135,-106r0,-39r167,129r0,36v-23,17,-78,63,-167,138r0,-41","w":833},"\u00c0":{"d":"32,0r200,-697r145,0r197,696r-62,0r-58,-189r-304,0r-56,190r-62,0xm277,-640r-112,391r275,0r-111,-391r-52,0xm197,-942r208,95r-23,50r-209,-91","w":604},"\u00c1":{"d":"32,0r200,-697r145,0r197,696r-62,0r-58,-189r-304,0r-56,190r-62,0xm277,-640r-112,391r275,0r-111,-391r-52,0xm191,-847r208,-95r24,54r-209,91","w":604},"\u00c2":{"d":"32,0r200,-697r145,0r197,696r-62,0r-58,-189r-304,0r-56,190r-62,0xm277,-640r-112,391r275,0r-111,-391r-52,0xm154,-792r124,-145r48,0r124,145r-64,0r-83,-93r-84,93r-65,0","w":604},"\u00c3":{"d":"32,0r200,-697r145,0r197,696r-62,0r-58,-189r-304,0r-56,190r-62,0xm277,-640r-112,391r275,0r-111,-391r-52,0xm372,-830v-38,0,-98,-54,-129,-54v-17,0,-40,14,-69,41r-25,-18v64,-59,98,-71,167,-27v60,39,60,34,117,-14r22,17v-34,37,-62,55,-83,55","w":604},"\u00c4":{"d":"32,0r200,-697r145,0r197,696r-62,0r-58,-189r-304,0r-56,190r-62,0xm277,-640r-112,391r275,0r-111,-391r-52,0xm181,-824r0,-83r61,0r0,83r-61,0xm362,-824r0,-83r61,0r0,83r-61,0","w":604},"\u00c5":{"d":"32,0r200,-697r145,0r197,696r-62,0r-58,-189r-304,0r-56,190r-62,0xm277,-640r-112,391r275,0r-111,-391r-52,0xm303,-754v-53,0,-94,-41,-94,-94v0,-52,42,-94,94,-94v52,0,94,42,94,94v0,52,-42,94,-94,94xm304,-909v-34,0,-61,27,-61,61v0,34,27,62,61,62v33,0,60,-29,60,-62v0,-33,-27,-61,-60,-61","w":604},"\u00c6":{"d":"429,0r0,-190r-261,0r-65,190r-65,0r234,-697r573,0r0,58r-355,0r0,252r295,0r0,58r-295,0r0,271r355,0r0,58r-416,0xm316,-633r-130,384r243,0r0,-384r-113,0","w":898},"\u00c7":{"d":"490,-68r3,56v-120,23,-222,37,-315,-1v-68,-28,-99,-99,-114,-181v-14,-77,-14,-229,0,-306v15,-82,47,-153,114,-184v80,-37,229,-20,316,-2r-4,57v-71,-13,-131,-19,-180,-19v-82,0,-131,24,-159,79v-39,76,-39,216,-30,328v7,86,34,154,106,178v74,25,183,5,263,-5xm288,47v43,2,53,15,53,60v0,49,-12,63,-61,64v-8,0,-18,-1,-31,-4r2,-26v6,1,15,2,28,2v28,-1,28,-8,28,-36v0,-28,0,-31,-28,-32r-24,0r0,-76r33,0r0,48","w":537},"\u00c8":{"d":"103,0r0,-700r409,0r0,34r-373,0r0,289r313,0r0,34r-313,0r0,309r373,0r0,34r-409,0xm217,-932r192,96r-15,27r-193,-92","w":572},"\u00c9":{"d":"96,0r0,-697r416,0r0,58r-355,0r0,255r295,0r0,58r-295,0r0,268r355,0r0,58r-416,0xm206,-847r208,-95r24,54r-209,91","w":572},"\u00ca":{"d":"96,0r0,-697r416,0r0,58r-355,0r0,255r295,0r0,58r-295,0r0,268r355,0r0,58r-416,0xm160,-792r124,-145r48,0r124,145r-64,0r-83,-93r-84,93r-65,0","w":572},"\u00cb":{"d":"96,0r0,-697r416,0r0,58r-355,0r0,255r295,0r0,58r-295,0r0,268r355,0r0,58r-416,0xm187,-824r0,-83r61,0r0,83r-61,0xm368,-824r0,-83r61,0r0,83r-61,0","w":572},"\u00cc":{"d":"89,0r0,-697r61,0r0,697r-61,0xm17,-942r208,95r-23,50r-209,-91","w":226},"\u00cd":{"d":"89,0r0,-697r61,0r0,697r-61,0xm-9,-847r208,-95r24,54r-209,91","w":226},"\u00ce":{"d":"91,0r0,-697r61,0r0,697r-61,0xm-33,-792r124,-145r48,0r124,145r-64,0r-83,-93r-84,93r-65,0","w":231},"\u00cf":{"d":"89,0r0,-697r61,0r0,697r-61,0xm-8,-824r0,-83r61,0r0,83r-61,0xm173,-824r0,-83r61,0r0,83r-61,0","w":226},"\u00d0":{"d":"23,-313r0,-58r290,0r0,58r-290,0xm346,0r-251,0r0,-697r251,0v165,0,248,113,248,338v0,239,-83,359,-248,359xm530,-359v0,-187,-61,-280,-184,-280r-190,0r0,581r190,0v115,0,159,-92,176,-191v6,-33,8,-70,8,-110","w":646},"\u00d1":{"d":"92,0r0,-697r118,0r297,628r24,0r0,-628r62,0r0,697r-117,0r-300,-628r-23,0r0,628r-61,0xm412,-830v-38,0,-98,-54,-129,-54v-17,0,-40,14,-69,41r-25,-18v64,-59,98,-71,167,-27v60,39,60,34,117,-14r22,17v-34,37,-62,55,-83,55","w":687},"\u00d2":{"d":"327,-49v83,0,138,-22,166,-67v28,-45,42,-122,42,-229v0,-104,-15,-180,-44,-229v-29,-49,-84,-74,-164,-74v-81,0,-135,24,-164,73v-29,49,-43,125,-43,230v1,97,6,162,39,221v30,54,84,75,168,75xm327,10v-103,0,-174,-29,-213,-86v-39,-57,-58,-146,-58,-269v0,-122,20,-213,59,-273v39,-60,110,-89,212,-89v102,0,173,30,213,89v40,59,59,150,59,273v0,125,-20,215,-59,271v-39,56,-110,84,-213,84xm232,-942r208,95r-23,50r-209,-91","w":656},"\u00d3":{"d":"327,-49v83,0,138,-22,166,-67v28,-45,42,-122,42,-229v0,-104,-15,-180,-44,-229v-29,-49,-84,-74,-164,-74v-81,0,-135,24,-164,73v-29,49,-43,125,-43,230v1,97,6,162,39,221v30,54,84,75,168,75xm327,10v-103,0,-174,-29,-213,-86v-39,-57,-58,-146,-58,-269v0,-122,20,-213,59,-273v39,-60,110,-89,212,-89v102,0,173,30,213,89v40,59,59,150,59,273v0,125,-20,215,-59,271v-39,56,-110,84,-213,84xm206,-847r208,-95r24,54r-209,91","w":656},"\u00d4":{"d":"327,-49v83,0,138,-22,166,-67v28,-45,42,-122,42,-229v0,-104,-15,-180,-44,-229v-29,-49,-84,-74,-164,-74v-81,0,-135,24,-164,73v-29,49,-43,125,-43,230v1,97,6,162,39,221v30,54,84,75,168,75xm327,10v-103,0,-174,-29,-213,-86v-39,-57,-58,-146,-58,-269v0,-122,20,-213,59,-273v39,-60,110,-89,212,-89v102,0,173,30,213,89v40,59,59,150,59,273v0,125,-20,215,-59,271v-39,56,-110,84,-213,84xm180,-792r124,-145r48,0r124,145r-64,0r-83,-93r-84,93r-65,0","w":656},"\u00d5":{"d":"327,-49v83,0,138,-22,166,-67v28,-45,42,-122,42,-229v0,-104,-15,-180,-44,-229v-29,-49,-84,-74,-164,-74v-81,0,-135,24,-164,73v-29,49,-43,125,-43,230v1,97,6,162,39,221v30,54,84,75,168,75xm327,10v-103,0,-174,-29,-213,-86v-39,-57,-58,-146,-58,-269v0,-122,20,-213,59,-273v39,-60,110,-89,212,-89v102,0,173,30,213,89v40,59,59,150,59,273v0,125,-20,215,-59,271v-39,56,-110,84,-213,84xm398,-830v-38,0,-98,-54,-129,-54v-17,0,-40,14,-69,41r-25,-18v64,-59,98,-71,167,-27v60,39,60,34,117,-14r22,17v-34,37,-62,55,-83,55","w":656},"\u00d6":{"d":"327,-49v83,0,138,-22,166,-67v28,-45,42,-122,42,-229v0,-104,-15,-180,-44,-229v-29,-49,-84,-74,-164,-74v-81,0,-135,24,-164,73v-29,49,-43,125,-43,230v1,97,6,162,39,221v30,54,84,75,168,75xm327,10v-103,0,-174,-29,-213,-86v-39,-57,-58,-146,-58,-269v0,-122,20,-213,59,-273v39,-60,110,-89,212,-89v102,0,173,30,213,89v40,59,59,150,59,273v0,125,-20,215,-59,271v-39,56,-110,84,-213,84xm207,-824r0,-83r61,0r0,83r-61,0xm388,-824r0,-83r61,0r0,83r-61,0","w":656},"\u00d7":{"d":"231,-501r190,199r191,-199r42,40r-193,199r195,202r-42,39r-193,-200r-193,200r-41,-39r194,-202r-192,-199","w":757},"\u00d8":{"d":"152,-38v-76,-60,-94,-163,-95,-307v0,-122,20,-213,59,-273v39,-60,110,-89,212,-89v49,0,91,8,127,23r53,-113r56,22r-58,121v63,52,94,155,94,309v0,125,-19,215,-58,271v-39,56,-111,84,-214,84v-48,0,-89,-7,-123,-20r-59,126r-55,-24xm121,-345v0,112,9,189,63,240r244,-523v-24,-12,-77,-21,-112,-19v-75,4,-127,28,-154,77v-27,49,-41,124,-41,225xm328,-49v83,0,138,-22,166,-67v28,-45,42,-122,42,-229v0,-119,-20,-199,-60,-242r-246,522v25,11,58,16,98,16","w":656},"\u00d9":{"d":"318,9v-153,0,-235,-61,-235,-213r0,-493r62,0r0,493v0,103,58,154,173,154v115,0,180,-40,180,-154r0,-493r61,0r0,493v0,155,-85,213,-241,213xm226,-942r208,95r-23,50r-209,-91","w":642},"\u00da":{"d":"318,9v-153,0,-235,-61,-235,-213r0,-493r62,0r0,493v0,103,58,154,173,154v115,0,180,-40,180,-154r0,-493r61,0r0,493v0,155,-85,213,-241,213xm200,-847r208,-95r24,54r-209,91","w":642},"\u00db":{"d":"318,9v-153,0,-235,-61,-235,-213r0,-493r62,0r0,493v0,103,58,154,173,154v115,0,180,-40,180,-154r0,-493r61,0r0,493v0,155,-85,213,-241,213xm174,-792r124,-145r48,0r124,145r-64,0r-83,-93r-84,93r-65,0","w":642},"\u00dc":{"d":"318,9v-153,0,-235,-61,-235,-213r0,-493r62,0r0,493v0,103,58,154,173,154v115,0,180,-40,180,-154r0,-493r61,0r0,493v0,155,-85,213,-241,213xm202,-824r0,-83r61,0r0,83r-61,0xm383,-824r0,-83r61,0r0,83r-61,0","w":642},"\u00dd":{"d":"302,-299r0,299r-62,0r0,-299r-223,-398r69,0r185,329r182,-329r69,0xm144,-847r208,-95r24,54r-209,91","w":540},"\u00de":{"d":"489,-363v-1,-110,-44,-159,-153,-160r-192,0r0,338r192,0v102,0,153,-59,153,-178xm553,-363v0,149,-69,237,-217,237r-192,0r0,126r-61,0r0,-697r61,0r0,116r192,0v150,1,216,68,217,218","w":594},"\u00df":{"d":"366,-676v-110,0,-117,36,-117,157r0,519r-36,0r0,-532v3,-134,24,-178,153,-178v123,0,185,26,190,135v5,90,-64,96,-122,125v-13,8,-14,27,0,38v40,30,163,85,200,134v5,7,7,16,7,27v1,130,-22,213,-116,245v-48,17,-134,16,-200,11r4,-34v81,7,127,6,182,-9v51,-14,78,-61,87,-113v4,-24,5,-57,5,-100v0,-8,-10,-18,-27,-31v-22,-17,-156,-92,-176,-110v-19,-17,-20,-63,0,-79v26,-21,94,-34,111,-58v5,-7,7,-23,7,-46v-3,-87,-54,-101,-152,-101","w":833},"\u00e0":{"d":"269,-509v106,0,153,52,153,160r0,261v3,25,24,40,65,45r-3,52v-53,0,-90,-13,-113,-38v-60,26,-124,39,-192,39v-88,0,-134,-59,-133,-151v1,-99,52,-137,147,-146r170,-17r0,-45v0,-69,-32,-103,-96,-103v-57,0,-140,9,-190,16r-4,-54v79,-13,144,-19,196,-19xm108,-142v-1,59,24,99,78,99v60,0,134,-17,177,-34r0,-177r-163,15v-61,5,-92,38,-92,97xm147,-742r208,95r-23,50r-209,-91","w":536},"\u00e1":{"d":"46,-141v-1,92,45,151,133,151v68,0,145,-20,192,-39v23,25,60,38,113,38r3,-52v-41,-5,-65,-20,-65,-45r0,-261v0,-108,-47,-159,-153,-160v-60,0,-145,10,-196,19r4,54v78,-11,141,-16,190,-16v64,0,96,34,96,103r0,45r-170,17v-96,9,-146,47,-147,146xm186,-43v-54,-1,-79,-41,-78,-99v0,-59,31,-92,92,-97r163,-15r0,177v-61,23,-120,34,-177,34xm181,-647r208,-95r24,54r-209,91","w":536},"\u00e2":{"d":"46,-141v-1,92,45,151,133,151v68,0,145,-20,192,-39v23,25,60,38,113,38r3,-52v-41,-5,-65,-20,-65,-45r0,-261v0,-108,-47,-159,-153,-160v-60,0,-145,10,-196,19r4,54v78,-11,141,-16,190,-16v64,0,96,34,96,103r0,45r-170,17v-96,9,-146,47,-147,146xm186,-43v-54,-1,-79,-41,-78,-99v0,-59,31,-92,92,-97r163,-15r0,177v-61,23,-120,34,-177,34xm97,-592r124,-145r48,0r124,145r-64,0r-83,-93r-84,93r-65,0","w":536},"\u00e3":{"d":"46,-141v-1,92,45,151,133,151v68,0,145,-20,192,-39v23,25,60,38,113,38r3,-52v-41,-5,-65,-20,-65,-45r0,-261v0,-108,-47,-159,-153,-160v-60,0,-145,10,-196,19r4,54v78,-11,141,-16,190,-16v64,0,96,34,96,103r0,45r-170,17v-96,9,-146,47,-147,146xm186,-43v-54,-1,-79,-41,-78,-99v0,-59,31,-92,92,-97r163,-15r0,177v-61,23,-120,34,-177,34xm315,-630v-38,0,-98,-54,-129,-54v-17,0,-40,14,-69,41r-25,-18v64,-59,97,-72,166,-27v60,39,63,35,118,-14r22,17v-34,37,-62,55,-83,55","w":536},"\u00e4":{"d":"46,-141v-1,92,45,151,133,151v68,0,145,-20,192,-39v23,25,60,38,113,38r3,-52v-41,-5,-65,-20,-65,-45r0,-261v0,-108,-47,-159,-153,-160v-60,0,-145,10,-196,19r4,54v78,-11,141,-16,190,-16v64,0,96,34,96,103r0,45r-170,17v-96,9,-146,47,-147,146xm186,-43v-54,-1,-79,-41,-78,-99v0,-59,31,-92,92,-97r163,-15r0,177v-61,23,-120,34,-177,34xm122,-624r0,-83r61,0r0,83r-61,0xm303,-624r0,-83r61,0r0,83r-61,0","w":536},"\u00e5":{"d":"46,-141v-1,92,45,151,133,151v68,0,145,-20,192,-39v23,25,60,38,113,38r3,-52v-41,-5,-65,-20,-65,-45r0,-261v0,-108,-47,-159,-153,-160v-60,0,-145,10,-196,19r4,54v78,-11,141,-16,190,-16v64,0,96,34,96,103r0,45r-170,17v-96,9,-146,47,-147,146xm186,-43v-54,-1,-79,-41,-78,-99v0,-59,31,-92,92,-97r163,-15r0,177v-61,23,-120,34,-177,34xm245,-554v-53,0,-94,-41,-94,-94v0,-52,42,-94,94,-94v52,0,94,42,94,94v0,52,-42,94,-94,94xm246,-709v-34,0,-61,27,-61,61v0,34,27,62,61,62v33,0,60,-29,60,-62v0,-33,-27,-61,-60,-61","w":536},"\u00e6":{"d":"430,-225v3,115,30,178,140,180v49,0,109,-3,182,-9r2,50v-140,15,-267,37,-336,-42v-65,32,-148,56,-231,56v-89,0,-133,-50,-133,-151v0,-53,14,-88,40,-109v47,-37,187,-45,277,-54r0,-45v0,-69,-32,-103,-96,-103v-57,-1,-138,7,-190,10r-2,-54v77,-9,142,-13,194,-13v72,0,117,27,136,81v33,-54,87,-81,163,-81v159,0,210,115,194,284r-340,0xm116,-142v-1,59,24,98,78,99v59,0,125,-14,198,-42v-15,-37,-23,-93,-23,-169r-161,15v-62,7,-91,31,-92,97xm712,-275v-1,-118,-29,-181,-136,-181v-97,0,-146,60,-146,181r282,0","w":828},"\u00e7":{"d":"54,-259v0,-173,44,-250,206,-250v38,0,95,7,130,12r-2,53v-53,-6,-93,-9,-118,-9v-130,3,-155,57,-155,194v0,150,15,209,155,213r119,-9r3,53v-60,8,-104,12,-133,12v-176,-4,-205,-81,-205,-269xm253,47v43,2,53,15,53,60v0,49,-12,63,-61,64v-8,0,-18,-1,-31,-4r2,-26v6,1,15,2,28,2v28,-1,28,-8,28,-36v0,-28,0,-31,-28,-32r-24,0r0,-76r33,0r0,48","w":437},"\u00e8":{"d":"114,-225v1,115,30,185,139,180r183,-9r2,50v-75,9,-139,14,-191,14v-155,0,-194,-94,-194,-258v0,-174,69,-261,206,-261v159,0,208,113,195,284r-340,0xm396,-275v-1,-119,-29,-181,-137,-181v-97,0,-145,60,-145,181r282,0xm139,-742r208,95r-23,50r-209,-91","w":497},"\u00e9":{"d":"114,-225v1,115,30,185,139,180r183,-9r2,50v-75,9,-139,14,-191,14v-155,0,-194,-94,-194,-258v0,-174,69,-261,206,-261v159,0,208,113,195,284r-340,0xm396,-275v-1,-119,-29,-181,-137,-181v-97,0,-145,60,-145,181r282,0xm155,-647r208,-95r24,54r-209,91","w":497},"\u00ea":{"d":"114,-225v1,115,30,185,139,180r183,-9r2,50v-75,9,-139,14,-191,14v-155,0,-194,-94,-194,-258v0,-174,69,-261,206,-261v159,0,208,113,195,284r-340,0xm396,-275v-1,-119,-29,-181,-137,-181v-97,0,-145,60,-145,181r282,0xm117,-592r124,-145r48,0r124,145r-64,0r-83,-93r-84,93r-65,0","w":497},"\u00eb":{"d":"114,-225v1,115,30,185,139,180r183,-9r2,50v-75,9,-139,14,-191,14v-155,0,-194,-94,-194,-258v0,-174,69,-261,206,-261v159,0,208,113,195,284r-340,0xm396,-275v-1,-119,-29,-181,-137,-181v-97,0,-145,60,-145,181r282,0xm146,-624r0,-83r61,0r0,83r-61,0xm327,-624r0,-83r61,0r0,83r-61,0","w":497},"\u00ec":{"d":"3,-742r208,95r-23,50r-209,-91xm101,0r0,-500r60,0r0,500r-60,0","w":261},"\u00ed":{"d":"39,-647r208,-95r24,54r-209,91xm101,0r0,-500r60,0r0,500r-60,0","w":261},"\u00ee":{"d":"101,0r0,-500r60,0r0,500r-60,0xm-18,-592r124,-145r48,0r124,145r-64,0r-83,-93r-84,93r-65,0","w":261},"\u00ef":{"d":"9,-624r0,-83r61,0r0,83r-61,0xm190,-624r0,-83r61,0r0,83r-61,0xm101,0r0,-500r60,0r0,500r-60,0","w":261},"\u00f1":{"d":"94,0r60,0r0,-412v53,-28,105,-42,155,-42v48,0,79,13,93,40v14,27,22,79,22,155r0,259r59,0v-4,-145,15,-373,-33,-456v-29,-50,-131,-65,-208,-42v-39,12,-59,20,-88,34r0,-36r-60,0r0,500xm368,-630v-38,0,-98,-54,-129,-54v-17,0,-40,14,-69,41r-25,-18v64,-59,98,-71,167,-27v60,39,60,34,117,-14r22,17v-34,37,-62,55,-83,55","w":574},"\u00f2":{"d":"67,-258v0,-171,47,-251,211,-251v156,0,208,87,208,252v0,180,-35,267,-208,267v-177,0,-211,-82,-211,-268xm278,-455v-128,0,-150,59,-150,197v0,81,10,137,29,168v19,31,60,46,121,46v61,0,100,-16,118,-48v18,-32,28,-87,28,-165v-1,-128,-30,-198,-146,-198xm147,-742r208,95r-23,50r-209,-91","w":536},"\u00f3":{"d":"486,-257v0,-165,-52,-252,-208,-252v-163,0,-211,80,-211,251v0,186,34,268,211,268v172,0,208,-87,208,-267xm278,-455v116,0,145,70,146,198v0,78,-10,133,-28,165v-18,32,-57,48,-118,48v-138,0,-150,-65,-150,-214v0,-139,22,-197,150,-197xm161,-647r208,-95r24,54r-209,91","w":536},"\u00f4":{"d":"486,-257v0,-165,-52,-252,-208,-252v-163,0,-211,80,-211,251v0,186,34,268,211,268v172,0,208,-87,208,-267xm278,-455v116,0,145,70,146,198v0,78,-10,133,-28,165v-18,32,-57,48,-118,48v-138,0,-150,-65,-150,-214v0,-139,22,-197,150,-197xm115,-592r124,-145r48,0r124,145r-64,0r-83,-93r-84,93r-65,0","w":536},"\u00f5":{"d":"486,-257v0,-165,-52,-252,-208,-252v-163,0,-211,80,-211,251v0,186,34,268,211,268v172,0,208,-87,208,-267xm278,-455v116,0,145,70,146,198v0,78,-10,133,-28,165v-18,32,-57,48,-118,48v-138,0,-150,-65,-150,-214v0,-139,22,-197,150,-197xm333,-630v-38,0,-98,-54,-129,-54v-17,0,-40,14,-69,41r-25,-18v64,-59,97,-72,166,-27v60,39,63,35,118,-14r22,17v-34,37,-62,55,-83,55","w":536},"\u00f6":{"d":"486,-257v0,-165,-52,-252,-208,-252v-163,0,-211,80,-211,251v0,186,34,268,211,268v172,0,208,-87,208,-267xm278,-455v116,0,145,70,146,198v0,78,-10,133,-28,165v-18,32,-57,48,-118,48v-138,0,-150,-65,-150,-214v0,-139,22,-197,150,-197xm142,-624r0,-83r61,0r0,83r-61,0xm323,-624r0,-83r61,0r0,83r-61,0","w":536},"\u00f7":{"d":"75,-351r0,-60r285,0r0,60r-285,0xm138,-419r0,-91r157,0r0,91r-157,0xm186,-116r0,-93r63,0r0,93r-63,0"},"\u00f8":{"d":"60,-261v0,-174,42,-244,205,-248v31,0,59,4,83,12r40,-96r30,11r-40,98v59,34,88,109,88,225v0,98,-14,167,-41,207v-27,40,-81,61,-160,61v-33,0,-61,-3,-85,-9r-42,104r-30,-10r42,-104v-80,-40,-90,-120,-90,-251xm265,-477v-144,4,-168,61,-168,216v0,65,4,115,13,148v9,33,26,57,53,71r173,-424v-22,-7,-46,-11,-71,-11xm193,-30v42,11,124,9,159,-6v44,-18,65,-66,72,-118v3,-26,5,-61,5,-105v0,-97,-22,-161,-65,-192","w":526},"\u00f9":{"d":"408,-500r59,0r0,500r-59,0r0,-35v-52,30,-103,45,-154,45v-68,0,-112,-17,-134,-52v-49,-80,-29,-315,-33,-458r59,0r0,259v0,78,9,130,22,157v21,43,104,48,163,30v36,-12,52,-19,77,-32r0,-414xm156,-742r208,95r-23,50r-209,-91","w":511},"\u00fa":{"d":"467,-500r-59,0r0,414v-48,28,-97,42,-147,42v-48,0,-79,-13,-93,-40v-14,-27,-22,-79,-22,-157r0,-259r-59,0v4,145,-14,375,33,458v28,49,131,64,206,41v37,-11,55,-20,82,-34r0,35r59,0r0,-500xm170,-647r208,-95r24,54r-209,91","w":511},"\u00fb":{"d":"467,-500r-59,0r0,414v-48,28,-97,42,-147,42v-48,0,-79,-13,-93,-40v-14,-27,-22,-79,-22,-157r0,-259r-59,0v4,145,-14,375,33,458v28,49,131,64,206,41v37,-11,55,-20,82,-34r0,35r59,0r0,-500xm124,-592r124,-145r48,0r124,145r-64,0r-83,-93r-84,93r-65,0","w":511},"\u00fc":{"d":"467,-500r-59,0r0,414v-48,28,-97,42,-147,42v-48,0,-79,-13,-93,-40v-14,-27,-22,-79,-22,-157r0,-259r-59,0v4,145,-14,375,33,458v28,49,131,64,206,41v37,-11,55,-20,82,-34r0,35r59,0r0,-500xm151,-624r0,-83r61,0r0,83r-61,0xm332,-624r0,-83r61,0r0,83r-61,0","w":511},"\u00fd":{"d":"22,-500r61,0r133,443r36,0r134,-443r61,0r-216,725r-60,0r66,-225r-68,0xm144,-647r208,-95r24,54r-209,91","w":480},"\u00fe":{"d":"456,-258v0,-125,-11,-196,-121,-196v-52,0,-115,16,-151,32r0,372v47,4,80,6,100,6v149,-2,172,-61,172,-214xm518,-259v0,194,-44,266,-234,269v-20,0,-53,-2,-100,-5r0,220r-60,0r0,-947r60,0r0,248v52,-23,104,-35,156,-35v151,0,178,85,178,250","w":538},"\u00ff":{"d":"30,-500r155,500r61,0r-72,230r37,0r229,-730r-37,0r-148,468r-41,0r-147,-468r-37,0xm137,-638r0,-62r35,0r0,62r-35,0xm307,-638r0,-62r35,0r0,62r-35,0","w":480},"\u0152":{"d":"882,1r-408,0v-157,19,-299,16,-358,-75v-37,-56,-56,-147,-56,-271v0,-125,19,-217,58,-275v39,-58,108,-87,208,-87v57,0,105,10,147,10r409,0r0,60r-348,0r0,250r288,0r0,60r-288,0r0,267r348,0r0,61xm162,-124v52,89,167,79,311,66r0,-579v-85,-7,-133,-11,-142,-11v-81,0,-135,23,-164,70v-29,47,-43,125,-43,232v1,99,3,163,38,222","w":944},"\u0153":{"d":"479,-225v1,115,30,178,139,180v40,0,117,-5,154,-7r29,-2r2,50v-75,9,-139,14,-191,14v-82,0,-137,-31,-165,-92v-28,66,-81,92,-176,92v-177,0,-212,-82,-212,-268v0,-171,48,-251,212,-251v91,0,151,34,178,103v31,-69,89,-103,175,-103v159,0,210,115,194,284r-339,0xm271,-455v-128,0,-150,59,-150,197v0,81,10,137,29,168v19,31,60,46,121,46v134,0,146,-69,146,-213v0,-128,-30,-198,-146,-198xm760,-275v-1,-119,-28,-181,-136,-181v-97,0,-146,60,-146,181r282,0","w":876},"\u0178":{"d":"289,-301r0,301r-36,0r0,-301r-228,-399r41,0r205,359r202,-359r42,0xm167,-838r0,-62r35,0r0,62r-35,0xm337,-838r0,-62r35,0r0,62r-35,0","w":540},"\u02c6":{"d":"262,-592r124,-145r48,0r124,145r-64,0r-83,-93r-84,93r-65,0","w":833},"\u02dc":{"d":"301,-630v-38,0,-98,-54,-129,-54v-17,0,-40,14,-69,41r-25,-18v64,-59,97,-72,166,-27v60,39,63,35,118,-14r22,17v-34,37,-62,55,-83,55","w":833},"\u2018":{"d":"127,-727r-42,211r-63,0r51,-211r54,0","w":170},"\u2019":{"d":"42,-527r42,-211r63,0r-51,211r-54,0","w":170},"\u2022":{"d":"247,0r0,-80r40,0r0,80r-40,0"},"\u20ac":{"d":"329,10v-176,-1,-229,-76,-245,-241r-63,0r0,-52r59,0r0,-101r-59,0r0,-52r63,0v17,-162,70,-239,245,-240v61,0,120,6,176,19r-3,57v-113,-19,-246,-34,-305,27v-27,28,-43,75,-49,138r286,0r0,51r-290,0r0,101r290,1r0,51r-286,0v14,126,51,180,187,181v44,0,100,-5,167,-16r3,57v-65,13,-123,19,-176,19","w":546},"\u2122":{"d":"7,-590r0,-31r200,0r0,31r-83,0r0,258r-33,0r0,-258r-84,0xm242,-331r0,-290r50,0r84,242r87,-242r50,0r0,290r-32,0r0,-258r-88,247r-35,0r-84,-247r0,258r-32,0"}}});
