/*!
 * The following copyright notice may not be removed under any circumstances.
 * 
 * Copyright:
 * Generated in 2009 by FontLab Studio. Copyright info pending.
 */
Cufon.registerFont({"w":530,"face":{"font-family":"TitilliumText14L","font-weight":400,"font-stretch":"normal","units-per-em":"1000","panose-1":"0 0 0 0 0 0 0 0 0 0","ascent":"750","descent":"-250","x-height":"9","bbox":"-49 -942 925.055 250","underline-thickness":"50","underline-position":"-50","unicode-range":"U+0020-U+2122"},"glyphs":{" ":{"w":235},"!":{"d":"250,0r0,-80r40,0r0,80r-40,0xm252,-213r0,-486r35,0r0,486r-35,0"},"\"":{"d":"226,-501r-35,0r0,-200r35,0r0,200xm85,-501r-35,0r0,-200r35,0r0,200","w":280},"#":{"d":"513,-190r-120,0r0,190r-36,0r0,-190r-188,0r0,190r-36,0r0,-190r-120,0r0,-32r120,0r0,-226r-120,0r0,-32r120,0r0,-190r36,0r0,190r188,0r0,-190r36,0r0,190r120,0r0,32r-120,0r0,226r120,0r0,32xm357,-222r0,-226r-188,0r0,226r188,0"},"$":{"d":"493,-180v2,146,-95,195,-248,186r-14,114v-23,-2,-35,-4,-35,-7r14,-109r-144,-13r4,-35v51,7,99,12,144,15r39,-298v-64,-12,-97,-20,-140,-49v-38,-26,-52,-66,-52,-129v-1,-137,94,-168,237,-166r16,-119r35,0r-16,121r141,14r-3,34v-53,-6,-100,-11,-142,-14r-36,277v70,13,101,18,148,48v39,26,51,65,52,130xm279,-27v138,5,198,-83,168,-207v-17,-68,-84,-73,-159,-87r-38,294r29,0xm294,-637v-117,-1,-194,20,-194,130v0,48,11,81,34,99v23,18,65,33,124,44"},"%":{"d":"29,-569v0,-87,26,-133,106,-133v80,0,106,47,106,134v0,92,-35,138,-106,138v-80,0,-106,-52,-106,-139xm310,-139v0,-87,26,-133,106,-133v80,0,106,47,106,134v0,92,-35,138,-106,138v-80,0,-106,-52,-106,-139xm186,-6r144,-695r36,7r-144,695xm135,-670v-58,0,-71,38,-71,101v0,65,12,107,71,107v60,0,71,-41,71,-106v0,-64,-11,-102,-71,-102xm416,-240v-58,0,-71,38,-71,101v0,65,12,107,71,107v60,0,71,-41,71,-106v0,-64,-11,-102,-71,-102"},"&":{"d":"170,-550v0,-90,58,-144,153,-144v99,0,153,52,153,145v0,117,-64,146,-165,182r187,185v13,-39,24,-87,31,-146r35,0v-9,72,-22,129,-39,172r140,137r-24,26r-131,-130v-44,88,-118,132,-222,132v-161,1,-230,-66,-230,-217v0,-131,55,-167,163,-201v-39,-44,-51,-68,-51,-141xm93,-209v0,130,62,185,197,185v91,0,156,-41,194,-124r-237,-235v-103,31,-154,55,-154,174xm205,-550v0,52,15,93,45,123r36,36v58,-20,98,-41,121,-63v23,-22,34,-54,34,-96v0,-75,-39,-112,-118,-112v-79,0,-118,37,-118,112","w":700},"'":{"d":"32,-488r-2,-210r40,0r-5,210r-33,0","w":100},"(":{"d":"153,125v-41,-89,-97,-288,-97,-426v0,-151,52,-341,97,-449r35,0v-38,97,-93,310,-95,449v-2,112,37,275,95,426r-35,0","w":260},")":{"d":"91,-755v41,89,97,288,97,426v0,151,-52,341,-97,449r-35,0v38,-97,93,-310,95,-449v2,-112,-37,-275,-95,-426r35,0","w":260},"*":{"d":"434,-519r-137,0r42,129r-32,10r-42,-130r-110,79r-19,-27r110,-80r-109,-80r20,-27r110,81r42,-129r32,10r-42,130r135,0r0,34"},"+":{"d":"-49,-234r0,-34r232,0r0,-232r36,0r0,232r234,0r0,34r-234,0r0,234r-36,0r0,-234r-232,0","w":410},",":{"d":"47,123r42,-210r40,0r-51,210r-31,0","w":170},"-":{"d":"60,-264r0,-34r320,0r0,34r-320,0","w":440},".":{"d":"98,0r0,-80r40,0r0,80r-40,0","w":248},"\/":{"d":"109,-12r277,-690r33,14r-277,689"},"0":{"d":"38,-316v0,-203,30,-356,226,-354v119,1,167,38,200,136v18,53,27,127,27,220v0,191,-41,323,-226,323v-186,0,-227,-133,-227,-325xm76,-314v1,168,26,291,189,289v97,-1,135,-31,165,-110v31,-81,28,-296,2,-377v-27,-86,-65,-124,-168,-124v-102,0,-139,35,-166,122v-14,48,-22,115,-22,200"},"1":{"d":"90,-524r204,-136r36,0r0,660r-36,0r0,-621r-187,126"},"2":{"d":"253,-670v131,1,203,42,205,169v1,65,-38,137,-66,171v-15,18,-37,41,-65,69r-227,226r379,0r0,35r-428,0r0,-34r237,-239v46,-46,79,-86,100,-119v21,-33,32,-69,32,-109v-1,-103,-61,-134,-168,-135v-61,0,-141,16,-191,26r-5,-34v69,-17,135,-26,197,-26"},"3":{"d":"420,-506v-5,-103,-49,-129,-159,-130v-65,0,-143,12,-194,23r-6,-34v66,-15,132,-23,199,-23v133,1,198,41,198,165v0,84,-50,133,-113,152v86,25,132,59,132,171v-1,134,-71,191,-208,191v-71,0,-162,-10,-217,-23r6,-34v70,15,140,23,211,23v113,-1,170,-52,170,-154v0,-110,-61,-153,-162,-153r-134,0r0,-34r133,0v69,-1,148,-60,144,-140"},"4":{"d":"370,0r0,-132r-338,0r0,-30r216,-498r39,0r-212,494r295,0r0,-179r36,0r0,179r92,0r0,34r-92,0r0,132r-36,0"},"5":{"d":"266,-27v114,0,181,-74,181,-193v0,-105,-57,-158,-171,-158v-66,0,-137,31,-179,55r-34,-4r19,-333r372,0r0,35r-338,0r-18,264v35,-23,117,-51,179,-51v139,0,208,64,208,192v0,146,-77,227,-218,227v-67,0,-136,-8,-209,-24r5,-34v73,16,141,24,203,24"},"6":{"d":"484,-208v0,140,-72,218,-214,217v-77,0,-134,-28,-170,-84v-36,-56,-54,-143,-54,-262v0,-119,22,-205,64,-256v42,-51,103,-77,182,-77v56,0,109,6,160,19r-4,33v-48,-12,-100,-18,-156,-18v-155,0,-207,103,-208,278v38,-19,130,-49,192,-48v139,0,207,62,208,198xm275,-372v-61,0,-125,18,-192,49v1,99,17,173,46,223v29,50,76,75,141,75v117,0,176,-61,176,-183v0,-109,-57,-164,-171,-164"},"7":{"d":"49,-626r0,-34r402,0r0,65r-268,604r-35,-14r265,-598r0,-23r-364,0"},"8":{"d":"159,-348v-75,-28,-126,-63,-126,-158v0,-109,78,-164,235,-164v159,0,239,55,239,165v0,97,-55,132,-138,157v86,26,148,64,148,169v0,148,-98,188,-249,188v-164,0,-246,-59,-246,-177v0,-113,53,-143,137,-180xm61,-169v0,115,86,144,207,144v129,0,210,-29,211,-153v0,-53,-16,-87,-49,-108v-37,-24,-59,-30,-109,-44r-117,0v-88,23,-143,58,-143,161xm468,-504v0,-108,-80,-132,-200,-132v-120,0,-197,22,-197,131v0,91,54,118,133,142r117,0v84,-21,147,-50,147,-141"},"9":{"d":"47,-461v0,-132,88,-210,220,-209v78,0,133,29,167,87v34,58,51,144,51,259v0,121,-21,206,-61,257v-53,69,-145,86,-258,71v-29,-4,-52,-8,-68,-11r-24,-5r6,-32v55,13,110,19,166,19v152,0,201,-102,202,-271v-47,19,-126,39,-192,40v-136,0,-209,-69,-209,-205xm267,-636v-111,-1,-183,64,-182,175v0,114,58,171,173,171v64,0,144,-25,191,-42v-2,-101,-16,-177,-43,-228v-27,-51,-74,-76,-139,-76"},":":{"d":"77,-344r0,-80r40,0r0,80r-40,0xm77,0r0,-80r40,0r0,80r-40,0","w":141},";":{"d":"78,-87r-41,210r31,0r52,-210r-42,0xm75,-344r0,-80r40,0r0,80r-40,0","w":170},"<":{"d":"410,-520r-315,206r315,217r0,41v-209,-142,-324,-221,-347,-238r0,-36r347,-229r0,39"},"=":{"d":"41,-343r0,-34r445,0r0,34r-445,0xm42,-174r0,-34r445,0r0,34r-445,0"},">":{"d":"378,-314r-315,-206r0,-39r347,229r0,36r-347,238r0,-41"},"?":{"d":"176,-709v125,1,200,38,200,158v0,137,-120,179,-178,263v-21,30,-22,55,-21,98r-35,0v-1,-46,-1,-75,20,-108v43,-68,119,-106,158,-178v14,-24,21,-49,21,-75v-1,-100,-60,-124,-165,-125v-32,0,-86,9,-161,28r-5,-34v75,-18,130,-27,166,-27xm140,-1r0,-80r40,0r0,80r-40,0","w":386},"@":{"d":"504,-719v305,0,424,127,421,431v-1,113,-4,217,-59,272v-23,22,-58,26,-104,26v-66,0,-91,-14,-107,-63v-94,48,-143,70,-233,59v-31,-4,-71,-28,-86,-55v-25,-43,-42,-117,-41,-194v2,-173,42,-264,210,-266v44,0,99,15,132,27r0,-18r35,0r0,200v0,93,2,158,8,196v11,68,13,82,82,84v95,4,109,-53,120,-141v5,-37,6,-92,6,-145v-3,-273,-107,-381,-384,-381v-295,0,-404,120,-407,426v-2,222,60,360,226,407v49,14,109,26,181,21r143,-10r3,33v-285,32,-501,-12,-563,-227v-18,-60,-27,-135,-27,-224v1,-324,130,-458,444,-458xm330,-240v0,121,21,215,134,217v53,0,115,-20,184,-60v-13,-64,-11,-258,-11,-367v-49,-18,-93,-27,-132,-27v-146,2,-175,84,-175,237","w":985},"A":{"d":"35,0r215,-700r106,0r213,698r-36,0r-67,-213r-328,0r-67,215r-36,0xm275,-666r-127,417r308,0r-127,-417r-54,0","w":604},"B":{"d":"572,-196v1,143,-72,196,-210,196r-259,0r0,-700r240,0v129,0,201,46,202,170v0,89,-32,145,-97,169v83,23,124,78,124,165xm362,-34v113,-1,174,-45,173,-162v0,-97,-60,-145,-181,-145r-215,0r0,307r223,0xm508,-530v0,-102,-58,-135,-165,-136r-204,0r0,292r215,0v106,0,154,-51,154,-156","w":627},"C":{"d":"489,-45r3,34v-161,32,-325,35,-387,-76v-49,-88,-53,-250,-41,-382v6,-67,27,-139,63,-176v38,-40,99,-65,180,-64v61,0,138,8,185,19r-3,35v-129,-26,-271,-39,-337,37v-65,75,-61,248,-52,382v4,58,23,123,53,156v45,49,133,63,231,50v30,-4,56,-7,76,-10","w":537},"D":{"d":"363,0r-260,0r0,-700r260,0v138,1,200,96,222,212v34,179,1,384,-112,457v-31,21,-68,31,-110,31xm456,-63v94,-71,121,-251,93,-409v-18,-102,-66,-193,-186,-194r-224,0r0,632r224,0v36,0,67,-10,93,-29","w":653},"E":{"d":"103,0r0,-700r409,0r0,34r-373,0r0,289r313,0r0,34r-313,0r0,309r373,0r0,34r-409,0","w":572},"F":{"d":"103,0r0,-700r410,0r0,34r-374,0r0,316r314,0r0,34r-314,0r0,316r-36,0","w":563},"G":{"d":"210,-46v74,37,213,14,296,1r0,-268r-150,0r0,-34r186,0r0,331v-94,17,-167,25,-220,25v-98,0,-166,-30,-204,-89v-38,-59,-58,-148,-58,-267v0,-113,12,-191,51,-262v37,-67,107,-100,211,-100v70,0,143,8,220,25r-3,35v-84,-17,-156,-26,-217,-26v-92,0,-149,30,-182,90v-47,85,-50,254,-32,373v11,74,43,136,102,166","w":617},"H":{"d":"557,0r0,-334r-418,0r0,334r-36,0r0,-700r36,0r0,332r418,0r0,-332r36,0r0,700r-36,0","w":696},"I":{"d":"95,0r0,-700r36,0r0,700r-36,0","w":226},"J":{"d":"208,-701r1,596v1,55,-7,101,-23,135v-7,15,-28,29,-42,34v-29,11,-67,9,-109,9r0,-34v45,-1,54,2,87,-6v28,-7,29,-14,40,-39v13,-30,9,-62,10,-109r0,-586r36,0","w":304},"K":{"d":"501,0r-231,-329r-131,0r0,329r-36,0r0,-700r36,0r0,337r129,0r220,-337r43,0r-231,352r247,348r-46,0","w":597},"L":{"d":"480,0r-377,0r0,-700r36,0r0,666r341,0r0,34"},"M":{"d":"103,0r0,-700r77,0r245,645r247,-645r76,0r0,700r-36,0r0,-666r-14,0r-249,645r-50,0r-246,-645r-14,0r0,666r-36,0","w":851},"N":{"d":"103,0r0,-700r85,0r333,666r27,0r0,-666r36,0r0,700r-85,0r-334,-666r-26,0r0,666r-36,0","w":687},"O":{"d":"211,-45v57,25,178,25,235,1v61,-25,91,-86,103,-159v6,-37,9,-85,9,-144v0,-112,-16,-195,-48,-248v-32,-53,-93,-80,-182,-80v-93,0,-151,28,-186,87v-50,83,-52,262,-35,381v10,73,43,135,104,162xm328,9v-106,0,-176,-27,-216,-91v-42,-69,-51,-149,-52,-265v0,-123,19,-214,58,-273v39,-59,109,-89,210,-89v101,0,171,30,210,89v39,59,58,150,58,273v0,127,-18,218,-56,273v-38,55,-109,83,-212,83","w":656},"P":{"d":"358,-700v145,1,206,66,207,211v0,155,-69,232,-207,232r-219,0r0,257r-36,0r0,-700r255,0xm527,-489v-1,-122,-47,-176,-169,-177r-219,0r0,375r219,0v113,0,169,-66,169,-198","w":615},"Q":{"d":"596,-347v0,167,-20,272,-121,328r86,140r-36,17r-87,-143v-69,21,-184,18,-243,-8v-111,-49,-135,-170,-135,-334v0,-123,19,-214,58,-273v39,-59,109,-89,210,-89v101,0,171,30,210,89v39,59,58,150,58,273xm211,-45v57,25,178,25,235,1v61,-25,91,-86,103,-159v6,-37,9,-85,9,-144v0,-112,-16,-195,-48,-248v-32,-53,-93,-80,-182,-80v-93,0,-151,28,-186,87v-50,83,-52,262,-35,381v10,73,43,135,104,162","w":656},"R":{"d":"354,-700v141,1,208,60,208,200v0,119,-48,187,-145,205r158,295r-41,0r-156,-290r-239,0r0,290r-36,0r0,-700r251,0xm354,-324v122,1,170,-58,170,-176v0,-117,-53,-165,-170,-166r-215,0r0,342r215,0","w":630},"S":{"d":"270,-27v119,-1,175,-52,175,-173v0,-49,-13,-82,-38,-101v-25,-19,-71,-33,-137,-43v-75,-12,-108,-17,-158,-48v-43,-28,-59,-72,-59,-143v0,-117,72,-176,216,-176v51,0,118,5,199,16r-4,35v-91,-11,-156,-17,-195,-17v-141,-2,-195,69,-173,193v5,29,22,51,41,64v37,26,85,31,142,40v73,12,125,28,157,52v32,24,47,66,47,125v0,149,-66,210,-212,210v-63,0,-156,-9,-214,-16r4,-35v92,11,162,17,209,17","w":536},"T":{"d":"0,-666r0,-34r500,0r0,34r-231,0r0,666r-36,0r0,-666r-233,0","w":500},"U":{"d":"316,9v-146,0,-226,-58,-226,-205r0,-504r36,0r0,504v0,123,68,171,190,171v128,0,200,-44,200,-171r0,-504r36,0r0,504v0,150,-84,205,-236,205","w":642},"V":{"d":"508,-700r36,0r-194,700r-116,0r-199,-700r36,0r192,666r58,0","w":579},"W":{"d":"45,-700r35,0r143,666r38,0r155,-656r40,0r160,656r38,0r138,-666r35,0r-144,700r-96,0r-151,-643r-146,643r-96,0","w":872},"X":{"d":"83,-700r208,326r207,-326r43,0r-223,353r223,347r-43,0r-206,-322r-209,322r-43,0r226,-347r-226,-353r43,0","w":581},"Y":{"d":"289,-301r0,301r-36,0r0,-301r-228,-399r41,0r205,359r202,-359r42,0","w":540},"Z":{"d":"60,-666r0,-34r450,0r0,70r-413,575r0,22r413,0r0,34r-450,0r0,-69r413,-574r0,-24r-413,0","w":570},"[":{"d":"231,-749r0,32r-147,0r0,808r147,0r0,32r-182,0r-1,-872r183,0","w":300},"\\":{"d":"582,-14r-35,14r-301,-687r35,-14","w":833},"]":{"d":"51,-717r0,-32r183,0r-1,872r-182,0r0,-32r147,0r0,-808r-147,0","w":300},"^":{"d":"379,-439r-110,-215r-113,215r-140,0r181,-347r140,0r182,347r-140,0","w":833},"_":{"d":"27,34r428,0r0,34r-428,0r0,-34","w":520},"`":{"d":"166,-732r192,96r-15,27r-193,-92","w":545},"a":{"d":"383,-353v0,-82,-33,-121,-111,-122v-56,0,-139,10,-189,17r-3,-33v75,-12,139,-18,192,-18v97,0,146,52,146,156r0,287v3,24,28,38,75,42r-2,32v-50,0,-84,-13,-103,-40v-62,27,-131,41,-206,41v-84,0,-128,-57,-127,-146v1,-93,47,-134,138,-144r190,-20r0,-52xm92,-137v-1,66,30,113,91,114v69,0,152,-20,200,-40r0,-205r-186,18v-70,7,-105,45,-105,113","w":518},"b":{"d":"478,-261v0,192,-40,267,-228,270v-45,0,-95,-3,-149,-9r0,-730r35,0r0,261v55,-27,113,-40,172,-40v150,0,170,85,170,248xm136,-29v95,7,150,15,214,-7v80,-28,92,-110,91,-223v0,-79,-10,-136,-27,-169v-41,-82,-214,-43,-278,-9r0,408","w":538},"c":{"d":"60,-261v0,-174,41,-245,205,-248r120,10r-2,32v-53,-7,-93,-10,-118,-10v-140,3,-168,67,-168,216v0,90,11,153,33,187v22,34,67,56,135,51r120,-9r2,32v-126,17,-236,17,-285,-48v-29,-38,-42,-110,-42,-213","w":437},"d":{"d":"60,-243v2,-173,42,-264,210,-266v38,0,82,4,132,12r0,-203r35,0r0,700r-35,0r0,-42v-52,34,-183,78,-259,32v-42,-24,-56,-55,-71,-114v-8,-33,-12,-73,-12,-119xm95,-240v0,121,21,217,134,217v56,0,114,-18,173,-52r0,-390v-69,-8,-113,-12,-132,-12v-146,2,-175,84,-175,237","w":538},"e":{"d":"97,-236v2,132,28,211,152,213v47,0,107,-3,182,-9r2,32v-75,6,-136,9,-185,9v-154,0,-188,-96,-188,-259v0,-173,67,-259,202,-259v152,1,196,105,190,273r-355,0xm415,-268v-1,-136,-31,-209,-153,-209v-110,0,-165,70,-165,209r318,0","w":507},"f":{"d":"231,-707v-86,4,-89,46,-92,147r0,60r162,0r0,32r-162,0r0,468r-35,0r0,-468r-69,0r0,-32r69,0r0,-61v2,-125,16,-174,127,-178r92,3r0,31v-43,-1,-73,-2,-92,-2","w":328},"g":{"d":"466,85v0,122,-78,154,-213,154v-151,0,-198,-21,-198,-159v0,-74,36,-92,85,-128v-19,-12,-29,-58,-14,-92v8,-18,14,-35,22,-51v-57,-19,-86,-69,-86,-152v0,-111,57,-167,171,-167v36,0,79,6,106,13r140,-3r0,35r-108,0v27,25,40,65,40,122v-1,126,-55,162,-182,164v-20,0,-38,-1,-54,-4v-20,54,-27,57,-21,95v5,26,38,26,70,28v15,1,36,1,65,1v129,3,177,18,177,144xm429,85v0,-103,-36,-109,-142,-112r-121,-3v-48,37,-75,44,-75,109v0,112,40,128,163,128v111,0,175,-23,175,-122xm98,-343v0,96,33,132,131,132v104,0,145,-30,145,-132v0,-112,-31,-135,-142,-135v-95,0,-134,37,-134,135","w":504},"h":{"d":"136,0r-35,0r0,-750r35,0r0,280v59,-26,117,-39,174,-39v67,0,111,17,132,51v48,78,28,316,32,458r-35,0v-4,-132,16,-356,-24,-434v-39,-76,-218,-36,-279,-3r0,437","w":567},"i":{"d":"90,0r0,-500r35,0r0,500r-35,0xm90,-645r0,-55r35,0r0,55r-35,0","w":215},"j":{"d":"108,-6r0,-494r35,0r0,495v0,57,-10,99,-31,129v-21,30,-64,61,-128,94r-14,-31v57,-31,95,-59,112,-83v17,-24,26,-61,26,-110xm108,-645r0,-55r35,0r0,55r-35,0","w":233},"k":{"d":"136,0r-35,0r0,-730r35,0r0,438r94,0r182,-208r41,0r-192,226r192,274r-41,0r-182,-257r-94,0r0,257","w":483},"l":{"d":"95,0r0,-730r35,0r0,730r-35,0","w":225},"m":{"d":"300,-477v-57,0,-112,18,-164,50r0,427r-35,0r0,-500r35,0r0,40v63,-45,242,-81,294,-1v75,-32,137,-48,188,-48v67,0,111,17,132,51v48,78,28,316,32,458r-35,0v-4,-132,14,-354,-24,-434v-23,-49,-121,-50,-187,-30v-41,13,-66,22,-90,36v29,91,15,297,18,428r-35,0v-4,-132,15,-355,-24,-434v-15,-30,-51,-43,-105,-43","w":875},"n":{"d":"136,0r-35,0r0,-500r35,0r0,40v59,-33,118,-49,175,-49v67,0,111,17,132,51v48,78,28,316,32,458r-35,0v-4,-132,15,-355,-24,-434v-15,-30,-51,-43,-105,-43v-58,1,-116,17,-175,50r0,427","w":573},"o":{"d":"60,-261v0,-174,42,-248,205,-248v151,0,201,85,201,250v0,98,-14,167,-41,207v-27,40,-81,61,-160,61v-81,0,-135,-19,-163,-58v-28,-39,-42,-109,-42,-212xm265,-477v-144,0,-168,61,-168,216v0,85,1,133,29,183v25,45,68,55,139,55v70,0,114,-13,137,-59v25,-51,27,-96,27,-177v0,-143,-36,-218,-164,-218","w":526},"p":{"d":"480,-257v0,177,-45,263,-212,266v-45,0,-89,-5,-132,-14r0,235r-35,0r0,-730r35,0r0,42v33,-24,113,-51,173,-51v137,0,171,99,171,252xm268,-23v144,-4,175,-79,175,-237v0,-77,-11,-132,-33,-166v-22,-34,-56,-51,-101,-51v-55,0,-114,19,-173,53r0,387v51,9,95,14,132,14","w":540},"q":{"d":"60,-239v0,-187,46,-268,228,-270r149,9r0,730r-35,0r0,-259v-49,25,-103,38,-162,38v-145,-2,-180,-92,-180,-248xm97,-241v0,133,22,218,143,218v60,0,126,-19,162,-40r0,-408v-52,-4,-90,-6,-113,-6v-159,2,-192,73,-192,236","w":538},"r":{"d":"101,0r0,-500r35,0r0,78v40,-33,130,-75,198,-88r0,34v-64,13,-130,42,-198,87r0,389r-35,0","w":354},"s":{"d":"60,-375v2,-123,118,-146,248,-131v29,3,52,5,69,8r26,4r-2,33v-68,-11,-125,-16,-170,-16v-89,0,-134,33,-134,100v0,31,9,54,28,67v19,13,57,23,114,32v71,11,119,25,144,42v25,17,38,47,38,92v0,142,-115,163,-257,149r-98,-12r4,-33v72,11,125,17,159,17v98,-2,154,-22,155,-118v0,-35,-10,-58,-30,-71v-20,-13,-62,-24,-125,-33v-63,-10,-107,-23,-132,-39v-25,-16,-37,-47,-37,-91","w":483},"t":{"d":"241,10v-111,-4,-127,-53,-127,-178r0,-300r-79,0r0,-32r79,0r0,-163r35,0r0,163r182,0r0,32r-182,0r0,262v0,77,6,127,17,150v11,23,36,37,75,34r98,-8r3,32v-44,5,-78,8,-101,8","w":372},"u":{"d":"257,-23v57,0,112,-18,164,-50r0,-427r35,0r0,500r-35,0r0,-40v-34,23,-106,48,-164,49v-67,0,-111,-17,-132,-51v-48,-78,-28,-316,-32,-458r35,0v4,132,-15,355,24,434v15,30,51,43,105,43","w":557},"v":{"d":"35,-500r37,0r146,468r43,0r147,-468r37,0r-157,500r-98,0","w":480},"w":{"d":"38,-500r37,0r127,468r11,0r148,-458r39,0r147,458r11,0r128,-468r37,0r-137,500r-68,0r-138,-448r-139,448r-68,0","w":761},"x":{"d":"38,-500r40,0r150,223r150,-223r40,0r-169,250r169,250r-41,0r-149,-223r-149,223r-41,0r169,-250","w":456},"y":{"d":"35,-500r37,0r147,468r41,0r148,-468r37,0r-229,730r-37,0r72,-230r-61,0","w":480},"z":{"d":"55,-468r0,-32r371,0r0,32r-328,436r328,0r0,32r-371,0r0,-32r328,-436r-328,0","w":481},"{":{"d":"39,-311v71,24,105,52,100,142r-7,116v2,102,40,140,143,145r-2,32v-124,-6,-174,-52,-176,-177r7,-123v-2,-76,-37,-98,-104,-118r0,-32v68,-18,108,-43,104,-120r-7,-128v1,-125,52,-171,176,-177r2,32v-105,6,-149,42,-143,145r7,119v-1,93,-28,119,-100,144","w":285},"|":{"d":"242,59r0,-759r35,0r0,759r-35,0"},"}":{"d":"235,-312v-71,-24,-105,-52,-100,-142r7,-116v-2,-102,-40,-140,-143,-145r2,-32v124,6,174,52,176,177r-7,123v2,76,37,98,104,118r0,32v-68,18,-108,43,-104,120r7,128v-1,125,-52,171,-176,177r-2,-32v105,-6,149,-42,143,-145r-7,-119v1,-93,28,-119,100,-144","w":285},"\u00a0":{"w":235},"\u00a2":{"d":"99,-247v0,131,27,178,155,170r130,-8r2,35v-49,5,-88,8,-117,9r0,126r-35,0r0,-126v-138,-8,-174,-55,-175,-206v-1,-138,49,-207,174,-214r0,-130r35,0r0,131r116,10r-2,35v-67,-7,-113,-10,-138,-10v-116,2,-145,56,-145,178","w":437},"\u00a3":{"d":"423,-1r-309,1r0,-34r92,0r0,-340r-69,0r0,-32r69,0v-2,-85,5,-201,30,-232v22,-27,55,-42,107,-42v25,0,65,4,120,12r0,32v-58,-8,-98,-12,-120,-12v-45,0,-73,15,-85,44v-12,29,-17,95,-17,198r182,0r0,32r-182,0r0,340r174,0r82,-16r7,32","w":570},"\u00a5":{"d":"47,-331r0,-34r171,0r-193,-295r41,0r205,309r202,-309r42,0r-191,295r168,0r0,34r-190,0r-13,20r0,95r204,0r0,34r-204,0r0,182r-36,0r0,-182r-205,0r0,-34r205,0r0,-95r-13,-20r-193,0","w":540},"\u00a6":{"d":"239,-750r34,0r0,356r-34,0r0,-356xm239,-296r34,0r0,356r-34,0r0,-356"},"\u00a7":{"d":"90,-475v0,-106,66,-142,175,-143v42,0,94,4,156,13r-2,32v-71,-9,-122,-13,-154,-13v-93,0,-140,36,-140,109v1,47,8,74,38,92v36,20,57,23,110,32v59,10,101,23,127,41v26,18,39,52,39,99v0,42,-13,84,-39,127v24,19,36,50,36,93v0,105,-58,158,-173,158v-50,0,-122,-8,-168,-13r3,-32v73,9,128,14,165,14v92,0,138,-42,138,-126v0,-38,-10,-63,-31,-76v-49,-31,-194,-30,-244,-68v-33,-25,-46,-58,-46,-115v0,-36,18,-73,54,-110v-29,-22,-44,-60,-44,-114xm374,-102v29,-40,50,-157,-2,-186v-31,-28,-179,-40,-213,-59v-18,21,-43,59,-44,94v0,44,13,72,33,89v32,28,189,40,226,62"},"\u00a8":{"d":"112,-638r0,-62r35,0r0,62r-35,0xm282,-638r0,-62r35,0r0,62r-35,0","w":833},"\u00a9":{"d":"265,-169v-143,0,-255,-122,-255,-265v0,-143,112,-266,255,-266v143,0,256,123,256,266v0,143,-113,265,-256,265xm265,-668v-126,0,-223,108,-223,234v0,127,97,233,223,233v126,0,224,-107,224,-233v0,-126,-98,-234,-224,-234xm265,-555v-74,2,-77,42,-77,122v0,74,9,127,77,120r73,-8r1,32v-29,5,-53,8,-74,8v-89,-1,-109,-59,-109,-152v0,-95,18,-153,109,-154v25,0,50,2,74,7r-1,32v-27,-5,-52,-7,-73,-7"},"\u00aa":{"d":"263,-659v59,1,83,27,83,88r0,134v4,13,16,21,37,23r-2,28v-21,-1,-39,-8,-54,-22v-42,15,-82,22,-119,22v-43,0,-70,-35,-70,-80v0,-47,25,-72,75,-76r102,-7v2,-49,-3,-81,-52,-78r-104,7r-2,-31v46,-5,81,-8,106,-8xm315,-520r-97,6v-33,3,-45,15,-47,50v-4,70,84,42,128,34r16,-5r0,-85","w":518},"\u00ab":{"d":"387,-380r-135,106r135,117r0,41v-89,-75,-144,-121,-167,-138r0,-36r167,-129r0,39xm594,-380r-135,106r135,117r0,41v-89,-75,-144,-121,-167,-138r0,-36r167,-129r0,39","w":833},"\u00ad":{"d":"60,-264r0,-34r320,0r0,34r-320,0","w":440},"\u00ae":{"d":"265,-169v-143,0,-255,-122,-255,-265v0,-143,112,-266,255,-266v143,0,256,123,256,266v0,143,-113,265,-256,265xm265,-668v-126,0,-223,108,-223,234v0,127,97,233,223,233v126,0,224,-107,224,-233v0,-126,-98,-234,-224,-234xm254,-591v80,1,115,16,115,90v0,51,-20,81,-59,91r65,134r-35,0r-66,-131r-79,0r0,131r-32,0r0,-315r91,0xm337,-501v3,-70,-75,-56,-142,-58r0,120r80,0v46,-1,60,-15,62,-62"},"\u00b0":{"d":"244,-429v-80,0,-136,-55,-136,-135v0,-80,56,-136,136,-136v80,0,136,56,136,136v0,80,-56,135,-136,135xm244,-668v-61,0,-102,43,-102,104v0,61,41,103,102,103v61,0,104,-42,104,-103v0,-60,-44,-104,-104,-104"},"\u00b1":{"d":"55,-330r0,-34r193,0r0,-138r36,0r0,138r199,0r0,34r-199,0r0,144r-36,0r0,-144r-193,0xm56,-114r428,0r0,34r-428,0r0,-34"},"\u00b4":{"d":"150,-636r192,-96r16,31r-193,92","w":833},"\u00b5":{"d":"254,-23v57,0,112,-18,164,-50r0,-427r35,0r0,500r-35,0r0,-40v-34,23,-106,48,-164,49v-63,0,-106,-17,-129,-51r0,292r-35,0r0,-750r35,0v4,132,-15,355,24,434v15,30,51,43,105,43"},"\u00b6":{"d":"117,-524v0,-102,84,-176,186,-176r348,0r0,33r-97,0r0,667r-36,0r0,-667r-172,0r0,667r-36,0r0,-350v-108,4,-193,-70,-193,-174","w":833},"\u00b8":{"d":"425,47v43,2,53,15,53,60v0,49,-12,63,-61,64v-8,0,-18,-1,-31,-4r2,-26v6,1,15,2,28,2v28,-1,28,-8,28,-36v0,-28,0,-31,-28,-32r-24,0r0,-76r33,0r0,48","w":833},"\u00ba":{"d":"259,-659v83,1,113,47,113,135v0,92,-38,138,-113,138v-77,0,-115,-46,-115,-138v0,-90,38,-135,115,-135xm178,-524v0,70,17,106,81,106v64,0,79,-36,79,-106v0,-70,-15,-103,-79,-103v-63,0,-81,34,-81,103","w":526},"\u00bb":{"d":"582,-274r-135,-106r0,-39r167,129r0,36v-23,17,-78,63,-167,138r0,-41xm375,-274r-135,-106r0,-39r167,129r0,36v-23,17,-78,63,-167,138r0,-41","w":833},"\u00c0":{"d":"35,0r215,-700r106,0r213,698r-36,0r-67,-213r-328,0r-67,215r-36,0xm275,-666r-127,417r308,0r-127,-417r-54,0xm204,-932r192,96r-15,27r-193,-92","w":604},"\u00c1":{"d":"35,0r215,-700r106,0r213,698r-36,0r-67,-213r-328,0r-67,215r-36,0xm275,-666r-127,417r308,0r-127,-417r-54,0xm208,-836r192,-96r16,31r-193,92","w":604},"\u00c2":{"d":"35,0r215,-700r106,0r213,698r-36,0r-67,-213r-328,0r-67,215r-36,0xm275,-666r-127,417r308,0r-127,-417r-54,0xm166,-800r121,-132r28,0r122,132r-42,0r-93,-98r-94,98r-42,0","w":604},"\u00c3":{"d":"35,0r215,-700r106,0r213,698r-36,0r-67,-213r-328,0r-67,215r-36,0xm275,-666r-127,417r308,0r-127,-417r-54,0xm371,-830v-38,0,-98,-54,-129,-54v-17,0,-40,14,-69,41r-25,-18v64,-59,97,-72,166,-27v60,39,63,35,118,-14r22,17v-34,37,-62,55,-83,55","w":604},"\u00c4":{"d":"35,0r215,-700r106,0r213,698r-36,0r-67,-213r-328,0r-67,215r-36,0xm275,-666r-127,417r308,0r-127,-417r-54,0xm199,-838r0,-62r35,0r0,62r-35,0xm369,-838r0,-62r35,0r0,62r-35,0","w":604},"\u00c5":{"d":"35,0r215,-700r106,0r213,698r-36,0r-67,-213r-328,0r-67,215r-36,0xm275,-666r-127,417r308,0r-127,-417r-54,0xm302,-754v-52,0,-94,-42,-94,-94v0,-52,42,-94,94,-94v52,0,94,42,94,94v0,52,-42,94,-94,94xm303,-909v-34,0,-61,27,-61,61v0,34,27,62,61,62v33,0,60,-29,60,-62v0,-33,-27,-61,-60,-61","w":604},"\u00c6":{"d":"429,0r0,-215r-276,0r-78,215r-40,0r251,-700r552,0r0,34r-373,0r0,288r313,0r0,34r-313,0r0,310r373,0r0,34r-409,0xm314,-666r-149,417r264,0r0,-417r-115,0","w":898},"\u00c7":{"d":"489,-45r3,34v-161,32,-325,35,-387,-76v-49,-88,-53,-250,-41,-382v6,-67,27,-139,63,-176v38,-40,99,-65,180,-64v61,0,138,8,185,19r-3,35v-129,-26,-271,-39,-337,37v-65,75,-61,248,-52,382v4,58,23,123,53,156v45,49,133,63,231,50v30,-4,56,-7,76,-10xm288,47v43,2,53,15,53,60v0,49,-12,63,-61,64v-8,0,-18,-1,-31,-4r2,-26v6,1,15,2,28,2v28,-1,28,-8,28,-36v0,-28,0,-31,-28,-32r-24,0r0,-76r33,0r0,48","w":537},"\u00c8":{"d":"103,0r0,-700r409,0r0,34r-373,0r0,289r313,0r0,34r-313,0r0,309r373,0r0,34r-409,0xm217,-932r192,96r-15,27r-193,-92","w":572},"\u00c9":{"d":"103,0r0,-700r409,0r0,34r-373,0r0,289r313,0r0,34r-313,0r0,309r373,0r0,34r-409,0xm223,-836r192,-96r16,31r-193,92","w":572},"\u00ca":{"d":"103,0r0,-700r409,0r0,34r-373,0r0,289r313,0r0,34r-313,0r0,309r373,0r0,34r-409,0xm172,-800r121,-132r28,0r122,132r-42,0r-93,-98r-94,98r-42,0","w":572},"\u00cb":{"d":"103,0r0,-700r409,0r0,34r-373,0r0,289r313,0r0,34r-313,0r0,309r373,0r0,34r-409,0xm205,-838r0,-62r35,0r0,62r-35,0xm375,-838r0,-62r35,0r0,62r-35,0","w":572},"\u00cc":{"d":"95,0r0,-700r36,0r0,700r-36,0xm25,-932r192,96r-15,27r-193,-92","w":226},"\u00cd":{"d":"95,0r0,-700r36,0r0,700r-36,0xm9,-836r192,-96r16,31r-193,92","w":226},"\u00ce":{"d":"97,0r0,-700r36,0r0,700r-36,0xm-20,-800r121,-132r28,0r122,132r-42,0r-93,-98r-94,98r-42,0","w":231},"\u00cf":{"d":"95,0r0,-700r36,0r0,700r-36,0xm11,-838r0,-62r35,0r0,62r-35,0xm181,-838r0,-62r35,0r0,62r-35,0","w":226},"\u00d0":{"d":"26,-324r0,-34r280,0r0,34r-280,0xm363,0r-260,0r0,-700r260,0v138,1,200,96,222,212v34,179,1,384,-112,457v-31,21,-68,31,-110,31xm456,-63v94,-71,121,-251,93,-409v-18,-102,-66,-193,-186,-194r-224,0r0,632r224,0v36,0,67,-10,93,-29","w":653},"\u00d1":{"d":"103,0r0,-700r85,0r333,666r27,0r0,-666r36,0r0,700r-85,0r-334,-666r-26,0r0,666r-36,0xm412,-830v-38,0,-98,-54,-129,-54v-17,0,-40,14,-69,41r-25,-18v64,-59,98,-71,167,-27v60,39,60,34,117,-14r22,17v-34,37,-62,55,-83,55","w":687},"\u00d2":{"d":"211,-45v57,25,178,25,235,1v61,-25,91,-86,103,-159v6,-37,9,-85,9,-144v0,-112,-16,-195,-48,-248v-32,-53,-93,-80,-182,-80v-93,0,-151,28,-186,87v-50,83,-52,262,-35,381v10,73,43,135,104,162xm328,9v-106,0,-176,-27,-216,-91v-42,-69,-51,-149,-52,-265v0,-123,19,-214,58,-273v39,-59,109,-89,210,-89v101,0,171,30,210,89v39,59,58,150,58,273v0,127,-18,218,-56,273v-38,55,-109,83,-212,83xm240,-932r192,96r-15,27r-193,-92","w":656},"\u00d3":{"d":"211,-45v57,25,178,25,235,1v61,-25,91,-86,103,-159v6,-37,9,-85,9,-144v0,-112,-16,-195,-48,-248v-32,-53,-93,-80,-182,-80v-93,0,-151,28,-186,87v-50,83,-52,262,-35,381v10,73,43,135,104,162xm328,9v-106,0,-176,-27,-216,-91v-42,-69,-51,-149,-52,-265v0,-123,19,-214,58,-273v39,-59,109,-89,210,-89v101,0,171,30,210,89v39,59,58,150,58,273v0,127,-18,218,-56,273v-38,55,-109,83,-212,83xm224,-836r192,-96r16,31r-193,92","w":656},"\u00d4":{"d":"211,-45v57,25,178,25,235,1v61,-25,91,-86,103,-159v6,-37,9,-85,9,-144v0,-112,-16,-195,-48,-248v-32,-53,-93,-80,-182,-80v-93,0,-151,28,-186,87v-50,83,-52,262,-35,381v10,73,43,135,104,162xm328,9v-106,0,-176,-27,-216,-91v-42,-69,-51,-149,-52,-265v0,-123,19,-214,58,-273v39,-59,109,-89,210,-89v101,0,171,30,210,89v39,59,58,150,58,273v0,127,-18,218,-56,273v-38,55,-109,83,-212,83xm193,-800r121,-132r28,0r122,132r-42,0r-93,-98r-94,98r-42,0","w":656},"\u00d5":{"d":"211,-45v57,25,178,25,235,1v61,-25,91,-86,103,-159v6,-37,9,-85,9,-144v0,-112,-16,-195,-48,-248v-32,-53,-93,-80,-182,-80v-93,0,-151,28,-186,87v-50,83,-52,262,-35,381v10,73,43,135,104,162xm328,9v-106,0,-176,-27,-216,-91v-42,-69,-51,-149,-52,-265v0,-123,19,-214,58,-273v39,-59,109,-89,210,-89v101,0,171,30,210,89v39,59,58,150,58,273v0,127,-18,218,-56,273v-38,55,-109,83,-212,83xm398,-830v-38,0,-98,-54,-129,-54v-17,0,-40,14,-69,41r-25,-18v64,-59,98,-71,167,-27v60,39,60,34,117,-14r22,17v-34,37,-62,55,-83,55","w":656},"\u00d6":{"d":"211,-45v57,25,178,25,235,1v61,-25,91,-86,103,-159v6,-37,9,-85,9,-144v0,-112,-16,-195,-48,-248v-32,-53,-93,-80,-182,-80v-93,0,-151,28,-186,87v-50,83,-52,262,-35,381v10,73,43,135,104,162xm328,9v-106,0,-176,-27,-216,-91v-42,-69,-51,-149,-52,-265v0,-123,19,-214,58,-273v39,-59,109,-89,210,-89v101,0,171,30,210,89v39,59,58,150,58,273v0,127,-18,218,-56,273v-38,55,-109,83,-212,83xm226,-838r0,-62r35,0r0,62r-35,0xm396,-838r0,-62r35,0r0,62r-35,0","w":656},"\u00d7":{"d":"225,-482r196,207r197,-207r27,24r-199,208r201,211r-26,23r-200,-208r-199,208r-26,-23r201,-211r-199,-208","w":833},"\u00d8":{"d":"498,-662v78,63,97,167,98,315v0,127,-18,218,-56,273v-38,55,-109,83,-212,83v-53,0,-97,-8,-134,-23r-58,125r-33,-13r60,-129v-84,-58,-103,-165,-103,-316v0,-123,19,-214,58,-273v39,-59,109,-89,210,-89v55,0,101,9,140,28r52,-111r33,14xm452,-648v-59,-33,-177,-35,-240,-6v-61,28,-91,91,-104,166v-15,84,-12,250,8,321v13,45,32,80,63,103xm209,-46v56,28,179,26,237,2v61,-25,91,-86,103,-159v6,-37,9,-85,9,-144v0,-140,-25,-233,-76,-280","w":656},"\u00d9":{"d":"316,9v-146,0,-226,-58,-226,-205r0,-504r36,0r0,504v0,123,68,171,190,171v128,0,200,-44,200,-171r0,-504r36,0r0,504v0,150,-84,205,-236,205xm233,-932r192,96r-15,27r-193,-92","w":642},"\u00da":{"d":"316,9v-146,0,-226,-58,-226,-205r0,-504r36,0r0,504v0,123,68,171,190,171v128,0,200,-44,200,-171r0,-504r36,0r0,504v0,150,-84,205,-236,205xm217,-836r192,-96r16,31r-193,92","w":642},"\u00db":{"d":"316,9v-146,0,-226,-58,-226,-205r0,-504r36,0r0,504v0,123,68,171,190,171v128,0,200,-44,200,-171r0,-504r36,0r0,504v0,150,-84,205,-236,205xm186,-800r121,-132r28,0r122,132r-42,0r-93,-98r-94,98r-42,0","w":642},"\u00dc":{"d":"316,9v-146,0,-226,-58,-226,-205r0,-504r36,0r0,504v0,123,68,171,190,171v128,0,200,-44,200,-171r0,-504r36,0r0,504v0,150,-84,205,-236,205xm220,-838r0,-62r35,0r0,62r-35,0xm390,-838r0,-62r35,0r0,62r-35,0","w":642},"\u00dd":{"d":"289,-301r0,301r-36,0r0,-301r-228,-399r41,0r205,359r202,-359r42,0xm166,-836r192,-96r16,31r-193,92","w":540},"\u00de":{"d":"527,-367v-1,-122,-47,-176,-169,-177r-219,0r0,375r219,0v113,0,169,-66,169,-198xm358,-578v145,1,206,66,207,211v0,155,-69,232,-207,232r-219,0r0,135r-36,0r0,-700r36,0r0,122r219,0","w":615},"\u00df":{"d":"366,-676v-110,0,-117,36,-117,157r0,519r-36,0r0,-532v3,-134,24,-178,153,-178v123,0,185,26,190,135v5,90,-64,96,-122,125v-13,8,-14,27,0,38v40,30,163,85,200,134v5,7,7,16,7,27v1,130,-22,213,-116,245v-48,17,-134,16,-200,11r4,-34v81,7,127,6,182,-9v51,-14,78,-61,87,-113v4,-24,5,-57,5,-100v0,-8,-10,-18,-27,-31v-22,-17,-156,-92,-176,-110v-19,-17,-20,-63,0,-79v26,-21,94,-34,111,-58v5,-7,7,-23,7,-46v-3,-87,-54,-101,-152,-101","w":833},"\u00e0":{"d":"383,-353v0,-82,-33,-121,-111,-122v-56,0,-139,10,-189,17r-3,-33v75,-12,139,-18,192,-18v97,0,146,52,146,156r0,287v3,24,28,38,75,42r-2,32v-50,0,-84,-13,-103,-40v-62,27,-131,41,-206,41v-84,0,-128,-57,-127,-146v1,-93,47,-134,138,-144r190,-20r0,-52xm92,-137v-1,66,30,113,91,114v69,0,152,-20,200,-40r0,-205r-186,18v-70,7,-105,45,-105,113xm155,-732r192,96r-15,27r-193,-92","w":536},"\u00e1":{"d":"55,-137v-1,89,43,146,127,146v73,0,142,-14,206,-41v19,27,53,40,103,40r2,-32v-47,-4,-75,-18,-75,-42r0,-287v0,-104,-49,-156,-146,-156v-59,1,-142,9,-192,18r3,33v77,-11,140,-17,189,-17v78,1,111,40,111,122r0,52r-190,20v-92,9,-136,50,-138,144xm183,-23v-60,-1,-91,-48,-91,-114v0,-68,35,-106,105,-113r186,-18r0,205v-67,27,-134,40,-200,40xm199,-636r192,-96r16,31r-193,92","w":536},"\u00e2":{"d":"55,-137v-1,89,43,146,127,146v73,0,142,-14,206,-41v19,27,53,40,103,40r2,-32v-47,-4,-75,-18,-75,-42r0,-287v0,-104,-49,-156,-146,-156v-59,1,-142,9,-192,18r3,33v77,-11,140,-17,189,-17v78,1,111,40,111,122r0,52r-190,20v-92,9,-136,50,-138,144xm183,-23v-60,-1,-91,-48,-91,-114v0,-68,35,-106,105,-113r186,-18r0,205v-67,27,-134,40,-200,40xm110,-600r121,-132r28,0r122,132r-42,0r-93,-98r-94,98r-42,0","w":536},"\u00e3":{"d":"55,-137v-1,89,43,146,127,146v73,0,142,-14,206,-41v19,27,53,40,103,40r2,-32v-47,-4,-75,-18,-75,-42r0,-287v0,-104,-49,-156,-146,-156v-59,1,-142,9,-192,18r3,33v77,-11,140,-17,189,-17v78,1,111,40,111,122r0,52r-190,20v-92,9,-136,50,-138,144xm183,-23v-60,-1,-91,-48,-91,-114v0,-68,35,-106,105,-113r186,-18r0,205v-67,27,-134,40,-200,40xm315,-630v-38,0,-98,-54,-129,-54v-17,0,-40,14,-69,41r-25,-18v64,-59,97,-72,166,-27v60,39,63,35,118,-14r22,17v-34,37,-62,55,-83,55","w":536},"\u00e4":{"d":"55,-137v-1,89,43,146,127,146v73,0,142,-14,206,-41v19,27,53,40,103,40r2,-32v-47,-4,-75,-18,-75,-42r0,-287v0,-104,-49,-156,-146,-156v-59,1,-142,9,-192,18r3,33v77,-11,140,-17,189,-17v78,1,111,40,111,122r0,52r-190,20v-92,9,-136,50,-138,144xm183,-23v-60,-1,-91,-48,-91,-114v0,-68,35,-106,105,-113r186,-18r0,205v-67,27,-134,40,-200,40xm141,-638r0,-62r35,0r0,62r-35,0xm311,-638r0,-62r35,0r0,62r-35,0","w":536},"\u00e5":{"d":"55,-137v-1,89,43,146,127,146v73,0,142,-14,206,-41v19,27,53,40,103,40r2,-32v-47,-4,-75,-18,-75,-42r0,-287v0,-104,-49,-156,-146,-156v-59,1,-142,9,-192,18r3,33v77,-11,140,-17,189,-17v78,1,111,40,111,122r0,52r-190,20v-92,9,-136,50,-138,144xm183,-23v-60,-1,-91,-48,-91,-114v0,-68,35,-106,105,-113r186,-18r0,205v-67,27,-134,40,-200,40xm245,-554v-53,0,-94,-41,-94,-94v0,-52,42,-94,94,-94v52,0,94,42,94,94v0,52,-42,94,-94,94xm246,-709v-34,0,-61,27,-61,61v0,34,27,62,61,62v33,0,60,-29,60,-62v0,-33,-27,-61,-60,-61","w":536},"\u00e6":{"d":"418,-236v2,132,28,211,152,213v47,0,107,-3,182,-9r2,32v-144,8,-262,31,-328,-49v-69,32,-153,58,-244,58v-85,0,-127,-49,-127,-146v0,-53,14,-88,39,-107v47,-35,197,-48,289,-57r0,-52v0,-82,-33,-121,-111,-122v-49,0,-112,3,-188,9r-2,-33v73,-7,137,-10,190,-10v77,0,123,32,139,96v33,-64,90,-96,172,-96v152,1,196,105,190,273r-355,0xm92,-137v-1,67,29,114,91,114v76,0,175,-29,228,-51v-20,-39,-30,-104,-30,-194r-184,18v-71,7,-104,38,-105,113xm736,-268v-1,-136,-31,-209,-153,-209v-110,0,-165,70,-165,209r318,0","w":828},"\u00e7":{"d":"60,-261v0,-174,41,-245,205,-248r120,10r-2,32v-53,-7,-93,-10,-118,-10v-140,3,-168,67,-168,216v0,90,11,153,33,187v22,34,67,56,135,51r120,-9r2,32v-126,17,-236,17,-285,-48v-29,-38,-42,-110,-42,-213xm253,47v43,2,53,15,53,60v0,49,-12,63,-61,64v-8,0,-18,-1,-31,-4r2,-26v6,1,15,2,28,2v28,-1,28,-8,28,-36v0,-28,0,-31,-28,-32r-24,0r0,-76r33,0r0,48","w":437},"\u00e8":{"d":"97,-236v2,132,28,211,152,213v47,0,107,-3,182,-9r2,32v-75,6,-136,9,-185,9v-154,0,-188,-96,-188,-259v0,-173,67,-259,202,-259v152,1,196,105,190,273r-355,0xm415,-268v-1,-136,-31,-209,-153,-209v-110,0,-165,70,-165,209r318,0xm147,-732r192,96r-15,27r-193,-92","w":497},"\u00e9":{"d":"97,-236v2,132,28,211,152,213v47,0,107,-3,182,-9r2,32v-75,6,-136,9,-185,9v-154,0,-188,-96,-188,-259v0,-173,67,-259,202,-259v152,1,196,105,190,273r-355,0xm415,-268v-1,-136,-31,-209,-153,-209v-110,0,-165,70,-165,209r318,0xm173,-636r192,-96r16,31r-193,92","w":497},"\u00ea":{"d":"97,-236v2,132,28,211,152,213v47,0,107,-3,182,-9r2,32v-75,6,-136,9,-185,9v-154,0,-188,-96,-188,-259v0,-173,67,-259,202,-259v152,1,196,105,190,273r-355,0xm415,-268v-1,-136,-31,-209,-153,-209v-110,0,-165,70,-165,209r318,0xm130,-600r121,-132r28,0r122,132r-42,0r-93,-98r-94,98r-42,0","w":497},"\u00eb":{"d":"97,-236v2,132,28,211,152,213v47,0,107,-3,182,-9r2,32v-75,6,-136,9,-185,9v-154,0,-188,-96,-188,-259v0,-173,67,-259,202,-259v152,1,196,105,190,273r-355,0xm415,-268v-1,-136,-31,-209,-153,-209v-110,0,-165,70,-165,209r318,0xm165,-638r0,-62r35,0r0,62r-35,0xm335,-638r0,-62r35,0r0,62r-35,0","w":497},"\u00ec":{"d":"11,-732r192,96r-15,27r-193,-92xm113,0r0,-500r35,0r0,500r-35,0","w":261},"\u00ed":{"d":"57,-636r192,-96r16,31r-193,92xm113,0r0,-500r35,0r0,500r-35,0","w":261},"\u00ee":{"d":"113,0r0,-500r35,0r0,500r-35,0xm-5,-600r121,-132r28,0r122,132r-42,0r-93,-98r-94,98r-42,0","w":261},"\u00ef":{"d":"28,-638r0,-62r35,0r0,62r-35,0xm198,-638r0,-62r35,0r0,62r-35,0xm113,0r0,-500r35,0r0,500r-35,0","w":261},"\u00f1":{"d":"136,-427v56,-38,238,-87,280,-7v40,77,20,304,24,434r35,0v-4,-143,14,-378,-32,-458v-29,-51,-137,-62,-214,-38v-43,13,-63,21,-93,36r0,-40r-35,0r0,500r35,0r0,-427xm368,-630v-38,0,-98,-54,-129,-54v-17,0,-40,14,-69,41r-25,-18v64,-59,98,-71,167,-27v60,39,60,34,117,-14r22,17v-34,37,-62,55,-83,55","w":574},"\u00f2":{"d":"60,-261v0,-174,42,-248,205,-248v151,0,201,85,201,250v0,98,-14,167,-41,207v-27,40,-81,61,-160,61v-81,0,-135,-19,-163,-58v-28,-39,-42,-109,-42,-212xm265,-477v-144,0,-168,61,-168,216v0,85,1,133,29,183v25,45,68,55,139,55v70,0,114,-13,137,-59v25,-51,27,-96,27,-177v0,-143,-36,-218,-164,-218xm155,-732r192,96r-15,27r-193,-92","w":536},"\u00f3":{"d":"466,-259v0,-165,-49,-250,-201,-250v-163,0,-205,74,-205,248v0,103,14,173,42,212v28,39,82,58,163,58v174,0,201,-84,201,-268xm265,-477v128,0,164,76,164,218v0,81,-2,126,-27,177v-23,46,-67,59,-137,59v-71,0,-114,-10,-139,-55v-28,-50,-29,-98,-29,-183v0,-156,24,-216,168,-216xm179,-636r192,-96r16,31r-193,92","w":536},"\u00f4":{"d":"466,-259v0,-165,-49,-250,-201,-250v-163,0,-205,74,-205,248v0,103,14,173,42,212v28,39,82,58,163,58v174,0,201,-84,201,-268xm265,-477v128,0,164,76,164,218v0,81,-2,126,-27,177v-23,46,-67,59,-137,59v-71,0,-114,-10,-139,-55v-28,-50,-29,-98,-29,-183v0,-156,24,-216,168,-216xm128,-600r121,-132r28,0r122,132r-42,0r-93,-98r-94,98r-42,0","w":536},"\u00f5":{"d":"466,-259v0,-165,-49,-250,-201,-250v-163,0,-205,74,-205,248v0,103,14,173,42,212v28,39,82,58,163,58v174,0,201,-84,201,-268xm265,-477v128,0,164,76,164,218v0,81,-2,126,-27,177v-23,46,-67,59,-137,59v-71,0,-114,-10,-139,-55v-28,-50,-29,-98,-29,-183v0,-156,24,-216,168,-216xm333,-630v-38,0,-98,-54,-129,-54v-17,0,-40,14,-69,41r-25,-18v64,-59,97,-72,166,-27v60,39,63,35,118,-14r22,17v-34,37,-62,55,-83,55","w":536},"\u00f6":{"d":"466,-259v0,-165,-49,-250,-201,-250v-163,0,-205,74,-205,248v0,103,14,173,42,212v28,39,82,58,163,58v174,0,201,-84,201,-268xm265,-477v128,0,164,76,164,218v0,81,-2,126,-27,177v-23,46,-67,59,-137,59v-71,0,-114,-10,-139,-55v-28,-50,-29,-98,-29,-183v0,-156,24,-216,168,-216xm161,-638r0,-62r35,0r0,62r-35,0xm331,-638r0,-62r35,0r0,62r-35,0","w":536},"\u00f7":{"d":"33,-334r0,-36r336,0r0,36r-336,0xm181,-483r0,-80r40,0r0,80r-40,0xm181,-139r0,-80r40,0r0,80r-40,0"},"\u00f8":{"d":"60,-261v0,-174,42,-244,205,-248v31,0,59,4,83,12r40,-96r30,11r-40,98v59,34,88,109,88,225v0,98,-14,167,-41,207v-27,40,-81,61,-160,61v-33,0,-61,-3,-85,-9r-42,104r-30,-10r42,-104v-80,-40,-90,-120,-90,-251xm265,-477v-144,4,-168,61,-168,216v0,65,4,115,13,148v9,33,26,57,53,71r173,-424v-22,-7,-46,-11,-71,-11xm193,-30v42,11,124,9,159,-6v44,-18,65,-66,72,-118v3,-26,5,-61,5,-105v0,-97,-22,-161,-65,-192","w":526},"\u00f9":{"d":"254,-23v57,0,112,-18,164,-50r0,-427r35,0r0,500r-35,0r0,-40v-34,23,-106,48,-164,49v-67,0,-111,-17,-132,-51v-48,-78,-28,-316,-32,-458r35,0v4,132,-15,355,24,434v15,30,51,43,105,43xm164,-732r192,96r-15,27r-193,-92","w":511},"\u00fa":{"d":"418,-73v-50,41,-230,84,-269,7v-39,-77,-20,-304,-24,-434r-35,0v4,143,-16,378,32,458v21,34,65,51,132,51v56,0,111,-17,164,-49r0,40r35,0r0,-500r-35,0r0,427xm188,-636r192,-96r16,31r-193,92","w":511},"\u00fb":{"d":"418,-73v-50,41,-230,84,-269,7v-39,-77,-20,-304,-24,-434r-35,0v4,143,-16,378,32,458v21,34,65,51,132,51v56,0,111,-17,164,-49r0,40r35,0r0,-500r-35,0r0,427xm137,-600r121,-132r28,0r122,132r-42,0r-93,-98r-94,98r-42,0","w":511},"\u00fc":{"d":"418,-73v-50,41,-230,84,-269,7v-39,-77,-20,-304,-24,-434r-35,0v4,143,-16,378,32,458v21,34,65,51,132,51v56,0,111,-17,164,-49r0,40r35,0r0,-500r-35,0r0,427xm170,-638r0,-62r35,0r0,62r-35,0xm340,-638r0,-62r35,0r0,62r-35,0","w":511},"\u00fd":{"d":"30,-500r37,0r147,468r41,0r148,-468r37,0r-229,730r-37,0r72,-230r-61,0xm162,-636r192,-96r16,31r-193,92","w":480},"\u00fe":{"d":"176,-29v95,7,150,15,214,-7v80,-28,92,-110,91,-223v0,-79,-10,-136,-27,-169v-41,-82,-214,-43,-278,-9r0,408xm518,-261v0,192,-40,267,-228,270v-36,0,-74,-2,-114,-6r0,227r-35,0r0,-960r35,0r0,261v55,-27,113,-40,172,-40v150,0,170,85,170,248","w":538},"\u00ff":{"d":"30,-500r155,500r61,0r-72,230r37,0r229,-730r-37,0r-148,468r-41,0r-147,-468r-37,0xm137,-638r0,-62r35,0r0,62r-35,0xm307,-638r0,-62r35,0r0,62r-35,0","w":480},"\u0152":{"d":"884,1r-398,0v-103,9,-215,19,-291,-14v-111,-48,-135,-169,-135,-332v1,-117,12,-196,54,-267v40,-66,108,-97,214,-97v68,0,120,9,157,9r399,0r0,36r-363,0r0,286r303,0r0,36r-303,0r0,306r363,0r0,37xm211,-45v81,32,152,20,274,11r0,-629v-93,-8,-146,-12,-157,-12v-93,0,-151,28,-186,87v-50,83,-52,262,-35,381v10,73,42,138,104,162","w":944},"\u0153":{"d":"466,-236v2,132,28,211,152,213v47,0,107,-3,182,-9r2,32v-75,6,-136,9,-185,9v-87,0,-143,-36,-169,-107v-26,77,-79,107,-183,107v-81,0,-135,-19,-163,-58v-28,-39,-42,-109,-42,-212v0,-174,42,-248,205,-248v97,0,159,40,184,120v29,-80,90,-120,182,-120v152,1,196,105,190,273r-355,0xm265,-477v-144,0,-168,61,-168,216v0,85,1,133,29,183v25,45,68,55,139,55v70,0,114,-13,137,-59v25,-51,27,-96,27,-177v0,-143,-36,-218,-164,-218xm784,-268v-1,-136,-31,-209,-153,-209v-110,0,-165,70,-165,209r318,0","w":876},"\u0178":{"d":"289,-301r0,301r-36,0r0,-301r-228,-399r41,0r205,359r202,-359r42,0xm167,-838r0,-62r35,0r0,62r-35,0xm337,-838r0,-62r35,0r0,62r-35,0","w":540},"\u02c6":{"d":"275,-600r121,-132r28,0r122,132r-42,0r-93,-98r-94,98r-42,0","w":833},"\u02dc":{"d":"301,-630v-38,0,-98,-54,-129,-54v-17,0,-40,14,-69,41r-25,-18v64,-59,97,-72,166,-27v60,39,63,35,118,-14r22,17v-34,37,-62,55,-83,55","w":833},"\u2018":{"d":"114,-727r-40,200r-38,0r49,-200r29,0","w":170},"\u2019":{"d":"55,-527r40,-200r38,0r-49,200r-29,0","w":170},"\u2022":{"d":"247,0r0,-80r40,0r0,80r-40,0"},"\u20ac":{"d":"315,9v-179,-1,-232,-83,-246,-254r-64,0r0,-34r62,0v-1,-21,-1,-95,0,-114r-62,0r0,-34r64,0v16,-167,68,-249,246,-250v63,0,122,6,175,19r-3,35v-115,-26,-268,-37,-327,32v-30,35,-48,89,-53,164r311,1r0,33r-313,0v-1,20,-1,93,0,114r313,1r0,33r-312,0v13,149,52,219,209,220v47,0,105,-7,172,-20r3,34v-64,13,-122,20,-175,20"},"\u2122":{"d":"7,-590r0,-31r200,0r0,31r-83,0r0,258r-33,0r0,-258r-84,0xm242,-331r0,-290r50,0r84,242r87,-242r50,0r0,290r-32,0r0,-258r-88,247r-35,0r-84,-247r0,258r-32,0"}}});
