/*!
 * The following copyright notice may not be removed under any circumstances.
 * 
 * Copyright:
 * Generated in 2009 by FontLab Studio. Copyright info pending.
 */
Cufon.registerFont({"w":530,"face":{"font-family":"TitilliumText14L","font-weight":600,"font-stretch":"normal","units-per-em":"1000","panose-1":"0 0 0 0 0 0 0 0 0 0","ascent":"750","descent":"-250","x-height":"11","bbox":"-50 -957 937.084 240","underline-thickness":"50","underline-position":"-50","unicode-range":"U+0020-U+2122"},"glyphs":{" ":{"w":235},"!":{"d":"220,0r0,-132r102,0r0,132r-102,0xm223,-241r-3,-459r102,0r-3,459r-96,0"},"\"":{"d":"285,-464r-87,0r-1,-230r91,0xm128,-464r-87,0r-1,-230r91,0","w":325},"#":{"d":"523,-175r-106,0r0,175r-84,0r0,-175r-138,0r0,175r-84,0r0,-175r-105,0r0,-80r105,0r0,-154r-105,0r0,-80r105,0r0,-175r84,0r0,175r138,0r0,-175r84,0r0,175r106,0r0,80r-106,0r0,154r106,0r0,80xm333,-255r0,-154r-138,0r0,154r138,0"},"$":{"d":"493,-180v2,146,-95,195,-248,186r-14,114v-23,-2,-35,-4,-35,-7r14,-109r-144,-13r4,-35v51,7,99,12,144,15r39,-298v-64,-12,-97,-20,-140,-49v-38,-26,-52,-66,-52,-129v-1,-137,94,-168,237,-166r16,-119r35,0r-16,121r141,14r-3,34v-53,-6,-100,-11,-142,-14r-36,277v70,13,101,18,148,48v39,26,51,65,52,130xm279,-27v138,5,198,-83,168,-207v-17,-68,-84,-73,-159,-87r-38,294r29,0xm294,-637v-117,-1,-194,20,-194,130v0,48,11,81,34,99v23,18,65,33,124,44"},"%":{"d":"130,-701v78,0,117,48,117,144v0,93,-39,139,-117,139v-79,0,-118,-48,-118,-143v0,-93,39,-140,118,-140xm409,-285v78,0,117,47,117,141v0,95,-39,143,-117,143v-79,0,-118,-48,-118,-143v0,-94,39,-141,118,-141xm133,-6r205,-706r66,20r-205,707xm130,-641v-42,0,-45,31,-45,80v0,49,3,82,45,82v41,0,44,-34,44,-82v0,-48,-3,-80,-44,-80xm409,-224v-42,0,-45,31,-45,80v0,49,3,82,45,82v42,0,44,-33,44,-82v0,-49,-2,-80,-44,-80"},"&":{"d":"140,-550v0,-101,76,-156,183,-156v115,0,183,54,184,163v0,45,-11,82,-33,110v-22,28,-60,57,-113,87r122,122v12,-38,21,-81,27,-128r92,2v-10,73,-25,135,-46,186r123,117r-57,65r-114,-106v-61,67,-114,103,-230,105v-149,1,-236,-75,-236,-219v0,-115,62,-164,149,-203v-37,-49,-51,-69,-51,-145xm139,-203v0,86,53,133,142,132v79,-1,115,-28,156,-76r-187,-192v-74,28,-111,73,-111,136xm235,-538v0,53,32,102,67,132v40,-20,68,-39,84,-57v16,-18,25,-42,25,-71v0,-56,-29,-84,-88,-84v-59,0,-88,27,-88,80","w":700},"'":{"d":"2,-459r-2,-234r93,0r-5,234r-86,0","w":100},"(":{"d":"122,125v-41,-89,-97,-288,-97,-426v0,-151,54,-339,97,-449r102,0v-38,97,-93,310,-95,449v-2,112,37,275,95,426r-102,0","w":260},")":{"d":"122,-755v41,89,97,288,97,426v0,151,-54,339,-97,449r-102,0v38,-97,93,-310,95,-449v2,-112,-37,-275,-95,-426r102,0","w":260},"*":{"d":"446,-507r-129,0r40,124r-57,17r-41,-125r-106,79r-36,-46r107,-79r-104,-76r35,-48r104,74r41,-122r58,19r-40,125r128,0r0,58"},"+":{"d":"-10,-232r0,-86r206,0r0,-206r88,0r0,206r208,0r0,86r-208,0r0,208r-88,0r0,-208r-206,0","w":482},",":{"d":"15,123r48,-240r103,0r-57,240r-94,0","w":170},"-":{"d":"66,-235r0,-92r308,0r0,92r-308,0","w":440},".":{"d":"66,0r0,-132r103,0r0,132r-103,0","w":248},"\/":{"d":"77,-17r281,-696r90,32r-281,696"},"0":{"d":"264,-671v83,0,144,26,184,79v40,53,61,143,61,271v0,121,-20,207,-61,257v-41,50,-102,75,-184,75v-82,0,-143,-25,-184,-75v-41,-50,-61,-137,-61,-258v0,-127,20,-217,61,-270v41,-53,102,-79,184,-79xm265,-578v-51,0,-85,20,-109,55v-39,56,-43,334,0,391v24,32,58,50,109,50v50,0,83,-18,107,-50v42,-56,40,-337,2,-392v-24,-35,-58,-54,-109,-54"},"1":{"d":"53,-519r211,-141r91,0r0,660r-97,0r0,-548r-160,106"},"2":{"d":"253,-671v137,0,210,50,211,181v0,49,-11,91,-32,126v-53,87,-174,191,-251,271r298,0r0,93r-428,0r0,-89r177,-177v58,-62,81,-77,117,-141v13,-24,19,-48,19,-71v-1,-77,-49,-96,-132,-97v-48,0,-105,6,-170,19r-7,-89v70,-17,136,-26,198,-26"},"3":{"d":"371,-483v0,-138,-195,-89,-305,-77r-9,-86v72,-17,137,-25,196,-25v147,1,218,40,218,175v0,52,-15,88,-48,114v-28,23,-14,12,-43,32v70,31,106,60,106,158v0,142,-71,203,-218,203v-68,0,-141,-8,-220,-24r11,-88v73,12,138,18,197,18v87,-1,130,-36,130,-106v0,-66,-41,-103,-123,-103r-133,0r0,-89r133,0v49,1,108,-50,108,-102"},"4":{"d":"331,6r0,-116r-305,0r0,-80r185,-470r107,0r-181,457r194,0r0,-173r97,0r0,173r74,0r0,93r-74,0r0,116r-97,0"},"5":{"d":"265,-83v77,0,126,-50,126,-129v0,-76,-41,-114,-124,-114v-49,0,-102,17,-135,31r-77,-16r21,-350r391,0r0,94r-303,0r-17,181v49,-21,92,-31,129,-31v141,1,215,59,215,200v0,144,-81,227,-223,227v-68,0,-143,-10,-224,-29r11,-88v82,16,152,24,210,24"},"6":{"d":"498,-209v0,144,-85,221,-231,220v-83,0,-142,-29,-179,-85v-37,-56,-56,-142,-56,-257v0,-123,22,-211,64,-263v56,-69,157,-89,276,-72v31,4,55,8,73,11r27,5r-9,88v-106,-16,-238,-39,-293,31v-25,31,-38,81,-38,149v55,-23,103,-34,146,-34v146,0,220,63,220,207xm131,-297v3,123,23,216,136,216v87,0,130,-43,130,-128v0,-79,-42,-118,-126,-118v-46,0,-93,12,-140,30"},"7":{"d":"49,-567r0,-94r414,0r0,121r-250,554r-91,-27r241,-531r0,-23r-314,0"},"8":{"d":"31,-498v0,-123,102,-173,237,-173v135,0,241,50,241,174v0,93,-32,115,-98,154v66,40,108,68,108,164v0,127,-84,190,-251,190v-165,0,-248,-60,-248,-179v0,-102,38,-131,104,-175v-60,-38,-93,-67,-93,-155xm415,-191v0,-66,-42,-86,-98,-105r-100,0v-62,19,-93,55,-93,108v0,71,48,106,144,106v98,0,147,-36,147,-109xm405,-484v0,-75,-54,-94,-136,-94v-82,0,-134,18,-134,94v0,60,34,81,82,102r100,0v50,-20,88,-42,88,-102"},"9":{"d":"28,-455v0,-138,94,-217,233,-216v82,0,141,30,178,89v37,59,55,145,55,258v0,123,-22,209,-64,260v-56,67,-157,86,-275,70v-31,-4,-56,-8,-75,-12r-28,-5r9,-88v108,15,239,39,295,-30v25,-31,37,-78,38,-141r-22,6v-27,7,-89,20,-124,19v-141,0,-220,-70,-220,-210xm261,-580v-81,-1,-134,45,-133,125v0,81,43,121,128,121v46,0,105,-13,139,-24v-2,-148,-47,-222,-134,-222"},":":{"d":"52,-311r0,-132r102,0r0,132r-102,0xm52,0r0,-132r102,0r0,132r-102,0","w":194},";":{"d":"71,-129r-54,246r88,0r69,-246r-103,0xm64,-311r0,-132r102,0r0,132r-102,0","w":213},"<":{"d":"410,-56v-33,-15,-316,-188,-347,-204r0,-98r347,-201r0,100r-255,148r255,155r0,100"},"=":{"d":"29,-337r0,-87r463,0r0,87r-463,0xm29,-139r0,-87r463,0r0,87r-463,0"},">":{"d":"318,-311r-255,-148r0,-100r347,201r0,98v-31,16,-315,189,-347,204r0,-100"},"?":{"d":"176,-712v144,1,215,43,215,182v0,101,-64,156,-121,200v-29,22,-62,49,-65,90r0,38r-100,0v-1,-45,0,-77,19,-108v37,-61,107,-87,145,-146v13,-19,19,-40,19,-63v-2,-76,-34,-94,-116,-95v-33,0,-84,7,-153,22r-12,-92v77,-19,133,-28,169,-28xm104,0r0,-132r102,0r0,132r-102,0","w":386},"@":{"d":"504,-725v298,0,437,139,433,437v-2,168,-20,298,-181,298v-62,-1,-97,-12,-121,-51v-65,33,-120,50,-167,50v-142,0,-180,-103,-180,-251v0,-168,38,-265,199,-267v27,0,63,8,109,24r0,-15r94,0r0,200v0,69,1,120,6,150v8,52,11,70,60,70v53,0,61,-19,74,-72v8,-32,12,-93,11,-154v-2,-238,-97,-328,-337,-328v-248,0,-361,120,-360,373v1,272,93,371,360,375r143,-10r4,91v-289,35,-507,-15,-574,-231v-19,-61,-29,-136,-29,-225v0,-309,152,-464,456,-464xm505,-420v-110,3,-121,59,-121,179v0,61,8,103,24,125v16,22,39,33,67,33v36,0,79,-11,129,-33v-11,-61,-8,-201,-8,-287v-37,-11,-68,-17,-91,-17","w":985},"A":{"d":"26,0r178,-694r199,0r176,693r-98,0r-45,-155r-270,0r-43,156r-97,0xm278,-604r-91,355r229,0r-89,-355r-49,0","w":605},"B":{"d":"462,-356v68,27,103,67,103,161v0,130,-72,195,-217,195r-265,0r0,-694r255,0v139,0,208,58,208,173v0,92,-25,133,-84,165xm344,-90v79,-1,121,-32,121,-112v0,-69,-41,-104,-124,-104r-162,0r0,216r165,0xm447,-506v-1,-73,-38,-98,-113,-98r-155,0r0,210r160,0v72,0,108,-37,108,-112","w":614},"C":{"d":"493,-101r3,88v-124,25,-224,39,-321,2v-69,-27,-102,-98,-117,-180v-7,-41,-11,-93,-11,-155v0,-127,20,-217,55,-274v46,-75,166,-97,289,-78v33,5,58,8,77,12r28,6r-3,87v-75,-11,-135,-17,-178,-17v-67,0,-108,21,-133,58v-42,63,-43,346,-1,410v24,37,67,58,136,58v39,0,98,-6,176,-17","w":535},"D":{"d":"323,-694v212,1,267,120,267,335v0,112,-13,186,-52,257v-38,67,-110,102,-215,102r-240,0r0,-694r240,0xm323,-92v143,-1,167,-121,167,-267v0,-150,-24,-243,-167,-243r-144,0r0,510r144,0","w":637},"E":{"d":"83,0r0,-694r427,0r0,93r-331,0r0,208r271,0r0,91r-271,0r0,209r331,0r0,93r-427,0","w":561},"F":{"d":"83,0r0,-694r427,0r0,93r-331,0r0,246r271,0r0,92r-271,0r0,263r-96,0","w":548},"G":{"d":"327,-83v43,0,87,-6,124,-11r0,-177r-97,0r0,-87r193,0r0,345v-95,16,-170,24,-227,24v-218,-2,-272,-131,-272,-358v0,-123,22,-212,60,-271v53,-80,181,-100,314,-80v38,5,68,9,91,14r34,7r-4,85v-81,-12,-152,-18,-213,-18v-71,0,-116,21,-144,59v-48,65,-48,343,-2,409v26,38,72,59,143,59","w":604},"H":{"d":"499,0r0,-305r-319,0r0,305r-97,0r0,-694r97,0r0,296r319,0r0,-296r98,0r0,694r-98,0","w":680},"I":{"d":"80,0r0,-694r97,0r0,694r-97,0","w":257},"J":{"d":"32,-19v84,-2,100,-13,100,-100r0,-575r97,0r1,583v3,103,-27,161,-108,176v-22,4,-53,6,-90,6r0,-90","w":310},"K":{"d":"449,0r-161,-294r-108,6r0,288r-97,0r0,-694r97,0r0,312r106,-6r155,-306r113,0r-181,347r190,347r-114,0","w":595},"L":{"d":"466,0r-383,0r0,-694r97,0r0,601r286,0r0,93","w":504},"M":{"d":"83,0r0,-694r163,0r179,556r180,-556r161,0r0,694r-97,0r0,-576r-15,0r-178,550r-103,0r-178,-550r-15,0r0,576r-97,0","w":849},"N":{"d":"83,0r0,-694r164,0r248,576r20,0r0,-576r97,0r0,694r-160,0r-252,-576r-20,0r0,576r-97,0","w":695},"O":{"d":"324,-83v69,0,114,-21,140,-59v47,-69,45,-333,-1,-404v-27,-41,-71,-65,-139,-65v-68,0,-112,23,-139,65v-47,72,-48,332,-1,402v26,39,71,61,140,61xm324,-705v220,2,277,133,277,362v0,123,-21,213,-61,269v-40,56,-112,85,-216,85v-221,0,-276,-124,-276,-354v0,-122,21,-213,62,-273v41,-60,112,-89,214,-89","w":649},"P":{"d":"563,-465v0,155,-74,244,-228,244r-155,0r0,221r-97,0r0,-694r252,0v152,0,228,76,228,229xm464,-465v0,-92,-38,-136,-129,-136r-155,0r0,287r155,0v86,0,129,-50,129,-151","w":601},"Q":{"d":"601,-343v0,152,-24,256,-110,314r83,136r-90,42r-89,-145v-25,5,-48,7,-71,7v-221,-2,-276,-124,-276,-354v0,-122,21,-213,62,-273v41,-60,112,-89,214,-89v220,2,277,133,277,362xm324,-83v69,0,114,-21,140,-59v47,-69,45,-333,-1,-404v-27,-41,-71,-65,-139,-65v-68,0,-112,23,-139,65v-47,72,-48,332,-1,402v26,39,71,61,140,61","w":649},"R":{"d":"342,-694v154,1,226,64,227,217v0,103,-39,170,-118,201r122,276r-107,0r-111,-250r-175,0r0,250r-97,0r0,-694r259,0xm469,-475v0,-85,-42,-127,-127,-127r-162,0r0,260r163,0v84,0,126,-44,126,-133","w":620},"S":{"d":"51,-517v0,-159,140,-208,305,-183r111,17r-8,88v-85,-11,-147,-16,-186,-16v-83,0,-124,31,-124,92v0,36,10,61,29,75v19,14,59,30,121,49v68,21,115,45,142,71v27,26,40,67,40,124v0,140,-73,210,-218,210v-63,0,-153,-15,-211,-23r10,-89v86,11,153,17,200,17v81,-1,121,-31,121,-112v0,-32,-10,-54,-26,-69v-27,-24,-159,-57,-199,-77v-65,-31,-107,-74,-107,-174","w":532},"T":{"d":"-6,-601r0,-93r500,0r0,93r-200,0r0,601r-98,0r0,-601r-202,0","w":488},"U":{"d":"318,9v-161,0,-246,-65,-246,-225r0,-478r97,0r0,478v0,96,54,130,149,130v96,0,152,-34,152,-130r0,-478r98,0r0,478v0,162,-86,225,-250,225","w":640},"V":{"d":"472,-694r101,0r-173,694r-200,0r-174,-694r101,0r148,601r50,0","w":599},"W":{"d":"32,-694r101,0r120,595r24,0r125,-591r110,0r126,591r24,0r118,-595r101,0r-150,694r-161,0r-114,-549r-110,549r-162,0","w":913},"X":{"d":"134,-694r157,275r156,-275r109,0r-199,350r199,344r-109,0r-156,-271r-157,271r-109,0r202,-344r-202,-350r109,0","w":581},"Y":{"d":"329,-297r0,297r-97,0r0,-297r-216,-397r108,0r156,288r154,-288r109,0","w":559},"Z":{"d":"60,-601r0,-93r450,0r0,108r-329,475r0,18r329,0r0,93r-450,0r0,-107r329,-475r0,-19r-329,0","w":570},"[":{"d":"261,-749r0,92r-128,0r0,688r128,0r0,92r-224,0r-1,-872r225,0","w":300},"\\":{"d":"619,-6r-104,6r-305,-696r104,-6","w":833},"]":{"d":"-21,-657r0,-92r225,0r-1,872r-224,0r0,-92r128,0r0,-688r-128,0","w":300},"^":{"d":"379,-439r-110,-215r-113,215r-140,0r181,-347r140,0r182,347r-140,0","w":651},"_":{"d":"27,5r428,0r0,86r-428,0r0,-86","w":520},"`":{"d":"148,-757r230,93r-34,84r-231,-89","w":545},"a":{"d":"277,-510v112,1,164,51,164,165r0,226v2,33,18,44,49,48r-3,81v-65,0,-94,-7,-127,-36v-58,25,-116,37,-174,37v-92,0,-141,-61,-140,-157v1,-106,57,-141,160,-150r140,-12r0,-36v0,-51,-25,-76,-74,-76v-56,1,-141,7,-192,14r-4,-84v83,-13,150,-20,201,-20xm346,-234r-129,10v-50,4,-75,29,-75,76v0,51,20,77,61,77v43,0,90,-8,143,-25r0,-138","w":524},"b":{"d":"498,-257v0,198,-49,265,-241,268v-37,0,-96,-4,-176,-12r0,-711r94,0r0,232v48,-20,93,-30,134,-30v153,0,189,85,189,253xm401,-257v0,-104,-14,-166,-103,-166v-41,0,-92,12,-123,21r0,322v39,3,67,5,82,5v126,-2,144,-51,144,-182","w":543},"c":{"d":"45,-257v0,-171,47,-253,209,-253v43,0,105,9,144,16r-4,82v-53,-6,-92,-9,-117,-9v-115,2,-136,45,-136,164v0,130,14,175,137,178r117,-8r3,82v-65,11,-113,16,-146,16v-170,-4,-207,-85,-207,-268","w":436},"d":{"d":"45,-250v0,-185,69,-275,253,-258v26,2,50,6,73,10r0,-202r94,0r0,700r-94,0r0,-29v-94,54,-219,56,-280,-19v-31,-39,-46,-106,-46,-202xm259,-425v-98,3,-117,67,-118,176v0,65,9,111,26,135v45,60,128,37,204,8r0,-309r-69,-8v-16,-1,-30,-2,-43,-2","w":546},"e":{"d":"141,-210v1,90,32,133,121,134v51,0,113,-3,184,-9r2,75v-76,14,-142,21,-199,21v-158,0,-204,-90,-204,-257v0,-176,71,-264,213,-264v147,0,207,79,207,231r-6,69r-318,0xm371,-284v-1,-96,-24,-142,-113,-142v-86,0,-117,50,-118,142r231,0","w":507},"f":{"d":"244,-637v-60,2,-63,32,-65,100r0,38r137,0r0,85r-137,0r0,414r-95,0r0,-414r-60,0r0,-85r60,0r0,-39v2,-130,21,-180,139,-184r105,9r-1,78v-35,-1,-62,-2,-83,-2","w":337},"g":{"d":"293,-77v142,0,201,17,201,148v0,113,-76,169,-227,169v-145,0,-224,-21,-224,-153v0,-67,32,-87,77,-124v-27,-17,-41,-62,-22,-100v10,-19,17,-34,27,-50v-51,-27,-76,-77,-76,-150v0,-158,150,-197,298,-160r148,-3r0,78r-81,0v17,21,26,49,26,85v-1,134,-63,169,-199,171v-17,0,-33,-1,-46,-4v-10,26,-15,43,-15,52v0,18,6,29,18,34v12,5,44,7,95,7xm268,155v77,0,130,-13,130,-79v0,-72,-33,-66,-113,-71r-102,-5v-29,24,-46,35,-46,78v0,69,48,77,131,77xm144,-337v0,67,28,91,97,91v74,0,105,-19,105,-91v0,-74,-28,-92,-103,-92v-69,0,-99,24,-99,92","w":524},"h":{"d":"319,-510v151,0,171,84,171,249r0,261r-94,0r0,-260v0,-61,-6,-102,-18,-126v-12,-24,-37,-36,-76,-36v-37,0,-79,8,-127,23r0,399r-94,0r0,-720r94,0r0,241v54,-21,102,-31,144,-31","w":563},"i":{"d":"76,0r0,-499r95,0r0,499r-95,0xm76,-596r0,-105r95,0r0,105r-95,0","w":247},"j":{"d":"85,-6r0,-493r95,0r0,494v0,63,-11,111,-34,142v-23,31,-68,64,-137,99r-41,-79v49,-28,82,-52,96,-71v14,-19,21,-50,21,-92xm85,-602r0,-104r95,0r0,104r-95,0","w":256},"k":{"d":"175,0r-94,0r0,-712r94,0r0,410r68,-6r132,-191r107,0r-154,232r158,267r-107,0r-134,-216r-70,6r0,210","w":504},"l":{"d":"78,0r0,-712r95,0r0,712r-95,0","w":251},"m":{"d":"174,-469v71,-44,206,-61,262,3v75,-29,135,-44,178,-44v67,0,112,18,136,55v53,82,31,309,35,455r-94,0v-3,-114,10,-309,-16,-383v-23,-65,-157,-34,-203,-8v7,17,10,61,10,132r0,259r-94,0r0,-257v0,-64,-6,-108,-18,-131v-12,-23,-37,-34,-76,-34v-37,0,-76,10,-119,30r0,392r-94,0r0,-499r93,0r0,30","w":858},"n":{"d":"319,-510v152,0,172,84,172,249r0,261r-95,0r0,-260v0,-61,-6,-102,-18,-126v-12,-24,-37,-36,-75,-36v-37,0,-80,10,-128,30r0,392r-94,0r0,-499r94,0r0,29v55,-27,103,-40,144,-40","w":566},"o":{"d":"45,-254v0,-168,55,-256,220,-256v160,0,218,92,218,256v0,173,-48,265,-218,265v-172,0,-220,-90,-220,-265xm141,-254v0,120,13,179,124,179v109,0,122,-62,122,-179v0,-109,-23,-171,-122,-171v-106,0,-124,56,-124,171","w":528},"p":{"d":"499,-255v0,185,-49,262,-221,266v-36,0,-70,-4,-103,-11r0,218r-94,0r0,-717r94,0r0,30v47,-27,93,-41,137,-41v147,0,187,92,187,255xm402,-256v0,-102,-20,-168,-106,-168v-43,0,-92,18,-121,33r0,308v48,5,80,8,97,8v110,-3,130,-60,130,-181","w":544},"q":{"d":"45,-242v0,-174,57,-278,228,-268r183,11r0,718r-94,0r0,-231v-30,15,-66,23,-108,23v-155,-1,-209,-94,-209,-253xm140,-243v0,100,24,166,114,168v37,0,73,-9,108,-26r0,-320v-40,-3,-70,-4,-89,-4v-109,2,-133,65,-133,182","w":537},"r":{"d":"81,0r0,-499r94,0r0,59v47,-35,102,-59,163,-71r0,100v-61,12,-116,32,-163,61r0,350r-94,0","w":358},"s":{"d":"52,-359v-1,-133,127,-165,264,-146v31,4,56,7,76,11r30,5r-2,80v-77,-11,-136,-16,-177,-16v-57,1,-95,11,-96,64v0,19,8,33,23,41v15,8,45,16,91,23v67,11,114,27,139,47v25,20,38,54,38,102v0,145,-126,173,-272,154r-108,-17r4,-81v80,11,137,17,171,17v69,-1,108,-9,110,-70v0,-21,-7,-35,-21,-43v-14,-8,-44,-16,-89,-23v-67,-11,-114,-27,-141,-46v-27,-19,-40,-53,-40,-102","w":491},"t":{"d":"234,11v-122,-3,-144,-53,-144,-185r0,-240r-67,0r0,-85r67,0r0,-150r94,0r0,150r147,0r0,85r-147,0r0,218v0,48,3,80,10,95v16,36,91,18,137,18r5,82v-45,8,-79,12,-102,12","w":359},"u":{"d":"384,-499r95,0r0,499r-95,0r0,-29v-52,27,-99,40,-140,40v-69,0,-114,-19,-137,-55v-51,-82,-30,-310,-34,-455r95,0r0,259v0,65,6,109,16,132v22,52,139,31,182,10r18,-7r0,-394","w":559},"v":{"d":"19,-499r98,0r108,420r33,0r109,-420r97,0r-135,499r-176,0","w":482},"w":{"d":"22,-499r94,0r88,414r19,0r104,-405r100,0r104,405r19,0r88,-414r94,0r-111,499r-156,0r-89,-363r-89,363r-155,0","w":754},"x":{"d":"21,-499r102,0r108,181r109,-181r101,0r-149,250r149,249r-102,0r-108,-181r-108,181r-102,0r149,-249","w":463},"y":{"d":"19,-499r94,0r113,408r30,0r114,-408r94,0r-141,511r-55,205r-94,0r59,-217r-78,0","w":483},"z":{"d":"54,-415r0,-85r371,0r0,85r-257,330r257,0r0,85r-371,0r0,-85r257,-330r-257,0","w":479},"{":{"d":"113,-313v69,24,105,55,100,142r-7,117v2,71,27,86,100,92r-1,92v-133,-6,-198,-45,-200,-174r7,-122v-3,-68,-36,-87,-98,-106r0,-80v64,-17,102,-34,98,-102r-7,-127v2,-132,65,-169,200,-176r1,92v-73,6,-104,19,-100,90r7,124v-1,89,-29,114,-100,138","w":317},"|":{"d":"211,162r0,-892r97,0r0,892r-97,0"},"}":{"d":"200,-310v-69,-24,-105,-55,-100,-142r7,-117v-2,-71,-27,-86,-100,-92r1,-92v133,6,198,45,200,174r-7,122v3,68,36,87,98,106r0,80v-64,17,-102,34,-98,102r7,127v-2,132,-65,169,-200,176r-1,-92v73,-6,104,-19,100,-90r-7,-124v1,-89,29,-114,100,-138","w":317},"\u00a0":{"w":235},"\u00a2":{"d":"128,-249v0,101,29,130,131,125r122,-6r3,83v-35,5,-66,8,-93,10r0,116r-81,0r0,-113v-130,-9,-179,-71,-179,-215v0,-137,60,-210,179,-217r0,-113r81,0r0,116r92,10r-3,83v-58,-4,-100,-6,-125,-6v-96,1,-127,30,-127,127","w":437},"\u00a3":{"d":"183,-488v1,-134,31,-192,149,-192v40,0,101,13,137,20r0,94v-65,-17,-108,-26,-155,-7v-13,5,-20,21,-26,42v-6,21,-10,55,-11,101r146,0r0,87r-146,0r-1,255r138,0r75,-16r15,86r-81,17r-309,1r0,-88r69,0r0,-256r-46,0r0,-86r46,0r0,-58","w":570},"\u00a5":{"d":"48,-307r0,-81r123,0r-164,-272r108,0r156,250r154,-250r109,0r-163,272r121,0r0,81r-167,0v-7,17,-5,43,-5,67r172,0r0,81r-172,0r0,159r-97,0r0,-159r-175,0r0,-81r175,0v0,-24,2,-50,-5,-67r-170,0","w":540},"\u00a6":{"d":"210,-750r97,0r0,396r-97,0r0,-396xm210,-232r97,0r0,394r-97,0r0,-394"},"\u00a7":{"d":"90,-475v0,-106,66,-142,175,-143v42,0,94,4,156,13r-2,32v-71,-9,-122,-13,-154,-13v-93,0,-140,36,-140,109v1,47,8,74,38,92v36,20,57,23,110,32v59,10,101,23,127,41v26,18,39,52,39,99v0,42,-13,84,-38,126v23,20,35,51,35,94v0,105,-58,158,-173,158v-50,0,-122,-8,-168,-13r3,-32v73,9,128,14,165,14v92,0,138,-42,138,-126v-1,-41,-9,-64,-38,-78v-83,-41,-234,-16,-267,-109v-23,-67,-11,-130,38,-182v-29,-21,-44,-59,-44,-114xm375,-103v29,-42,48,-156,-3,-185v-31,-28,-179,-40,-213,-59v-17,18,-38,62,-38,95v1,47,9,73,38,92v45,31,173,35,216,57"},"\u00a8":{"d":"68,-604r0,-114r97,0r0,114r-97,0xm264,-604r0,-114r97,0r0,114r-97,0","w":833},"\u00a9":{"d":"265,-169v-143,0,-255,-122,-255,-265v0,-143,112,-266,255,-266v143,0,256,123,256,266v0,143,-113,265,-256,265xm265,-668v-126,0,-223,108,-223,234v0,127,97,233,223,233v126,0,224,-107,224,-233v0,-126,-98,-234,-224,-234xm265,-555v-74,2,-77,42,-77,122v0,74,9,127,77,120r73,-8r1,32v-29,5,-53,8,-74,8v-89,-1,-109,-59,-109,-152v0,-95,18,-153,109,-154v25,0,50,2,74,7r-1,32v-27,-5,-52,-7,-73,-7"},"\u00aa":{"d":"263,-659v59,1,83,27,83,88r0,134v4,13,16,21,37,23r-2,28v-21,-1,-39,-8,-54,-22v-42,15,-82,22,-119,22v-43,0,-70,-35,-70,-80v0,-47,25,-72,75,-76r102,-7v2,-49,-3,-81,-52,-78r-104,7r-2,-31v46,-5,81,-8,106,-8xm315,-520r-97,6v-33,3,-45,15,-47,50v-4,70,84,42,128,34r16,-5r0,-85","w":518},"\u00ab":{"d":"387,-380r-135,106r135,117r0,41v-89,-75,-144,-121,-167,-138r0,-36r167,-129r0,39xm594,-380r-135,106r135,117r0,41v-89,-75,-144,-121,-167,-138r0,-36r167,-129r0,39","w":833},"\u00ad":{"d":"66,-235r0,-92r308,0r0,92r-308,0","w":440},"\u00ae":{"d":"265,-169v-143,0,-255,-122,-255,-265v0,-143,112,-266,255,-266v143,0,256,123,256,266v0,143,-113,265,-256,265xm265,-668v-126,0,-223,108,-223,234v0,127,97,233,223,233v126,0,224,-107,224,-233v0,-126,-98,-234,-224,-234xm254,-591v80,1,115,16,115,90v0,51,-20,81,-59,91r65,134r-35,0r-66,-131r-79,0r0,131r-32,0r0,-315r91,0xm337,-501v3,-70,-75,-56,-142,-58r0,120r80,0v46,-1,60,-15,62,-62"},"\u00b0":{"d":"244,-421v-85,0,-144,-59,-144,-143v0,-84,60,-144,144,-144v84,0,144,60,144,144v0,84,-59,143,-144,143xm244,-652v-51,0,-86,37,-86,88v0,51,35,87,86,87v51,0,88,-36,88,-87v0,-51,-37,-88,-88,-88"},"\u00b1":{"d":"32,-312r0,-87r190,0r0,-126r88,0r0,126r194,0r0,87r-194,0r0,124r-88,0r0,-124r-190,0xm32,-137r472,0r0,87r-472,0r0,-87"},"\u00b4":{"d":"107,-664r230,-93r35,88r-231,89","w":833},"\u00b5":{"d":"163,-224v5,103,2,146,94,149v42,1,94,-17,123,-30r0,-394r95,0r0,499r-95,0r0,-29v-52,27,-99,40,-140,40v-33,0,-59,-7,-77,-22r0,243r-94,0r0,-732r94,0r0,276"},"\u00b6":{"d":"27,-511v0,-108,78,-189,186,-189r378,0r0,93r-75,0r0,607r-94,0r0,-607r-108,0r0,607r-94,0r0,-324v-114,4,-193,-76,-193,-187","w":651},"\u00b8":{"d":"425,47v43,2,53,15,53,60v0,49,-12,63,-61,64v-8,0,-18,-1,-31,-4r2,-26v6,1,15,2,28,2v28,-1,28,-8,28,-36v0,-28,0,-31,-28,-32r-24,0r0,-76r33,0r0,48","w":833},"\u00ba":{"d":"259,-659v83,1,113,47,113,135v0,92,-38,138,-113,138v-77,0,-115,-46,-115,-138v0,-90,38,-135,115,-135xm178,-524v0,70,17,106,81,106v64,0,79,-36,79,-106v0,-70,-15,-103,-79,-103v-63,0,-81,34,-81,103","w":526},"\u00bb":{"d":"582,-274r-135,-106r0,-39r167,129r0,36v-23,17,-78,63,-167,138r0,-41xm375,-274r-135,-106r0,-39r167,129r0,36v-23,17,-78,63,-167,138r0,-41","w":833},"\u00c0":{"d":"28,0r178,-694r199,0r176,693r-98,0r-45,-155r-270,0r-43,156r-97,0xm280,-604r-91,355r229,0r-89,-355r-49,0xm188,-957r230,93r-34,84r-231,-89","w":604},"\u00c1":{"d":"28,0r178,-694r199,0r176,693r-98,0r-45,-155r-270,0r-43,156r-97,0xm280,-604r-91,355r229,0r-89,-355r-49,0xm167,-864r230,-93r35,88r-231,89","w":604},"\u00c2":{"d":"28,0r178,-694r199,0r176,693r-98,0r-45,-155r-270,0r-43,156r-97,0xm280,-604r-91,355r229,0r-89,-355r-49,0xm138,-782r127,-162r76,0r128,162r-96,0r-69,-86r-70,86r-96,0","w":604},"\u00c3":{"d":"28,0r178,-694r199,0r176,693r-98,0r-45,-155r-270,0r-43,156r-97,0xm280,-604r-91,355r229,0r-89,-355r-49,0xm373,-830v-38,0,-98,-54,-129,-54v-17,0,-40,14,-69,41r-25,-18v64,-59,97,-72,166,-27v60,39,63,35,118,-14r22,17v-34,37,-62,55,-83,55","w":604},"\u00c4":{"d":"28,0r178,-694r199,0r176,693r-98,0r-45,-155r-270,0r-43,156r-97,0xm280,-604r-91,355r229,0r-89,-355r-49,0xm157,-804r0,-114r97,0r0,114r-97,0xm353,-804r0,-114r97,0r0,114r-97,0","w":604},"\u00c5":{"d":"28,0r178,-694r199,0r176,693r-98,0r-45,-155r-270,0r-43,156r-97,0xm280,-604r-91,355r229,0r-89,-355r-49,0xm304,-754v-52,0,-94,-42,-94,-94v0,-52,42,-94,94,-94v52,0,94,42,94,94v0,52,-42,94,-94,94xm305,-909v-34,0,-61,27,-61,61v0,34,27,62,61,62v33,0,60,-29,60,-62v0,-33,-27,-61,-60,-61","w":604},"\u00c6":{"d":"428,0r0,-156r-238,0r-48,156r-99,0r211,-694r601,0r0,93r-331,0r0,201r271,0r0,92r-271,0r0,215r331,0r0,93r-427,0xm319,-588r-104,339r213,0r0,-339r-109,0","w":898},"\u00c7":{"d":"493,-101r3,88v-124,25,-224,39,-321,2v-69,-27,-102,-98,-117,-180v-7,-41,-11,-93,-11,-155v0,-127,20,-217,55,-274v46,-75,166,-97,289,-78v33,5,58,8,77,12r28,6r-3,87v-75,-11,-135,-17,-178,-17v-67,0,-108,21,-133,58v-42,63,-43,346,-1,410v24,37,67,58,136,58v39,0,98,-6,176,-17xm288,47v43,2,53,15,53,60v0,49,-12,63,-61,64v-8,0,-18,-1,-31,-4r2,-26v6,1,15,2,28,2v28,-1,28,-8,28,-36v0,-28,0,-31,-28,-32r-24,0r0,-76r33,0r0,48","w":537},"\u00c8":{"d":"103,0r0,-700r409,0r0,34r-373,0r0,289r313,0r0,34r-313,0r0,309r373,0r0,34r-409,0xm218,-932r192,96r-15,27r-193,-92","w":572},"\u00c9":{"d":"86,0r0,-694r427,0r0,93r-331,0r0,208r271,0r0,91r-271,0r0,209r331,0r0,93r-427,0xm183,-864r230,-93r35,88r-231,89","w":572},"\u00ca":{"d":"86,0r0,-694r427,0r0,93r-331,0r0,208r271,0r0,91r-271,0r0,209r331,0r0,93r-427,0xm145,-782r127,-162r76,0r128,162r-96,0r-69,-86r-70,86r-96,0","w":572},"\u00cb":{"d":"86,0r0,-694r427,0r0,93r-331,0r0,208r271,0r0,91r-271,0r0,209r331,0r0,93r-427,0xm164,-804r0,-114r97,0r0,114r-97,0xm360,-804r0,-114r97,0r0,114r-97,0","w":572},"\u00cc":{"d":"80,0r0,-694r97,0r0,694r-97,0xm7,-957r230,93r-34,84r-231,-89","w":226},"\u00cd":{"d":"80,0r0,-694r97,0r0,694r-97,0xm-34,-864r230,-93r35,88r-231,89","w":226},"\u00ce":{"d":"82,0r0,-694r97,0r0,694r-97,0xm-50,-782r127,-162r76,0r128,162r-96,0r-69,-86r-70,86r-96,0","w":231},"\u00cf":{"d":"80,0r0,-694r97,0r0,694r-97,0xm-33,-804r0,-114r97,0r0,114r-97,0xm163,-804r0,-114r97,0r0,114r-97,0","w":226},"\u00d0":{"d":"20,-297r0,-93r304,0r0,93r-304,0xm323,-694v212,1,267,120,267,335v0,112,-13,186,-52,257v-38,67,-110,102,-215,102r-240,0r0,-694r240,0xm323,-92v143,-1,167,-121,167,-267v0,-150,-24,-243,-167,-243r-144,0r0,510r144,0","w":637},"\u00d1":{"d":"76,0r0,-694r164,0r248,576r20,0r0,-576r97,0r0,694r-160,0r-252,-576r-20,0r0,576r-97,0xm412,-830v-38,0,-98,-54,-129,-54v-17,0,-40,14,-69,41r-25,-18v64,-59,98,-71,167,-27v60,39,60,34,117,-14r22,17v-34,37,-62,55,-83,55","w":687},"\u00d2":{"d":"328,-83v69,0,114,-21,140,-59v47,-69,45,-333,-1,-404v-27,-41,-71,-65,-139,-65v-68,0,-112,23,-139,65v-47,72,-48,332,-1,402v26,39,71,61,140,61xm328,-705v220,2,277,133,277,362v0,123,-21,213,-61,269v-40,56,-112,85,-216,85v-221,0,-276,-124,-276,-354v0,-122,21,-213,62,-273v41,-60,112,-89,214,-89xm222,-957r230,93r-34,84r-231,-89","w":656},"\u00d3":{"d":"328,-83v69,0,114,-21,140,-59v47,-69,45,-333,-1,-404v-27,-41,-71,-65,-139,-65v-68,0,-112,23,-139,65v-47,72,-48,332,-1,402v26,39,71,61,140,61xm328,-705v220,2,277,133,277,362v0,123,-21,213,-61,269v-40,56,-112,85,-216,85v-221,0,-276,-124,-276,-354v0,-122,21,-213,62,-273v41,-60,112,-89,214,-89xm181,-864r230,-93r35,88r-231,89","w":656},"\u00d4":{"d":"328,-83v69,0,114,-21,140,-59v47,-69,45,-333,-1,-404v-27,-41,-71,-65,-139,-65v-68,0,-112,23,-139,65v-47,72,-48,332,-1,402v26,39,71,61,140,61xm328,-705v220,2,277,133,277,362v0,123,-21,213,-61,269v-40,56,-112,85,-216,85v-221,0,-276,-124,-276,-354v0,-122,21,-213,62,-273v41,-60,112,-89,214,-89xm163,-782r127,-162r76,0r128,162r-96,0r-69,-86r-70,86r-96,0","w":656},"\u00d5":{"d":"328,-83v69,0,114,-21,140,-59v47,-69,45,-333,-1,-404v-27,-41,-71,-65,-139,-65v-68,0,-112,23,-139,65v-47,72,-48,332,-1,402v26,39,71,61,140,61xm328,-705v220,2,277,133,277,362v0,123,-21,213,-61,269v-40,56,-112,85,-216,85v-221,0,-276,-124,-276,-354v0,-122,21,-213,62,-273v41,-60,112,-89,214,-89xm398,-830v-38,0,-98,-54,-129,-54v-17,0,-40,14,-69,41r-25,-18v64,-59,98,-71,167,-27v60,39,60,34,117,-14r22,17v-34,37,-62,55,-83,55","w":656},"\u00d6":{"d":"328,-83v69,0,114,-21,140,-59v47,-69,45,-333,-1,-404v-27,-41,-71,-65,-139,-65v-68,0,-112,23,-139,65v-47,72,-48,332,-1,402v26,39,71,61,140,61xm328,-705v220,2,277,133,277,362v0,123,-21,213,-61,269v-40,56,-112,85,-216,85v-221,0,-276,-124,-276,-354v0,-122,21,-213,62,-273v41,-60,112,-89,214,-89xm182,-804r0,-114r97,0r0,114r-97,0xm378,-804r0,-114r97,0r0,114r-97,0","w":656},"\u00d7":{"d":"239,-528r182,188r183,-188r63,62r-184,187r185,189r-63,61r-184,-187r-183,187r-62,-61r184,-189r-184,-187","w":651},"\u00d8":{"d":"75,84r62,-133v-57,-51,-85,-149,-85,-294v0,-122,21,-213,62,-273v41,-60,112,-89,215,-89v41,0,76,6,107,17r55,-117r88,33r-61,129v58,53,87,153,87,300v0,123,-21,213,-61,269v-40,56,-112,85,-215,85v-39,0,-76,-5,-109,-15r-59,126xm184,-534v-38,69,-44,318,6,372r204,-437v-27,-12,-65,-12,-95,-8v-56,7,-92,32,-115,73xm329,-83v69,0,114,-21,140,-59v44,-65,50,-329,-2,-390r-206,440v19,6,42,9,68,9","w":656},"\u00d9":{"d":"321,9v-161,0,-246,-65,-246,-225r0,-478r97,0r0,478v0,96,54,130,149,130v96,0,152,-34,152,-130r0,-478r98,0r0,478v0,162,-86,225,-250,225xm218,-957r230,93r-34,84r-231,-89","w":642},"\u00da":{"d":"321,9v-161,0,-246,-65,-246,-225r0,-478r97,0r0,478v0,96,54,130,149,130v96,0,152,-34,152,-130r0,-478r98,0r0,478v0,162,-86,225,-250,225xm177,-864r230,-93r35,88r-231,89","w":642},"\u00db":{"d":"321,9v-161,0,-246,-65,-246,-225r0,-478r97,0r0,478v0,96,54,130,149,130v96,0,152,-34,152,-130r0,-478r98,0r0,478v0,162,-86,225,-250,225xm159,-782r127,-162r76,0r128,162r-96,0r-69,-86r-70,86r-96,0","w":642},"\u00dc":{"d":"321,9v-161,0,-246,-65,-246,-225r0,-478r97,0r0,478v0,96,54,130,149,130v96,0,152,-34,152,-130r0,-478r98,0r0,478v0,162,-86,225,-250,225xm179,-804r0,-114r97,0r0,114r-97,0xm375,-804r0,-114r97,0r0,114r-97,0","w":642},"\u00dd":{"d":"320,-297r0,297r-97,0r0,-297r-216,-397r108,0r156,288r154,-288r109,0xm114,-864r230,-93r35,88r-231,89","w":540},"\u00de":{"d":"436,-359v0,-91,-39,-135,-130,-135r-154,0r0,287r154,0v87,0,130,-51,130,-152xm536,-359v0,155,-76,247,-230,246r-154,0r0,113r-98,0r0,-694r98,0r0,108r154,0v153,0,230,76,230,227","w":564},"\u00df":{"d":"366,-676v-110,0,-117,36,-117,157r0,519r-36,0r0,-532v3,-134,24,-178,153,-178v123,0,185,26,190,135v5,90,-64,96,-122,125v-13,8,-14,27,0,38v40,30,163,85,200,134v5,7,7,16,7,27v1,130,-22,213,-116,245v-48,17,-134,16,-200,11r4,-34v81,7,127,6,182,-9v51,-14,78,-61,87,-113v4,-24,5,-57,5,-100v0,-8,-10,-18,-27,-31v-22,-17,-156,-92,-176,-110v-19,-17,-20,-63,0,-79v26,-21,94,-34,111,-58v5,-7,7,-23,7,-46v-3,-87,-54,-101,-152,-101","w":833},"\u00e0":{"d":"266,-510v112,1,164,51,164,165r0,226v2,33,18,44,49,48r-3,81v-65,0,-94,-7,-127,-36v-58,25,-116,37,-174,37v-92,0,-141,-61,-140,-157v1,-106,57,-141,160,-150r140,-12r0,-36v0,-51,-25,-76,-74,-76v-56,0,-142,6,-192,14r-4,-84v83,-13,150,-20,201,-20xm335,-234r-129,10v-50,4,-75,29,-75,76v0,51,20,77,61,77v43,0,90,-8,143,-25r0,-138xm137,-757r230,93r-34,84r-231,-89","w":536},"\u00e1":{"d":"479,-71v-31,-4,-49,-15,-49,-48r0,-226v0,-114,-52,-164,-164,-165v-51,0,-118,7,-201,20r4,84v79,-9,143,-14,192,-14v49,0,74,25,74,76r0,36v-91,10,-212,8,-261,54v-25,24,-39,59,-39,108v-1,96,48,157,140,157v57,0,115,-12,174,-37v33,29,62,36,127,36xm206,-224r129,-10r0,138v-53,17,-100,25,-143,25v-41,0,-61,-26,-61,-77v0,-47,25,-72,75,-76xm156,-664r230,-93r35,88r-231,89","w":536},"\u00e2":{"d":"479,-71v-31,-4,-49,-15,-49,-48r0,-226v0,-114,-52,-164,-164,-165v-51,0,-118,7,-201,20r4,84v79,-9,143,-14,192,-14v49,0,74,25,74,76r0,36v-91,10,-212,8,-261,54v-25,24,-39,59,-39,108v-1,96,48,157,140,157v57,0,115,-12,174,-37v33,29,62,36,127,36xm206,-224r129,-10r0,138v-53,17,-100,25,-143,25v-41,0,-61,-26,-61,-77v0,-47,25,-72,75,-76xm80,-582r127,-162r76,0r128,162r-96,0r-69,-86r-70,86r-96,0","w":536},"\u00e3":{"d":"479,-71v-31,-4,-49,-15,-49,-48r0,-226v0,-114,-52,-164,-164,-165v-51,0,-118,7,-201,20r4,84v79,-9,143,-14,192,-14v49,0,74,25,74,76r0,36v-91,10,-212,8,-261,54v-25,24,-39,59,-39,108v-1,96,48,157,140,157v57,0,115,-12,174,-37v33,29,62,36,127,36xm206,-224r129,-10r0,138v-53,17,-100,25,-143,25v-41,0,-61,-26,-61,-77v0,-47,25,-72,75,-76xm315,-630v-38,0,-98,-54,-129,-54v-17,0,-40,14,-69,41r-25,-18v64,-59,97,-72,166,-27v60,39,63,35,118,-14r22,17v-34,37,-62,55,-83,55","w":536},"\u00e4":{"d":"479,-71v-31,-4,-49,-15,-49,-48r0,-226v0,-114,-52,-164,-164,-165v-51,0,-118,7,-201,20r4,84v79,-9,143,-14,192,-14v49,0,74,25,74,76r0,36v-91,10,-212,8,-261,54v-25,24,-39,59,-39,108v-1,96,48,157,140,157v57,0,115,-12,174,-37v33,29,62,36,127,36xm206,-224r129,-10r0,138v-53,17,-100,25,-143,25v-41,0,-61,-26,-61,-77v0,-47,25,-72,75,-76xm97,-604r0,-114r97,0r0,114r-97,0xm293,-604r0,-114r97,0r0,114r-97,0","w":536},"\u00e5":{"d":"479,-71v-31,-4,-49,-15,-49,-48r0,-226v0,-114,-52,-164,-164,-165v-51,0,-118,7,-201,20r4,84v79,-9,143,-14,192,-14v49,0,74,25,74,76r0,36v-91,10,-212,8,-261,54v-25,24,-39,59,-39,108v-1,96,48,157,140,157v57,0,115,-12,174,-37v33,29,62,36,127,36xm206,-224r129,-10r0,138v-53,17,-100,25,-143,25v-41,0,-61,-26,-61,-77v0,-47,25,-72,75,-76xm245,-554v-53,0,-94,-41,-94,-94v0,-52,42,-94,94,-94v52,0,94,42,94,94v0,52,-42,94,-94,94xm246,-709v-34,0,-61,27,-61,61v0,34,27,62,61,62v33,0,60,-29,60,-62v0,-33,-27,-61,-60,-61","w":536},"\u00e6":{"d":"448,-210v2,90,31,133,121,134v52,0,113,-3,184,-9r2,75v-136,23,-271,44,-348,-31v-60,30,-138,52,-214,52v-93,0,-141,-61,-140,-157v2,-119,62,-142,179,-152r122,-10r0,-36v1,-48,-28,-76,-75,-76v-57,-1,-137,7,-191,10r-4,-83v83,-11,149,-17,200,-17v65,0,110,20,133,60v33,-40,83,-60,149,-60v146,1,206,79,206,231r-6,69r-318,0xm210,-71v36,0,88,-10,155,-29v-9,-33,-13,-77,-13,-134r-127,10v-50,4,-76,24,-76,76v0,51,20,77,61,77xm678,-284v-1,-95,-24,-142,-112,-142v-86,0,-118,50,-118,142r230,0","w":828},"\u00e7":{"d":"45,-257v0,-171,47,-253,209,-253v43,0,105,9,144,16r-4,82v-53,-6,-92,-9,-117,-9v-115,2,-136,45,-136,164v0,130,14,175,137,178r117,-8r3,82v-65,11,-113,16,-146,16v-170,-4,-207,-85,-207,-268xm252,47v43,2,53,15,53,60v0,49,-12,63,-61,64v-8,0,-18,-1,-31,-4r2,-26v6,1,15,2,28,2v28,-1,28,-8,28,-36v0,-28,0,-31,-28,-32r-24,0r0,-76r33,0r0,48","w":436},"\u00e8":{"d":"140,-210v1,90,32,133,121,134v51,0,113,-3,184,-9r2,75v-76,14,-142,21,-199,21v-158,0,-204,-90,-204,-257v0,-176,71,-264,213,-264v147,0,207,79,207,231r-6,69r-318,0xm370,-284v-1,-96,-24,-142,-113,-142v-86,0,-117,50,-118,142r231,0xm129,-757r230,93r-34,84r-231,-89","w":497},"\u00e9":{"d":"140,-210v1,90,32,133,121,134v51,0,113,-3,184,-9r2,75v-76,14,-142,21,-199,21v-158,0,-204,-90,-204,-257v0,-176,71,-264,213,-264v147,0,207,79,207,231r-6,69r-318,0xm370,-284v-1,-96,-24,-142,-113,-142v-86,0,-117,50,-118,142r231,0xm130,-664r230,-93r35,88r-231,89","w":497},"\u00ea":{"d":"140,-210v1,90,32,133,121,134v51,0,113,-3,184,-9r2,75v-76,14,-142,21,-199,21v-158,0,-204,-90,-204,-257v0,-176,71,-264,213,-264v147,0,207,79,207,231r-6,69r-318,0xm370,-284v-1,-96,-24,-142,-113,-142v-86,0,-117,50,-118,142r231,0xm100,-582r127,-162r76,0r128,162r-96,0r-69,-86r-70,86r-96,0","w":497},"\u00eb":{"d":"140,-210v1,90,32,133,121,134v51,0,113,-3,184,-9r2,75v-76,14,-142,21,-199,21v-158,0,-204,-90,-204,-257v0,-176,71,-264,213,-264v147,0,207,79,207,231r-6,69r-318,0xm370,-284v-1,-96,-24,-142,-113,-142v-86,0,-117,50,-118,142r231,0xm121,-604r0,-114r97,0r0,114r-97,0xm317,-604r0,-114r97,0r0,114r-97,0","w":497},"\u00ec":{"d":"-7,-757r230,93r-34,84r-231,-89xm85,0r0,-499r95,0r0,499r-95,0","w":261},"\u00ed":{"d":"14,-664r230,-93r35,88r-231,89xm85,0r0,-499r95,0r0,499r-95,0","w":261},"\u00ee":{"d":"85,0r0,-499r95,0r0,499r-95,0xm-35,-582r127,-162r76,0r128,162r-96,0r-69,-86r-70,86r-96,0","w":261},"\u00ef":{"d":"-16,-604r0,-114r97,0r0,114r-97,0xm180,-604r0,-114r97,0r0,114r-97,0xm85,0r0,-499r95,0r0,499r-95,0","w":261},"\u00f1":{"d":"309,-422v91,0,93,57,93,162r0,260r95,0v-4,-148,17,-368,-35,-454v-30,-51,-123,-69,-201,-46v-35,10,-54,18,-80,30r0,-29r-94,0r0,499r94,0r0,-392v48,-20,91,-30,128,-30xm368,-630v-38,0,-98,-54,-129,-54v-17,0,-40,14,-69,41r-25,-18v64,-59,98,-71,167,-27v60,39,60,34,117,-14r22,17v-34,37,-62,55,-83,55","w":574},"\u00f2":{"d":"77,-254v0,-168,55,-256,220,-256v160,0,218,92,218,256v0,173,-48,265,-218,265v-172,0,-220,-90,-220,-265xm173,-254v0,120,13,179,124,179v109,0,122,-62,122,-179v0,-109,-23,-171,-122,-171v-106,0,-124,56,-124,171xm137,-757r230,93r-34,84r-231,-89","w":536},"\u00f3":{"d":"515,-254v0,-164,-58,-256,-218,-256v-165,0,-220,88,-220,256v0,176,48,265,220,265v170,0,218,-92,218,-265xm419,-254v0,117,-13,179,-122,179v-111,0,-124,-59,-124,-179v0,-115,18,-171,124,-171v99,0,122,62,122,171xm136,-664r230,-93r35,88r-231,89","w":536},"\u00f4":{"d":"515,-254v0,-164,-58,-256,-218,-256v-165,0,-220,88,-220,256v0,176,48,265,220,265v170,0,218,-92,218,-265xm419,-254v0,117,-13,179,-122,179v-111,0,-124,-59,-124,-179v0,-115,18,-171,124,-171v99,0,122,62,122,171xm98,-582r127,-162r76,0r128,162r-96,0r-69,-86r-70,86r-96,0","w":536},"\u00f5":{"d":"515,-254v0,-164,-58,-256,-218,-256v-165,0,-220,88,-220,256v0,176,48,265,220,265v170,0,218,-92,218,-265xm419,-254v0,117,-13,179,-122,179v-111,0,-124,-59,-124,-179v0,-115,18,-171,124,-171v99,0,122,62,122,171xm333,-630v-38,0,-98,-54,-129,-54v-17,0,-40,14,-69,41r-25,-18v64,-59,97,-72,166,-27v60,39,63,35,118,-14r22,17v-34,37,-62,55,-83,55","w":536},"\u00f6":{"d":"515,-254v0,-164,-58,-256,-218,-256v-165,0,-220,88,-220,256v0,176,48,265,220,265v170,0,218,-92,218,-265xm419,-254v0,117,-13,179,-122,179v-111,0,-124,-59,-124,-179v0,-115,18,-171,124,-171v99,0,122,62,122,171xm117,-604r0,-114r97,0r0,114r-97,0xm313,-604r0,-114r97,0r0,114r-97,0","w":536},"\u00f7":{"d":"134,-375r0,-93r213,0r0,93r-213,0xm78,-331r0,-105r320,0r0,105r-320,0xm193,-83r0,-111r95,0r0,111r-95,0"},"\u00f8":{"d":"60,-261v0,-174,42,-244,205,-248v31,0,59,4,83,12r40,-96r30,11r-40,98v59,34,88,109,88,225v0,98,-14,167,-41,207v-27,40,-81,61,-160,61v-33,0,-61,-3,-85,-9r-42,104r-30,-10r42,-104v-80,-40,-90,-120,-90,-251xm265,-477v-144,4,-168,61,-168,216v0,65,4,115,13,148v9,33,26,57,53,71r173,-424v-22,-7,-46,-11,-71,-11xm193,-30v42,11,124,9,159,-6v44,-18,65,-66,72,-118v3,-26,5,-61,5,-105v0,-97,-22,-161,-65,-192","w":526},"\u00f9":{"d":"393,-499r95,0r0,499r-95,0r0,-29v-52,27,-99,40,-140,40v-69,0,-114,-19,-137,-55v-51,-82,-30,-310,-34,-455r95,0r0,259v0,65,7,109,17,132v22,51,137,32,180,10r19,-7r0,-394xm146,-757r230,93r-34,84r-231,-89","w":511},"\u00fa":{"d":"488,-499r-95,0r0,394v-45,20,-86,30,-123,30v-40,0,-65,-11,-76,-33v-11,-22,-17,-67,-17,-132r0,-259r-95,0v4,146,-15,371,34,455v28,48,124,68,200,45v34,-10,52,-18,77,-30r0,29r95,0r0,-499xm145,-664r230,-93r35,88r-231,89","w":511},"\u00fb":{"d":"488,-499r-95,0r0,394v-45,20,-86,30,-123,30v-40,0,-65,-11,-76,-33v-11,-22,-17,-67,-17,-132r0,-259r-95,0v4,146,-15,371,34,455v28,48,124,68,200,45v34,-10,52,-18,77,-30r0,29r95,0r0,-499xm107,-582r127,-162r76,0r128,162r-96,0r-69,-86r-70,86r-96,0","w":511},"\u00fc":{"d":"488,-499r-95,0r0,394v-45,20,-86,30,-123,30v-40,0,-65,-11,-76,-33v-11,-22,-17,-67,-17,-132r0,-259r-95,0v4,146,-15,371,34,455v28,48,124,68,200,45v34,-10,52,-18,77,-30r0,29r95,0r0,-499xm126,-604r0,-114r97,0r0,114r-97,0xm322,-604r0,-114r97,0r0,114r-97,0","w":511},"\u00fd":{"d":"12,-499r94,0r113,408r30,0r114,-408r94,0r-141,511r-55,205r-94,0r59,-217r-78,0xm119,-664r230,-93r35,88r-231,89","w":480},"\u00fe":{"d":"421,-257v0,-104,-14,-166,-104,-166v-40,0,-91,12,-122,21r0,322v39,3,66,5,81,5v126,-2,145,-52,145,-182xm277,11r-82,-4r0,211r-95,0r0,-930r95,0r0,232v47,-20,92,-30,133,-30v153,0,189,85,189,253v0,198,-49,264,-240,268","w":538},"\u00ff":{"d":"30,-500r155,500r61,0r-72,230r37,0r229,-730r-37,0r-148,468r-41,0r-147,-468r-37,0xm137,-638r0,-62r35,0r0,62r-35,0xm307,-638r0,-62r35,0r0,62r-35,0","w":480},"\u0152":{"d":"879,0r-421,0v-49,7,-94,11,-135,11v-101,0,-170,-28,-207,-84v-37,-56,-56,-147,-56,-272v0,-127,19,-219,58,-275v39,-56,107,-85,205,-85v43,0,87,11,133,11r423,0r0,94r-327,0r0,200r267,0r0,93r-267,0r0,213r327,0r0,94xm338,-84v18,0,57,-3,118,-8r0,-509v-70,-6,-110,-9,-121,-9v-68,0,-112,21,-139,58v-46,63,-45,347,0,410v26,37,71,58,142,58","w":944},"\u0153":{"d":"497,-210v1,91,31,134,121,134v51,0,113,-3,184,-9r2,75v-76,14,-142,21,-199,21v-75,0,-128,-24,-159,-72v-32,48,-88,72,-167,72v-172,-1,-220,-90,-220,-265v0,-168,55,-255,220,-256v81,0,138,27,171,80v33,-53,87,-80,164,-80v147,1,207,79,207,231r-6,69r-318,0xm155,-254v0,120,13,179,124,179v109,0,122,-62,122,-179v0,-109,-23,-171,-122,-171v-106,0,-124,56,-124,171xm727,-284v-1,-96,-24,-142,-113,-142v-85,0,-118,50,-118,142r231,0","w":876},"\u0178":{"d":"289,-301r0,301r-36,0r0,-301r-228,-399r41,0r205,359r202,-359r42,0xm167,-838r0,-62r35,0r0,62r-35,0xm337,-838r0,-62r35,0r0,62r-35,0","w":540},"\u02c6":{"d":"245,-582r127,-162r76,0r128,162r-96,0r-69,-86r-70,86r-96,0","w":833},"\u02dc":{"d":"301,-630v-38,0,-98,-54,-129,-54v-17,0,-40,14,-69,41r-25,-18v64,-59,97,-72,166,-27v60,39,63,35,118,-14r22,17v-34,37,-62,55,-83,55","w":833},"\u2018":{"d":"145,-727r-46,228r-98,0r54,-228r90,0","w":170},"\u2019":{"d":"24,-527r46,-228r98,0r-54,228r-90,0","w":170},"\u2022":{"d":"247,0r0,-80r40,0r0,80r-40,0"},"\u20ac":{"d":"349,11v-171,-1,-225,-68,-245,-223r-61,0r0,-76r56,0r0,-84r-56,0r0,-76r61,0v20,-156,75,-224,245,-226v59,0,118,6,177,19r-4,87v-65,-7,-118,-11,-161,-11v-107,1,-140,37,-155,132r250,0r0,75r-256,0v-1,15,-1,70,0,84r256,0r0,76r-250,0v15,92,51,127,157,128v39,0,92,-4,159,-11r3,88v-65,12,-123,18,-176,18","w":568},"\u2122":{"d":"7,-590r0,-31r200,0r0,31r-83,0r0,258r-33,0r0,-258r-84,0xm242,-331r0,-290r50,0r84,242r87,-242r50,0r0,290r-32,0r0,-258r-88,247r-35,0r-84,-247r0,258r-32,0"}}});
