/*!
 * The following copyright notice may not be removed under any circumstances.
 * 
 * Copyright:
 * Generated in 2009 by FontLab Studio. Copyright info pending.
 */
Cufon.registerFont({"w":530,"face":{"font-family":"TitilliumText14L","font-weight":400,"font-stretch":"normal","units-per-em":"1000","panose-1":"0 0 0 0 0 0 0 0 0 0","ascent":"750","descent":"-250","x-height":"10","bbox":"-40 -949 933 239","underline-thickness":"50","underline-position":"-50","unicode-range":"U+0020-U+2122"},"glyphs":{" ":{"w":235},"!":{"d":"230,0r0,-114r82,0r0,114r-82,0xm232,-232r-2,-467r81,0r-2,467r-77,0"},"\"":{"d":"266,-477r-70,0r-1,-220r73,0xm114,-477r-70,0r-1,-220r73,0","w":310},"#":{"d":"519,-180r-110,0r0,180r-68,0r0,-180r-154,0r0,180r-68,0r0,-180r-111,0r0,-64r111,0r0,-178r-111,0r0,-64r111,0r0,-180r68,0r0,180r154,0r0,-180r68,0r0,180r110,0r0,64r-110,0r0,178r110,0r0,64xm341,-244r0,-178r-154,0r0,178r154,0"},"$":{"d":"493,-180v2,146,-95,195,-248,186r-14,114v-23,-2,-35,-4,-35,-7r14,-109r-144,-13r4,-35v51,7,99,12,144,15r39,-298v-64,-12,-97,-20,-140,-49v-38,-26,-52,-66,-52,-129v-1,-137,94,-168,237,-166r16,-119r35,0r-16,121r141,14r-3,34v-53,-6,-100,-11,-142,-14r-36,277v70,13,101,18,148,48v39,26,51,65,52,130xm279,-27v138,5,198,-83,168,-207v-17,-68,-84,-73,-159,-87r-38,294r29,0xm294,-637v-117,-1,-194,20,-194,130v0,48,11,81,34,99v23,18,65,33,124,44"},"%":{"d":"131,-702v76,0,114,47,114,141v0,93,-38,139,-114,139v-75,0,-113,-47,-113,-142v0,-92,38,-138,113,-138xm411,-280v76,0,114,46,114,138v0,94,-38,141,-114,141v-75,0,-113,-47,-113,-142v0,-91,38,-137,113,-137xm151,-6r185,-703r56,17r-185,702xm131,-650v-47,0,-53,34,-53,86v0,54,6,91,53,91v48,0,54,-36,54,-90v0,-54,-6,-87,-54,-87xm411,-229v-47,0,-53,34,-53,86v0,55,5,91,53,91v47,0,54,-37,54,-90v0,-54,-7,-87,-54,-87"},"&":{"d":"150,-550v0,-97,70,-152,173,-152v109,0,172,53,173,157v0,46,-11,83,-34,111v-23,28,-62,55,-117,81r143,143v13,-43,23,-88,28,-134r73,1v-9,69,-24,130,-43,182r129,124r-47,51r-120,-113v-53,73,-111,114,-227,114v-155,0,-233,-73,-233,-219v0,-121,59,-165,153,-203v-38,-45,-51,-69,-51,-143xm249,-354v-78,28,-125,57,-125,149v0,99,53,149,160,149v87,0,130,-33,168,-92xm225,-542v0,45,15,83,45,113r27,28v46,-20,79,-40,97,-59v18,-19,27,-46,27,-80v0,-61,-33,-92,-98,-92v-65,0,-98,30,-98,90","w":700},"'":{"d":"12,-469r-2,-226r76,0r-5,226r-69,0","w":100},"(":{"d":"133,125v-41,-89,-97,-288,-97,-426v0,-151,52,-341,97,-449r79,0v-38,97,-93,310,-95,449v-2,112,37,275,95,426r-79,0","w":260},")":{"d":"111,-755v41,89,97,288,97,426v0,151,-52,341,-97,449r-79,0v38,-97,93,-310,95,-449v2,-112,-37,-275,-95,-426r79,0","w":260},"*":{"d":"442,-511r-131,0r40,125r-48,15r-42,-126r-107,79r-30,-40r108,-79r-107,-77r31,-42r105,76r42,-124r49,16r-40,127r130,0r0,50"},"+":{"d":"-23,-232r0,-70r215,0r0,-214r70,0r0,214r217,0r0,70r-217,0r0,216r-70,0r0,-216r-215,0","w":458},",":{"d":"26,123r46,-230r81,0r-55,230r-72,0","w":170},"-":{"d":"64,-244r0,-74r312,0r0,74r-312,0","w":440},".":{"d":"77,0r0,-114r81,0r0,114r-81,0","w":248},"\/":{"d":"88,-15r279,-694r71,26r-279,693"},"0":{"d":"264,-671v82,0,142,26,181,78v39,52,58,143,58,274v0,121,-19,206,-59,255v-40,49,-100,74,-179,74v-80,0,-139,-25,-179,-74v-40,-49,-60,-135,-60,-256v0,-130,19,-221,58,-273v39,-52,99,-78,180,-78xm264,-598v-85,0,-118,34,-139,108v-11,41,-17,98,-17,171v0,99,12,166,37,202v25,36,65,54,120,54v55,0,92,-20,119,-54v48,-61,44,-361,1,-421v-27,-38,-64,-60,-121,-60"},"1":{"d":"65,-521r209,-139r73,0r0,660r-77,0r0,-572r-169,113"},"2":{"d":"253,-671v135,0,208,47,209,177v0,48,-10,90,-32,126v-22,36,-56,77,-102,122r-174,172r325,0r0,74r-428,0r0,-71r197,-198v48,-48,82,-87,103,-117v21,-30,31,-64,31,-100v-1,-86,-53,-109,-144,-110v-48,0,-107,7,-176,22r-6,-71v69,-17,135,-26,197,-26"},"3":{"d":"387,-491v-3,-83,-47,-105,-135,-106v-60,0,-138,8,-185,19r-9,-69v71,-16,137,-24,198,-24v143,1,211,40,211,172v0,80,-47,121,-99,148v76,30,115,59,115,162v0,139,-71,199,-215,199v-71,0,-159,-13,-218,-23r8,-70v72,13,139,19,202,19v95,0,143,-41,143,-122v0,-77,-45,-120,-135,-120r-134,0r0,-70r133,0v57,1,122,-53,120,-115"},"4":{"d":"344,4r0,-122r-316,0r0,-62r195,-480r84,0r-191,469r228,0r0,-175r77,0r0,175r79,0r0,73r-79,0r0,122r-77,0"},"5":{"d":"265,-64v90,0,144,-58,144,-151v0,-86,-46,-129,-139,-129v-55,0,-114,21,-149,39r-63,-11r20,-344r384,0r0,73r-314,0r-17,209v51,-25,100,-38,146,-38v141,0,212,66,212,198v0,145,-79,227,-221,227v-71,0,-163,-15,-219,-28r9,-69v79,16,148,24,207,24"},"6":{"d":"493,-208v0,143,-81,219,-225,218v-81,0,-139,-28,-176,-84v-37,-56,-56,-143,-56,-259v0,-122,22,-209,64,-261v56,-69,154,-88,271,-72v29,3,52,7,69,10r25,5r-7,71v-106,-19,-242,-37,-298,36v-28,36,-43,92,-44,170v60,-26,114,-39,162,-39v143,0,214,64,215,205xm272,-342v-53,0,-120,20,-157,37v1,80,14,140,37,181v23,41,61,62,116,62v97,0,146,-49,146,-146v0,-89,-47,-134,-142,-134"},"7":{"d":"49,-587r0,-73r410,0r0,101r-256,572r-72,-23r248,-553r0,-24r-330,0"},"8":{"d":"31,-500v0,-124,101,-171,237,-171v137,0,241,47,241,172v0,95,-40,119,-112,154v73,35,122,67,122,166v0,126,-84,189,-251,189v-165,0,-248,-59,-248,-178v0,-106,44,-135,116,-177v-66,-34,-105,-65,-105,-155xm213,-307v-67,19,-110,47,-110,126v0,79,55,118,165,118v103,0,169,-27,169,-124v0,-81,-51,-99,-119,-120r-105,0xm426,-490v0,-87,-61,-108,-157,-108v-95,0,-156,20,-156,107v0,70,42,93,100,116r105,0v61,-21,108,-45,108,-115"},"9":{"d":"34,-457v0,-136,92,-215,229,-214v80,0,138,30,174,89v36,59,54,145,54,258v0,123,-21,208,-62,259v-54,68,-153,84,-270,70v-44,-5,-66,-10,-100,-16r9,-70v110,19,245,40,302,-35v27,-35,41,-89,42,-163v-41,13,-107,31,-162,31v-139,0,-216,-71,-216,-209xm263,-598v-92,-1,-150,50,-149,141v0,92,47,138,142,138v53,0,119,-16,157,-31v-1,-80,-13,-141,-36,-184v-23,-43,-61,-64,-114,-64"},":":{"d":"60,-322r0,-114r82,0r0,114r-82,0xm60,0r0,-114r82,0r0,114r-82,0","w":177},";":{"d":"73,-115r-49,234r68,0r64,-234r-83,0xm67,-322r0,-114r82,0r0,114r-82,0","w":198},"<":{"d":"410,-56v-15,-6,-333,-208,-347,-215r0,-78r347,-210r0,79r-275,168r275,175r0,81"},"=":{"d":"33,-339r0,-69r457,0r0,69r-457,0xm34,-151r0,-69r457,0r0,69r-457,0"},">":{"d":"338,-312r-275,-168r0,-79r347,210r0,78v-15,7,-332,210,-347,215r0,-81"},"?":{"d":"176,-711v138,1,210,41,210,174v0,101,-66,157,-123,203v-30,24,-65,54,-67,98r0,38r-79,0v-1,-45,-1,-76,19,-108v39,-64,112,-93,150,-158v13,-21,20,-43,20,-66v-2,-83,-43,-104,-132,-104v-47,0,-116,15,-157,24r-9,-74v76,-18,132,-27,168,-27xm116,-1r0,-114r82,0r0,114r-82,0","w":386},"@":{"d":"504,-723v300,-1,429,135,429,435v0,88,-8,163,-31,218v-23,55,-67,81,-144,80v-65,-1,-95,-9,-116,-55v-68,36,-126,54,-175,54v-141,0,-176,-104,-176,-252v0,-170,39,-266,202,-266v38,0,86,15,116,25r0,-16r75,0r0,200v0,77,1,132,6,165v9,57,12,75,68,75v41,0,55,-6,72,-34v28,-45,27,-127,27,-212v0,-250,-100,-345,-353,-345v-264,0,-376,120,-376,390v0,286,98,388,376,392r143,-9r4,72v-289,32,-506,-14,-571,-230v-19,-60,-28,-136,-28,-225v-1,-315,147,-461,452,-462xm505,-439v-123,3,-139,66,-139,198v0,70,10,117,29,141v19,24,45,37,76,37v39,0,89,-14,148,-42v-13,-67,-10,-218,-10,-314v-41,-13,-75,-20,-104,-20","w":985},"A":{"d":"29,0r190,-696r169,0r187,695r-76,0r-53,-174r-290,0r-50,175r-77,0xm277,-625r-103,376r256,0r-103,-376r-50,0","w":604},"B":{"d":"567,-196v1,141,-75,196,-214,196r-263,0r0,-696r250,0v137,0,206,57,206,172v0,90,-28,136,-88,166v69,25,109,67,109,162xm350,-71v90,-1,139,-36,138,-129v0,-79,-48,-118,-143,-118r-179,0r0,247r184,0xm467,-514v0,-83,-44,-110,-130,-111r-171,0r0,237r178,0v85,0,123,-42,123,-126","w":618},"C":{"d":"491,-83r3,70v-121,24,-222,39,-316,1v-68,-28,-101,-99,-116,-181v-7,-41,-11,-92,-11,-153v0,-125,19,-216,53,-274v45,-77,164,-98,288,-80v32,4,57,8,76,12r27,5r-4,69v-73,-11,-132,-17,-179,-17v-73,0,-120,23,-146,65v-45,72,-44,364,0,437v34,57,123,72,220,59v29,-4,54,-5,74,-8","w":536},"D":{"d":"337,-696v199,0,256,134,256,337v0,107,-14,184,-51,253v-36,66,-104,106,-205,106r-247,0r0,-696r247,0xm513,-359v-1,-147,-31,-264,-176,-264r-171,0r0,550r171,0v117,0,176,-95,176,-286","w":642},"E":{"d":"90,0r0,-696r420,0r0,73r-344,0r0,235r284,0r0,72r-284,0r0,243r344,0r0,73r-420,0","w":564},"F":{"d":"90,0r0,-696r421,0r0,73r-345,0r0,269r285,0r0,73r-285,0r0,281r-76,0","w":553},"G":{"d":"326,-64v48,-1,101,-7,143,-13r0,-208r-115,0r0,-70r191,0r0,341v-95,16,-170,24,-225,24v-100,0,-167,-31,-209,-88v-76,-103,-73,-436,-1,-540v55,-79,178,-100,312,-82r123,20r-3,69v-83,-14,-154,-21,-215,-21v-76,0,-126,23,-155,66v-51,75,-51,361,0,436v29,42,78,66,154,66","w":608},"H":{"d":"519,0r0,-314r-352,0r0,314r-77,0r0,-696r77,0r0,308r352,0r0,-308r76,0r0,696r-76,0","w":685},"I":{"d":"85,0r0,-696r77,0r0,696r-77,0","w":247},"J":{"d":"33,0v102,-3,113,-12,113,-118r0,-579r76,0r1,588v-1,75,-6,125,-47,153v-40,28,-72,27,-143,28r0,-72","w":308},"K":{"d":"466,0r-184,-306r-115,4r0,302r-77,0r0,-696r77,0r0,321r113,-4r177,-317r89,0r-198,348r209,348r-91,0","w":595},"L":{"d":"471,0r-381,0r0,-696r77,0r0,622r304,0r0,74","w":513},"M":{"d":"90,0r0,-696r134,0r201,585r202,-585r133,0r0,696r-77,0r0,-606r-14,0r-202,581r-85,0r-201,-581r-14,0r0,606r-77,0","w":850},"N":{"d":"90,0r0,-696r138,0r276,606r22,0r0,-606r77,0r0,696r-135,0r-280,-606r-21,0r0,606r-77,0","w":693},"O":{"d":"326,-63v77,0,126,-23,154,-65v51,-76,51,-356,-1,-434v-30,-45,-78,-71,-153,-71v-75,0,-125,24,-154,69v-51,78,-51,358,0,435v28,43,77,66,154,66xm326,10v-103,0,-174,-28,-214,-85v-40,-57,-60,-146,-60,-269v0,-122,20,-212,60,-272v40,-60,112,-90,214,-90v102,0,173,30,213,89v40,59,60,150,60,273v0,125,-20,214,-59,270v-39,56,-111,84,-214,84","w":651},"P":{"d":"564,-473v0,152,-71,240,-221,240r-176,0r0,233r-77,0r0,-696r253,0v152,0,221,71,221,223xm485,-473v-1,-102,-41,-148,-143,-149r-175,0r0,315r175,0v95,0,143,-55,143,-166","w":606},"Q":{"d":"599,-344v0,158,-21,262,-114,319r84,136r-72,34r-88,-144v-24,6,-52,9,-83,9v-103,0,-174,-28,-214,-85v-40,-57,-60,-146,-60,-269v0,-122,20,-212,60,-272v40,-60,112,-90,214,-90v102,0,173,30,213,89v40,59,60,150,60,273xm326,-63v77,0,126,-23,154,-65v51,-76,51,-356,-1,-434v-30,-45,-78,-71,-153,-71v-75,0,-125,24,-154,69v-51,78,-51,358,0,435v28,43,77,66,154,66","w":651},"R":{"d":"346,-696v150,1,220,62,221,212v0,108,-42,175,-127,201r133,283r-85,0r-125,-263r-196,0r0,263r-77,0r0,-696r256,0xm488,-484v0,-97,-45,-139,-142,-139r-179,0r0,287r180,0v94,0,141,-49,141,-148","w":624},"S":{"d":"52,-523v0,-130,87,-184,220,-184v51,0,116,7,195,20r-7,71v-87,-11,-149,-17,-188,-17v-95,0,-142,36,-142,108v0,43,11,72,32,87v21,15,65,31,130,48v70,18,120,39,148,64v28,25,42,67,42,125v0,146,-72,209,-216,210v-51,0,-122,-7,-213,-21r8,-70v89,11,157,17,204,17v93,-1,139,-39,139,-133v0,-37,-11,-62,-30,-79v-28,-25,-166,-54,-210,-73v-41,-18,-87,-46,-101,-90v-7,-22,-11,-50,-11,-83","w":534},"T":{"d":"-4,-622r0,-74r500,0r0,74r-211,0r0,622r-76,0r0,-622r-213,0","w":492},"U":{"d":"317,9v-156,0,-239,-62,-239,-219r0,-486r77,0r0,486v0,97,54,145,162,145v108,-1,169,-38,169,-145r0,-486r76,0r0,486v0,157,-86,219,-245,219","w":640},"V":{"d":"484,-696r80,0r-181,696r-171,0r-183,-696r80,0r162,623r53,0","w":593},"W":{"d":"37,-696r79,0r127,619r29,0r134,-613r87,0r138,613r29,0r124,-619r79,0r-148,696r-140,0r-125,-581r-123,581r-139,0","w":900},"X":{"d":"117,-696r174,292r173,-292r87,0r-207,351r207,345r-87,0r-172,-288r-175,288r-87,0r210,-345r-210,-351r87,0","w":581},"Y":{"d":"316,-298r0,298r-77,0r0,-299r-220,-397r86,0r172,312r170,-312r86,0","w":552},"Z":{"d":"60,-622r0,-74r450,0r0,95r-357,509r0,19r357,0r0,74r-450,0r0,-95r357,-508r0,-20r-357,0","w":570},"[":{"d":"251,-749r0,72r-134,0r0,728r134,0r0,72r-210,0r-1,-872r211,0","w":300},"\\":{"d":"606,-8r-80,8r-304,-693r81,-8","w":833},"]":{"d":"3,-677r0,-72r211,0r-1,872r-210,0r0,-72r134,0r0,-728r-134,0","w":300},"^":{"d":"379,-439r-110,-215r-113,215r-140,0r181,-347r140,0r182,347r-140,0","w":712},"_":{"d":"27,14r428,0r0,70r-428,0r0,-70","w":520},"`":{"d":"154,-749r218,95r-28,65r-219,-91","w":545},"a":{"d":"275,-510v109,1,158,52,158,163r0,246v1,26,21,41,58,46r-3,65v-54,0,-93,-13,-118,-38v-60,25,-122,38,-185,38v-90,0,-137,-60,-136,-153v1,-101,54,-139,152,-148r158,-15r0,-41v0,-61,-29,-91,-87,-91v-49,0,-112,5,-191,14r-3,-66v80,-13,146,-20,197,-20xm125,-145v0,53,22,89,71,90v55,0,122,-17,163,-30r0,-160r-148,12v-57,5,-86,35,-86,88","w":522},"b":{"d":"491,-259v0,195,-46,269,-236,269v-49,0,-119,-6,-168,-11r0,-717r75,0r0,241v50,-22,99,-33,146,-33v151,0,183,86,183,251xm415,-257v0,-117,-12,-184,-114,-184v-44,0,-90,9,-139,27r0,351v43,4,74,6,92,6v140,-2,161,-57,161,-200","w":541},"c":{"d":"50,-259v0,-172,45,-251,207,-251v41,0,98,10,136,15r-2,65v-53,-6,-93,-9,-118,-9v-123,2,-146,52,-146,180v0,142,13,195,146,199r119,-9r3,65v-63,9,-109,14,-139,14v-174,-4,-206,-83,-206,-269","w":437},"d":{"d":"50,-248v0,-169,48,-260,209,-262v38,0,79,4,122,13r0,-203r75,0r0,700r-75,0r0,-33v-51,29,-102,43,-152,43v-144,0,-179,-106,-179,-258xm125,-246v0,105,17,187,114,187v50,0,108,-21,142,-37r0,-335v-55,-7,-95,-11,-118,-11v-113,2,-138,73,-138,196","w":543},"e":{"d":"126,-218v3,104,30,159,132,160v40,0,117,-5,154,-7r29,-2r2,61v-75,11,-140,16,-194,16v-157,-2,-199,-92,-199,-257v0,-175,70,-263,210,-263v144,0,201,82,201,234r-4,58r-331,0xm386,-279v-1,-109,-27,-164,-126,-164v-89,0,-134,55,-134,164r260,0","w":507},"f":{"d":"240,-660v-69,3,-73,37,-75,116r0,44r146,0r0,68r-146,0r0,432r-74,0r0,-432r-63,0r0,-68r63,0r0,-45v2,-128,19,-178,134,-182r101,7r-1,62v-37,-1,-66,-2,-85,-2","w":334},"g":{"d":"291,-71v137,0,194,18,194,147v0,109,-74,163,-223,163v-146,0,-215,-21,-215,-155v0,-70,32,-85,79,-124v-23,-16,-35,-60,-18,-97r24,-51v-52,-24,-78,-74,-78,-151v0,-114,62,-171,186,-171v33,0,68,4,104,13r146,-3r0,64r-90,0v21,22,31,54,31,97v-1,132,-61,167,-194,169v-18,0,-34,-1,-49,-4v-12,29,-18,48,-18,57v0,21,6,34,19,39v13,5,47,7,102,7xm409,79v0,-82,-35,-81,-123,-84r-109,-5v-35,29,-56,38,-56,88v0,84,45,94,142,94v88,0,146,-16,146,-93xm129,-339v0,78,28,105,108,105v83,0,119,-24,119,-105v0,-87,-29,-106,-117,-106v-77,0,-110,28,-110,106","w":518},"h":{"d":"162,0r-75,0r0,-730r75,0r0,254v56,-23,107,-34,154,-34v67,0,112,18,135,54v51,82,30,311,34,456r-75,0r0,-260v0,-69,-7,-116,-20,-142v-32,-65,-171,-32,-228,-10r0,412","w":565},"i":{"d":"81,0r0,-500r74,0r0,500r-74,0xm81,-613r0,-87r74,0r0,87r-74,0","w":236},"j":{"d":"93,-6r0,-494r74,0r0,495v0,61,-11,107,-33,138v-22,31,-66,63,-133,97r-33,-63v52,-30,86,-55,102,-76v16,-21,23,-53,23,-97xm93,-616r0,-88r74,0r0,88r-74,0","w":248},"k":{"d":"162,0r-75,0r0,-718r75,0r0,419r77,-4r149,-197r84,0r-167,230r170,270r-85,0r-150,-229r-78,4r0,225","w":497},"l":{"d":"84,0r0,-718r74,0r0,718r-74,0","w":242},"m":{"d":"162,-466v74,-49,216,-64,272,1v79,-30,140,-45,181,-45v67,0,112,18,135,54v52,81,30,311,34,456r-75,0v-3,-120,11,-324,-19,-400v-11,-28,-41,-41,-86,-41v-44,0,-91,12,-140,37v21,83,9,287,12,404r-75,0r0,-258v0,-72,-7,-120,-19,-146v-26,-58,-156,-36,-202,-9r-18,9r0,404r-75,0r0,-500r75,0r0,34","w":864},"n":{"d":"162,0r-75,0r0,-500r75,0r0,33v56,-29,108,-43,155,-43v67,0,111,18,134,54v51,82,30,311,34,456r-74,0r0,-259v0,-70,-7,-117,-20,-143v-13,-26,-42,-39,-86,-39v-44,0,-92,12,-143,37r0,404","w":568},"o":{"d":"50,-257v0,-169,52,-253,215,-253v158,0,213,90,213,255v0,176,-42,265,-213,265v-176,0,-215,-85,-215,-267xm127,-257v0,137,11,200,138,200v124,0,136,-66,136,-198v0,-121,-27,-187,-136,-187v-118,0,-138,57,-138,185","w":528},"p":{"d":"492,-256v0,183,-47,262,-218,266v-41,0,-78,-4,-112,-11r0,223r-75,0r0,-722r75,0r0,35v50,-30,100,-45,149,-45v144,0,181,94,181,254xm270,-57v123,0,146,-66,146,-201v0,-65,-10,-112,-29,-140v-19,-28,-48,-43,-86,-43v-43,0,-90,13,-139,39r0,334v32,7,68,11,108,11","w":542},"q":{"d":"50,-241v0,-179,52,-268,228,-269r172,10r0,722r-75,0r0,-239v-36,18,-78,27,-126,27v-152,-1,-199,-93,-199,-251xm126,-242v0,111,22,185,123,185v45,0,87,-10,126,-31r0,-350v-43,-3,-75,-4,-96,-4v-126,2,-153,68,-153,200","w":537},"r":{"d":"87,0r0,-500r75,0r0,66v51,-39,109,-64,174,-76r0,78v-61,11,-133,41,-174,69r0,363r-75,0","w":356},"s":{"d":"55,-364v0,-102,80,-145,180,-146v50,0,110,6,181,19r-2,65v-74,-11,-132,-16,-175,-16v-72,0,-108,25,-108,75v0,23,8,40,24,50v16,10,49,19,98,26v69,11,115,25,141,45v26,20,39,53,39,100v0,144,-122,168,-267,151v-31,-3,-56,-6,-76,-9r-30,-5r4,-65v77,11,133,17,167,17v79,-1,124,-13,126,-86v0,-25,-9,-43,-25,-53v-16,-10,-50,-19,-101,-27v-65,-10,-111,-24,-137,-43v-26,-19,-39,-51,-39,-98","w":489},"t":{"d":"237,11v-119,-3,-139,-53,-139,-183r0,-260r-71,0r0,-68r71,0r0,-153r75,0r0,153r158,0r0,68r-158,0r0,233v0,57,4,95,12,113v16,40,98,22,149,21r4,65v-44,7,-78,11,-101,11","w":363},"u":{"d":"397,-500r74,0r0,500r-74,0r0,-32v-52,28,-101,42,-148,42v-68,0,-113,-18,-135,-53v-50,-81,-30,-313,-34,-457r74,0r0,260v0,73,7,121,19,146v18,40,96,45,151,28v33,-10,49,-16,73,-28r0,-406","w":559},"v":{"d":"24,-500r78,0r120,436r37,0r122,-436r76,0r-142,500r-150,0","w":482},"w":{"d":"28,-500r75,0r100,432r16,0r120,-422r79,0r119,422r16,0r101,-432r75,0r-119,500r-127,0r-105,-391r-107,391r-125,0","w":757},"x":{"d":"27,-500r81,0r122,196r122,-196r82,0r-157,250r157,250r-82,0r-122,-195r-121,195r-82,0r156,-250","w":460},"y":{"d":"24,-500r75,0r125,428r34,0r125,-428r75,0r-208,722r-75,0r64,-222r-73,0","w":482},"z":{"d":"54,-432r0,-68r371,0r0,68r-281,364r281,0r0,68r-371,0r0,-68r281,-364r-281,0","w":479},"{":{"d":"89,-312v70,24,105,53,100,142r-7,116v2,81,30,104,114,110r-1,72v-129,-6,-190,-48,-192,-175r7,-122v-2,-71,-35,-92,-100,-110r0,-64v65,-17,104,-37,100,-108r-7,-128v2,-131,61,-170,192,-176r1,72v-84,6,-119,26,-114,108r7,123v-1,90,-29,115,-100,140","w":307},"|":{"d":"222,127r0,-847r76,0r0,847r-76,0"},"}":{"d":"211,-311v-70,-24,-105,-53,-100,-142r7,-116v-2,-81,-30,-104,-114,-110r1,-72v129,6,190,48,192,175r-7,122v2,71,35,92,100,110r0,64v-65,17,-104,37,-100,108r7,128v-2,131,-61,170,-192,176r-1,-72v84,-6,119,-26,114,-108r-7,-123v1,-90,29,-115,100,-140","w":307},"\u00a0":{"w":235},"\u00a2":{"d":"119,-248v0,111,28,144,139,139r124,-6r3,67v-39,5,-73,8,-101,10r0,119r-66,0r0,-117v-131,-9,-178,-66,-178,-212v0,-139,59,-211,177,-217r0,-118r66,0r0,121r101,10r-3,67v-61,-5,-105,-7,-130,-7v-103,1,-132,39,-132,144","w":437},"\u00a3":{"d":"191,-482v2,-138,24,-193,145,-198v25,0,69,6,131,17r0,73v-47,-9,-82,-14,-104,-14v-41,0,-67,11,-79,32v-12,21,-18,71,-19,150r158,0r0,69r-158,0r0,283r150,0r76,-16r13,68r-81,17r-309,1r0,-70r77,0r0,-284r-54,0r0,-68r54,0r0,-60","w":570},"\u00a5":{"d":"47,-315r0,-65r140,0r-174,-280r86,0r172,270r170,-270r86,0r-171,280r136,0r0,65r-174,0r-8,19r0,64r183,0r0,65r-183,0r0,167r-77,0r0,-167r-185,0r0,-65r185,0r0,-64r-8,-19r-178,0","w":540},"\u00a6":{"d":"220,-750r75,0r0,382r-75,0r0,-382xm220,-254r75,0r0,382r-75,0r0,-382"},"\u00a7":{"d":"90,-475v0,-106,66,-142,175,-143v42,0,94,4,156,13r-2,32v-71,-9,-122,-13,-154,-13v-93,0,-140,36,-140,109v1,47,8,74,38,92v36,20,57,23,110,32v59,10,101,23,127,41v26,18,39,52,39,99v0,42,-13,84,-39,127v24,19,36,50,36,93v0,105,-58,158,-173,158v-50,0,-122,-8,-168,-13r3,-32v73,9,128,14,165,14v92,0,138,-42,138,-126v0,-38,-11,-63,-31,-76v-49,-31,-190,-30,-240,-68v-33,-25,-46,-58,-46,-115v0,-37,17,-73,50,-110v-29,-22,-44,-60,-44,-114xm374,-102v29,-40,50,-157,-2,-186v-31,-28,-179,-40,-213,-59v-18,19,-40,60,-40,94v0,44,13,71,33,89v31,28,186,39,222,62"},"\u00a8":{"d":"82,-616r0,-96r77,0r0,96r-77,0xm270,-616r0,-96r77,0r0,96r-77,0","w":833},"\u00a9":{"d":"265,-169v-143,0,-255,-122,-255,-265v0,-143,112,-266,255,-266v143,0,256,123,256,266v0,143,-113,265,-256,265xm265,-668v-126,0,-223,108,-223,234v0,127,97,233,223,233v126,0,224,-107,224,-233v0,-126,-98,-234,-224,-234xm265,-555v-74,2,-77,42,-77,122v0,74,9,127,77,120r73,-8r1,32v-29,5,-53,8,-74,8v-89,-1,-109,-59,-109,-152v0,-95,18,-153,109,-154v25,0,50,2,74,7r-1,32v-27,-5,-52,-7,-73,-7"},"\u00aa":{"d":"263,-659v59,1,83,27,83,88r0,134v4,13,16,21,37,23r-2,28v-21,-1,-39,-8,-54,-22v-42,15,-82,22,-119,22v-43,0,-70,-35,-70,-80v0,-47,25,-72,75,-76r102,-7v2,-49,-3,-81,-52,-78r-104,7r-2,-31v46,-5,81,-8,106,-8xm315,-520r-97,6v-33,3,-45,15,-47,50v-4,70,84,42,128,34r16,-5r0,-85","w":518},"\u00ab":{"d":"387,-380r-135,106r135,117r0,41v-89,-75,-144,-121,-167,-138r0,-36r167,-129r0,39xm594,-380r-135,106r135,117r0,41v-89,-75,-144,-121,-167,-138r0,-36r167,-129r0,39","w":833},"\u00ad":{"d":"64,-244r0,-74r312,0r0,74r-312,0","w":440},"\u00ae":{"d":"265,-169v-143,0,-255,-122,-255,-265v0,-143,112,-266,255,-266v143,0,256,123,256,266v0,143,-113,265,-256,265xm265,-668v-126,0,-223,108,-223,234v0,127,97,233,223,233v126,0,224,-107,224,-233v0,-126,-98,-234,-224,-234xm254,-591v80,1,115,16,115,90v0,51,-20,81,-59,91r65,134r-35,0r-66,-131r-79,0r0,131r-32,0r0,-315r91,0xm337,-501v3,-70,-75,-56,-142,-58r0,120r80,0v46,-1,60,-15,62,-62"},"\u00b0":{"d":"244,-423v-83,0,-142,-58,-142,-141v0,-83,59,-142,142,-142v83,0,142,59,142,142v0,83,-59,141,-142,141xm244,-657v-54,0,-91,39,-91,93v0,54,37,92,91,92v54,0,93,-38,93,-92v0,-54,-39,-93,-93,-93"},"\u00b1":{"d":"39,-318r0,-69r192,0r0,-130r70,0r0,130r196,0r0,69r-196,0r0,130r-70,0r0,-130r-192,0xm40,-129r458,0r0,69r-458,0r0,-69"},"\u00b4":{"d":"121,-654r218,-95r29,69r-219,91","w":833},"\u00b5":{"d":"76,238r0,-738r75,0r0,270v0,68,6,114,19,138v34,62,177,27,223,-2r0,-406r74,0r0,500r-74,0r0,-32v-52,28,-101,42,-148,42v-44,0,-75,-11,-94,-32r0,260r-75,0"},"\u00b6":{"d":"57,-515v0,-106,80,-185,186,-185r368,0r0,73r-82,0r0,627r-75,0r0,-627r-129,0r0,627r-75,0r0,-332v-112,4,-193,-75,-193,-183","w":712},"\u00b8":{"d":"425,47v43,2,53,15,53,60v0,49,-12,63,-61,64v-8,0,-18,-1,-31,-4r2,-26v6,1,15,2,28,2v28,-1,28,-8,28,-36v0,-28,0,-31,-28,-32r-24,0r0,-76r33,0r0,48","w":833},"\u00ba":{"d":"259,-659v83,1,113,47,113,135v0,92,-38,138,-113,138v-77,0,-115,-46,-115,-138v0,-90,38,-135,115,-135xm178,-524v0,70,17,106,81,106v64,0,79,-36,79,-106v0,-70,-15,-103,-79,-103v-63,0,-81,34,-81,103","w":526},"\u00bb":{"d":"582,-274r-135,-106r0,-39r167,129r0,36v-23,17,-78,63,-167,138r0,-41xm375,-274r-135,-106r0,-39r167,129r0,36v-23,17,-78,63,-167,138r0,-41","w":833},"\u00c0":{"d":"31,0r190,-696r169,0r187,695r-76,0r-53,-174r-290,0r-50,175r-77,0xm279,-625r-103,376r256,0r-103,-376r-50,0xm194,-949r218,95r-28,65r-219,-91","w":604},"\u00c1":{"d":"31,0r190,-696r169,0r187,695r-76,0r-53,-174r-290,0r-50,175r-77,0xm279,-625r-103,376r256,0r-103,-376r-50,0xm181,-854r218,-95r29,69r-219,91","w":604},"\u00c2":{"d":"31,0r190,-696r169,0r187,695r-76,0r-53,-174r-290,0r-50,175r-77,0xm279,-625r-103,376r256,0r-103,-376r-50,0xm148,-788r125,-152r60,0r126,152r-78,0r-77,-90r-78,90r-78,0","w":604},"\u00c3":{"d":"31,0r190,-696r169,0r187,695r-76,0r-53,-174r-290,0r-50,175r-77,0xm279,-625r-103,376r256,0r-103,-376r-50,0xm373,-830v-38,0,-98,-54,-129,-54v-17,0,-40,14,-69,41r-25,-18v64,-59,97,-72,166,-27v60,39,63,35,118,-14r22,17v-34,37,-62,55,-83,55","w":604},"\u00c4":{"d":"31,0r190,-696r169,0r187,695r-76,0r-53,-174r-290,0r-50,175r-77,0xm279,-625r-103,376r256,0r-103,-376r-50,0xm171,-816r0,-96r77,0r0,96r-77,0xm359,-816r0,-96r77,0r0,96r-77,0","w":604},"\u00c5":{"d":"31,0r190,-696r169,0r187,695r-76,0r-53,-174r-290,0r-50,175r-77,0xm279,-625r-103,376r256,0r-103,-376r-50,0xm304,-754v-52,0,-94,-42,-94,-94v0,-52,42,-94,94,-94v52,0,94,42,94,94v0,52,-42,94,-94,94xm305,-909v-34,0,-61,27,-61,61v0,34,27,62,61,62v33,0,60,-29,60,-62v0,-33,-27,-61,-60,-61","w":604},"\u00c6":{"d":"429,0r0,-175r-251,0r-59,175r-79,0r224,-696r585,0r0,73r-344,0r0,230r284,0r0,73r-284,0r0,247r344,0r0,73r-420,0xm318,-614r-119,365r230,0r0,-365r-111,0","w":898},"\u00c7":{"d":"491,-83r3,70v-121,24,-222,39,-316,1v-68,-28,-101,-99,-116,-181v-7,-41,-11,-92,-11,-153v0,-125,19,-216,53,-274v45,-77,164,-98,288,-80v32,4,57,8,76,12r27,5r-4,69v-73,-11,-132,-17,-179,-17v-73,0,-120,23,-146,65v-45,72,-44,364,0,437v34,57,123,72,220,59v29,-4,54,-5,74,-8xm288,47v43,2,53,15,53,60v0,49,-12,63,-61,64v-8,0,-18,-1,-31,-4r2,-26v6,1,15,2,28,2v28,-1,28,-8,28,-36v0,-28,0,-31,-28,-32r-24,0r0,-76r33,0r0,48","w":537},"\u00c8":{"d":"103,0r0,-700r409,0r0,34r-373,0r0,289r313,0r0,34r-313,0r0,309r373,0r0,34r-409,0xm218,-932r192,96r-15,27r-193,-92","w":572},"\u00c9":{"d":"92,0r0,-696r420,0r0,73r-344,0r0,235r284,0r0,72r-284,0r0,243r344,0r0,73r-420,0xm196,-854r218,-95r29,69r-219,91","w":572},"\u00ca":{"d":"92,0r0,-696r420,0r0,73r-344,0r0,235r284,0r0,72r-284,0r0,243r344,0r0,73r-420,0xm154,-788r125,-152r60,0r126,152r-78,0r-77,-90r-78,90r-78,0","w":572},"\u00cb":{"d":"92,0r0,-696r420,0r0,73r-344,0r0,235r284,0r0,72r-284,0r0,243r344,0r0,73r-420,0xm177,-816r0,-96r77,0r0,96r-77,0xm365,-816r0,-96r77,0r0,96r-77,0","w":572},"\u00cc":{"d":"85,0r0,-696r77,0r0,696r-77,0xm13,-949r218,95r-28,65r-219,-91","w":226},"\u00cd":{"d":"85,0r0,-696r77,0r0,696r-77,0xm-20,-854r218,-95r29,69r-219,91","w":226},"\u00ce":{"d":"87,0r0,-696r77,0r0,696r-77,0xm-40,-788r125,-152r60,0r126,152r-78,0r-77,-90r-78,90r-78,0","w":231},"\u00cf":{"d":"85,0r0,-696r77,0r0,696r-77,0xm-19,-816r0,-96r77,0r0,96r-77,0xm169,-816r0,-96r77,0r0,96r-77,0","w":226},"\u00d0":{"d":"22,-306r0,-73r296,0r0,73r-296,0xm337,-696v199,0,256,134,256,337v0,107,-14,184,-51,253v-36,66,-104,106,-205,106r-247,0r0,-696r247,0xm513,-359v-1,-147,-31,-264,-176,-264r-171,0r0,550r171,0v117,0,176,-95,176,-286","w":642},"\u00d1":{"d":"86,0r0,-696r138,0r276,606r22,0r0,-606r77,0r0,696r-135,0r-280,-606r-21,0r0,606r-77,0xm412,-830v-38,0,-98,-54,-129,-54v-17,0,-40,14,-69,41r-25,-18v64,-59,98,-71,167,-27v60,39,60,34,117,-14r22,17v-34,37,-62,55,-83,55","w":687},"\u00d2":{"d":"328,-63v77,0,126,-23,154,-65v51,-76,51,-356,-1,-434v-30,-45,-78,-71,-153,-71v-75,0,-125,24,-154,69v-51,78,-51,358,0,435v28,43,77,66,154,66xm328,10v-103,0,-174,-28,-214,-85v-40,-57,-60,-146,-60,-269v0,-122,20,-212,60,-272v40,-60,112,-90,214,-90v102,0,173,30,213,89v40,59,60,150,60,273v0,125,-20,214,-59,270v-39,56,-111,84,-214,84xm228,-949r218,95r-28,65r-219,-91","w":656},"\u00d3":{"d":"328,-63v77,0,126,-23,154,-65v51,-76,51,-356,-1,-434v-30,-45,-78,-71,-153,-71v-75,0,-125,24,-154,69v-51,78,-51,358,0,435v28,43,77,66,154,66xm328,10v-103,0,-174,-28,-214,-85v-40,-57,-60,-146,-60,-269v0,-122,20,-212,60,-272v40,-60,112,-90,214,-90v102,0,173,30,213,89v40,59,60,150,60,273v0,125,-20,214,-59,270v-39,56,-111,84,-214,84xm195,-854r218,-95r29,69r-219,91","w":656},"\u00d4":{"d":"328,-63v77,0,126,-23,154,-65v51,-76,51,-356,-1,-434v-30,-45,-78,-71,-153,-71v-75,0,-125,24,-154,69v-51,78,-51,358,0,435v28,43,77,66,154,66xm328,10v-103,0,-174,-28,-214,-85v-40,-57,-60,-146,-60,-269v0,-122,20,-212,60,-272v40,-60,112,-90,214,-90v102,0,173,30,213,89v40,59,60,150,60,273v0,125,-20,214,-59,270v-39,56,-111,84,-214,84xm173,-788r125,-152r60,0r126,152r-78,0r-77,-90r-78,90r-78,0","w":656},"\u00d5":{"d":"328,-63v77,0,126,-23,154,-65v51,-76,51,-356,-1,-434v-30,-45,-78,-71,-153,-71v-75,0,-125,24,-154,69v-51,78,-51,358,0,435v28,43,77,66,154,66xm328,10v-103,0,-174,-28,-214,-85v-40,-57,-60,-146,-60,-269v0,-122,20,-212,60,-272v40,-60,112,-90,214,-90v102,0,173,30,213,89v40,59,60,150,60,273v0,125,-20,214,-59,270v-39,56,-111,84,-214,84xm398,-830v-38,0,-98,-54,-129,-54v-17,0,-40,14,-69,41r-25,-18v64,-59,98,-71,167,-27v60,39,60,34,117,-14r22,17v-34,37,-62,55,-83,55","w":656},"\u00d6":{"d":"328,-63v77,0,126,-23,154,-65v51,-76,51,-356,-1,-434v-30,-45,-78,-71,-153,-71v-75,0,-125,24,-154,69v-51,78,-51,358,0,435v28,43,77,66,154,66xm328,10v-103,0,-174,-28,-214,-85v-40,-57,-60,-146,-60,-269v0,-122,20,-212,60,-272v40,-60,112,-90,214,-90v102,0,173,30,213,89v40,59,60,150,60,273v0,125,-20,214,-59,270v-39,56,-111,84,-214,84xm196,-816r0,-96r77,0r0,96r-77,0xm384,-816r0,-96r77,0r0,96r-77,0","w":656},"\u00d7":{"d":"234,-512r187,193r188,-193r51,48r-189,195r190,196r-50,48r-190,-194r-189,194r-50,-48r190,-196r-188,-195","w":712},"\u00d8":{"d":"146,-43v-73,-60,-90,-161,-91,-301v0,-123,20,-214,60,-273v40,-59,111,-89,213,-89v45,0,85,7,119,20r53,-115r70,27r-58,125v60,53,90,154,90,305v0,125,-20,214,-60,270v-40,56,-111,84,-214,84v-45,0,-84,-6,-117,-18r-58,126r-68,-30xm134,-344v0,107,18,179,53,214r227,-486v-30,-10,-60,-17,-105,-14v-151,12,-175,114,-175,286xm328,-63v77,0,128,-22,154,-65v26,-43,40,-115,40,-216v0,-107,-17,-181,-50,-220r-229,487v24,9,52,14,85,14","w":656},"\u00d9":{"d":"319,9v-156,0,-239,-62,-239,-219r0,-486r77,0r0,486v0,97,54,145,162,145v108,-1,169,-38,169,-145r0,-486r76,0r0,486v0,157,-86,219,-245,219xm223,-949r218,95r-28,65r-219,-91","w":642},"\u00da":{"d":"319,9v-156,0,-239,-62,-239,-219r0,-486r77,0r0,486v0,97,54,145,162,145v108,-1,169,-38,169,-145r0,-486r76,0r0,486v0,157,-86,219,-245,219xm190,-854r218,-95r29,69r-219,91","w":642},"\u00db":{"d":"319,9v-156,0,-239,-62,-239,-219r0,-486r77,0r0,486v0,97,54,145,162,145v108,-1,169,-38,169,-145r0,-486r76,0r0,486v0,157,-86,219,-245,219xm168,-788r125,-152r60,0r126,152r-78,0r-77,-90r-78,90r-78,0","w":642},"\u00dc":{"d":"319,9v-156,0,-239,-62,-239,-219r0,-486r77,0r0,486v0,97,54,145,162,145v108,-1,169,-38,169,-145r0,-486r76,0r0,486v0,157,-86,219,-245,219xm192,-816r0,-96r77,0r0,96r-77,0xm380,-816r0,-96r77,0r0,96r-77,0","w":642},"\u00dd":{"d":"310,-298r0,298r-77,0r0,-299r-220,-397r86,0r172,312r170,-312r86,0xm131,-854r218,-95r29,69r-219,91","w":540},"\u00de":{"d":"467,-361v0,-102,-43,-148,-144,-149r-176,0r0,315r176,0v96,0,144,-55,144,-166xm545,-361v0,152,-71,240,-221,240r-177,0r0,121r-76,0r0,-696r76,0r0,112r177,0v152,0,221,71,221,223","w":581},"\u00df":{"d":"366,-676v-110,0,-117,36,-117,157r0,519r-36,0r0,-532v3,-134,24,-178,153,-178v123,0,185,26,190,135v5,90,-64,96,-122,125v-13,8,-14,27,0,38v40,30,163,85,200,134v5,7,7,16,7,27v1,130,-22,213,-116,245v-48,17,-134,16,-200,11r4,-34v81,7,127,6,182,-9v51,-14,78,-61,87,-113v4,-24,5,-57,5,-100v0,-8,-10,-18,-27,-31v-22,-17,-156,-92,-176,-110v-19,-17,-20,-63,0,-79v26,-21,94,-34,111,-58v5,-7,7,-23,7,-46v-3,-87,-54,-101,-152,-101","w":833},"\u00e0":{"d":"267,-510v109,1,158,52,158,163r0,246v1,26,21,41,58,46r-3,65v-54,0,-93,-13,-118,-38v-60,25,-122,38,-185,38v-90,0,-137,-60,-136,-153v1,-101,54,-139,152,-148r158,-15r0,-41v0,-61,-29,-91,-87,-91v-49,0,-112,5,-191,14r-3,-66v80,-13,146,-20,197,-20xm117,-145v0,53,22,89,71,90v55,0,122,-17,163,-30r0,-160r-148,12v-57,5,-86,35,-86,88xm143,-749r218,95r-28,65r-219,-91","w":536},"\u00e1":{"d":"41,-143v-1,93,46,153,136,153v63,0,124,-13,185,-38v25,25,64,38,118,38r3,-65v-37,-5,-58,-20,-58,-46r0,-246v0,-111,-49,-162,-158,-163v-60,0,-146,11,-197,20r3,66v79,-9,142,-14,191,-14v58,0,87,30,87,91r0,41v-94,13,-222,6,-273,57v-25,23,-37,59,-37,106xm188,-55v-49,0,-72,-37,-71,-90v0,-53,29,-83,86,-88r148,-12r0,160v-58,20,-112,30,-163,30xm170,-654r218,-95r29,69r-219,91","w":536},"\u00e2":{"d":"41,-143v-1,93,46,153,136,153v63,0,124,-13,185,-38v25,25,64,38,118,38r3,-65v-37,-5,-58,-20,-58,-46r0,-246v0,-111,-49,-162,-158,-163v-60,0,-146,11,-197,20r3,66v79,-9,142,-14,191,-14v58,0,87,30,87,91r0,41v-94,13,-222,6,-273,57v-25,23,-37,59,-37,106xm188,-55v-49,0,-72,-37,-71,-90v0,-53,29,-83,86,-88r148,-12r0,160v-58,20,-112,30,-163,30xm90,-588r125,-152r60,0r126,152r-78,0r-77,-90r-78,90r-78,0","w":536},"\u00e3":{"d":"41,-143v-1,93,46,153,136,153v63,0,124,-13,185,-38v25,25,64,38,118,38r3,-65v-37,-5,-58,-20,-58,-46r0,-246v0,-111,-49,-162,-158,-163v-60,0,-146,11,-197,20r3,66v79,-9,142,-14,191,-14v58,0,87,30,87,91r0,41v-94,13,-222,6,-273,57v-25,23,-37,59,-37,106xm188,-55v-49,0,-72,-37,-71,-90v0,-53,29,-83,86,-88r148,-12r0,160v-58,20,-112,30,-163,30xm315,-630v-38,0,-98,-54,-129,-54v-17,0,-40,14,-69,41r-25,-18v64,-59,97,-72,166,-27v60,39,63,35,118,-14r22,17v-34,37,-62,55,-83,55","w":536},"\u00e4":{"d":"41,-143v-1,93,46,153,136,153v63,0,124,-13,185,-38v25,25,64,38,118,38r3,-65v-37,-5,-58,-20,-58,-46r0,-246v0,-111,-49,-162,-158,-163v-60,0,-146,11,-197,20r3,66v79,-9,142,-14,191,-14v58,0,87,30,87,91r0,41v-94,13,-222,6,-273,57v-25,23,-37,59,-37,106xm188,-55v-49,0,-72,-37,-71,-90v0,-53,29,-83,86,-88r148,-12r0,160v-58,20,-112,30,-163,30xm111,-616r0,-96r77,0r0,96r-77,0xm299,-616r0,-96r77,0r0,96r-77,0","w":536},"\u00e5":{"d":"41,-143v-1,93,46,153,136,153v63,0,124,-13,185,-38v25,25,64,38,118,38r3,-65v-37,-5,-58,-20,-58,-46r0,-246v0,-111,-49,-162,-158,-163v-60,0,-146,11,-197,20r3,66v79,-9,142,-14,191,-14v58,0,87,30,87,91r0,41v-94,13,-222,6,-273,57v-25,23,-37,59,-37,106xm188,-55v-49,0,-72,-37,-71,-90v0,-53,29,-83,86,-88r148,-12r0,160v-58,20,-112,30,-163,30xm245,-554v-53,0,-94,-41,-94,-94v0,-52,42,-94,94,-94v52,0,94,42,94,94v0,52,-42,94,-94,94xm246,-709v-34,0,-61,27,-61,61v0,34,27,62,61,62v33,0,60,-29,60,-62v0,-33,-27,-61,-60,-61","w":536},"\u00e6":{"d":"438,-218v1,105,30,159,132,160v41,0,116,-5,154,-7r29,-2r2,61v-138,17,-271,39,-341,-38v-64,31,-147,54,-224,54v-92,0,-137,-58,-136,-153v2,-121,60,-140,180,-151r129,-12r0,-41v0,-61,-29,-91,-86,-91v-57,-1,-137,7,-191,10r-2,-67v79,-10,145,-15,196,-15v68,0,113,24,135,73v32,-49,84,-73,156,-73v143,2,203,82,202,234r-4,58r-331,0xm201,-55v45,0,154,-25,179,-37v-12,-34,-18,-85,-18,-153r-147,12v-56,5,-84,29,-85,88v0,60,24,90,71,90xm698,-279v-1,-109,-27,-164,-127,-164v-97,0,-133,58,-133,164r260,0","w":828},"\u00e7":{"d":"50,-259v0,-172,45,-251,207,-251v41,0,98,10,136,15r-2,65v-53,-6,-93,-9,-118,-9v-123,2,-146,52,-146,180v0,142,13,195,146,199r119,-9r3,65v-63,9,-109,14,-139,14v-174,-4,-206,-83,-206,-269xm253,47v43,2,53,15,53,60v0,49,-12,63,-61,64v-8,0,-18,-1,-31,-4r2,-26v6,1,15,2,28,2v28,-1,28,-8,28,-36v0,-28,0,-31,-28,-32r-24,0r0,-76r33,0r0,48","w":437},"\u00e8":{"d":"125,-218v3,104,30,159,132,160v40,0,117,-5,154,-7r29,-2r2,61v-75,11,-140,16,-194,16v-157,-2,-199,-92,-199,-257v0,-175,70,-263,210,-263v144,0,201,82,201,234r-4,58r-331,0xm385,-279v-1,-109,-27,-164,-126,-164v-89,0,-134,55,-134,164r260,0xm135,-749r218,95r-28,65r-219,-91","w":497},"\u00e9":{"d":"125,-218v3,104,30,159,132,160v40,0,117,-5,154,-7r29,-2r2,61v-75,11,-140,16,-194,16v-157,-2,-199,-92,-199,-257v0,-175,70,-263,210,-263v144,0,201,82,201,234r-4,58r-331,0xm385,-279v-1,-109,-27,-164,-126,-164v-89,0,-134,55,-134,164r260,0xm144,-654r218,-95r29,69r-219,91","w":497},"\u00ea":{"d":"125,-218v3,104,30,159,132,160v40,0,117,-5,154,-7r29,-2r2,61v-75,11,-140,16,-194,16v-157,-2,-199,-92,-199,-257v0,-175,70,-263,210,-263v144,0,201,82,201,234r-4,58r-331,0xm385,-279v-1,-109,-27,-164,-126,-164v-89,0,-134,55,-134,164r260,0xm110,-588r125,-152r60,0r126,152r-78,0r-77,-90r-78,90r-78,0","w":497},"\u00eb":{"d":"125,-218v3,104,30,159,132,160v40,0,117,-5,154,-7r29,-2r2,61v-75,11,-140,16,-194,16v-157,-2,-199,-92,-199,-257v0,-175,70,-263,210,-263v144,0,201,82,201,234r-4,58r-331,0xm385,-279v-1,-109,-27,-164,-126,-164v-89,0,-134,55,-134,164r260,0xm135,-616r0,-96r77,0r0,96r-77,0xm323,-616r0,-96r77,0r0,96r-77,0","w":497},"\u00ec":{"d":"-1,-749r218,95r-28,65r-219,-91xm95,0r0,-500r74,0r0,500r-74,0","w":261},"\u00ed":{"d":"28,-654r218,-95r29,69r-219,91xm95,0r0,-500r74,0r0,500r-74,0","w":261},"\u00ee":{"d":"95,0r0,-500r74,0r0,500r-74,0xm-25,-588r125,-152r60,0r126,152r-78,0r-77,-90r-78,90r-78,0","w":261},"\u00ef":{"d":"-2,-616r0,-96r77,0r0,96r-77,0xm186,-616r0,-96r77,0r0,96r-77,0xm95,0r0,-500r74,0r0,500r-74,0","w":261},"\u00f1":{"d":"91,0r75,0r0,-404v51,-25,99,-37,143,-37v44,0,73,13,86,39v13,26,20,73,20,143r0,259r74,0v-4,-146,15,-372,-34,-456v-30,-51,-128,-67,-205,-43v-38,11,-57,18,-84,32r0,-33r-75,0r0,500xm368,-630v-38,0,-98,-54,-129,-54v-17,0,-40,14,-69,41r-25,-18v64,-59,98,-71,167,-27v60,39,60,34,117,-14r22,17v-34,37,-62,55,-83,55","w":574},"\u00f2":{"d":"71,-257v0,-169,52,-253,215,-253v158,0,213,90,213,255v0,176,-42,265,-213,265v-176,0,-215,-85,-215,-267xm148,-257v0,137,11,200,138,200v124,0,136,-66,136,-198v0,-121,-27,-187,-136,-187v-118,0,-138,57,-138,185xm143,-749r218,95r-28,65r-219,-91","w":536},"\u00f3":{"d":"499,-255v0,-165,-55,-255,-213,-255v-163,0,-215,84,-215,253v0,182,39,267,215,267v171,0,213,-90,213,-265xm422,-255v0,133,-12,198,-136,198v-127,0,-138,-63,-138,-200v0,-128,20,-185,138,-185v109,0,136,67,136,187xm150,-654r218,-95r29,69r-219,91","w":536},"\u00f4":{"d":"499,-255v0,-165,-55,-255,-213,-255v-163,0,-215,84,-215,253v0,182,39,267,215,267v171,0,213,-90,213,-265xm422,-255v0,133,-12,198,-136,198v-127,0,-138,-63,-138,-200v0,-128,20,-185,138,-185v109,0,136,67,136,187xm108,-588r125,-152r60,0r126,152r-78,0r-77,-90r-78,90r-78,0","w":536},"\u00f5":{"d":"499,-255v0,-165,-55,-255,-213,-255v-163,0,-215,84,-215,253v0,182,39,267,215,267v171,0,213,-90,213,-265xm422,-255v0,133,-12,198,-136,198v-127,0,-138,-63,-138,-200v0,-128,20,-185,138,-185v109,0,136,67,136,187xm333,-630v-38,0,-98,-54,-129,-54v-17,0,-40,14,-69,41r-25,-18v64,-59,97,-72,166,-27v60,39,63,35,118,-14r22,17v-34,37,-62,55,-83,55","w":536},"\u00f6":{"d":"499,-255v0,-165,-55,-255,-213,-255v-163,0,-215,84,-215,253v0,182,39,267,215,267v171,0,213,-90,213,-265xm422,-255v0,133,-12,198,-136,198v-127,0,-138,-63,-138,-200v0,-128,20,-185,138,-185v109,0,136,67,136,187xm131,-616r0,-96r77,0r0,96r-77,0xm319,-616r0,-96r77,0r0,96r-77,0","w":536},"\u00f7":{"d":"100,-361r0,-75r255,0r0,75r-255,0xm113,-381r0,-97r226,0r0,97r-226,0xm189,-102r0,-101r77,0r0,101r-77,0"},"\u00f8":{"d":"60,-261v0,-174,42,-244,205,-248v31,0,59,4,83,12r40,-96r30,11r-40,98v59,34,88,109,88,225v0,98,-14,167,-41,207v-27,40,-81,61,-160,61v-33,0,-61,-3,-85,-9r-42,104r-30,-10r42,-104v-80,-40,-90,-120,-90,-251xm265,-477v-144,4,-168,61,-168,216v0,65,4,115,13,148v9,33,26,57,53,71r173,-424v-22,-7,-46,-11,-71,-11xm193,-30v42,11,124,9,159,-6v44,-18,65,-66,72,-118v3,-26,5,-61,5,-105v0,-97,-22,-161,-65,-192","w":526},"\u00f9":{"d":"402,-500r74,0r0,500r-74,0r0,-32v-52,28,-101,42,-148,42v-68,0,-114,-18,-136,-53v-50,-81,-29,-313,-33,-457r74,0r0,260v0,73,7,121,19,146v18,39,95,45,150,28v33,-10,50,-17,74,-28r0,-406xm152,-749r218,95r-28,65r-219,-91","w":511},"\u00fa":{"d":"476,-500r-74,0r0,406v-47,25,-93,37,-137,37v-45,0,-74,-12,-87,-37v-13,-25,-19,-73,-19,-146r0,-260r-74,0v4,145,-17,375,33,457v22,35,68,53,136,53v46,0,95,-14,148,-42r0,32r74,0r0,-500xm159,-654r218,-95r29,69r-219,91","w":511},"\u00fb":{"d":"476,-500r-74,0r0,406v-47,25,-93,37,-137,37v-45,0,-74,-12,-87,-37v-13,-25,-19,-73,-19,-146r0,-260r-74,0v4,145,-17,375,33,457v22,35,68,53,136,53v46,0,95,-14,148,-42r0,32r74,0r0,-500xm117,-588r125,-152r60,0r126,152r-78,0r-77,-90r-78,90r-78,0","w":511},"\u00fc":{"d":"476,-500r-74,0r0,406v-47,25,-93,37,-137,37v-45,0,-74,-12,-87,-37v-13,-25,-19,-73,-19,-146r0,-260r-74,0v4,145,-17,375,33,457v22,35,68,53,136,53v46,0,95,-14,148,-42r0,32r74,0r0,-500xm140,-616r0,-96r77,0r0,96r-77,0xm328,-616r0,-96r77,0r0,96r-77,0","w":511},"\u00fd":{"d":"17,-500r75,0r125,428r34,0r125,-428r75,0r-208,722r-75,0r64,-222r-73,0xm133,-654r218,-95r29,69r-219,91","w":480},"\u00fe":{"d":"441,-257v0,-116,-12,-184,-113,-184v-48,0,-106,13,-140,27r0,351v44,4,75,6,93,6v140,-2,160,-57,160,-200xm518,-259v0,195,-47,266,-237,269v-31,0,-62,-2,-93,-5r0,217r-74,0r0,-940r74,0r0,241v51,-22,100,-33,147,-33v151,0,183,86,183,251","w":538},"\u00ff":{"d":"30,-500r155,500r61,0r-72,230r37,0r229,-730r-37,0r-148,468r-41,0r-147,-468r-37,0xm137,-638r0,-62r35,0r0,62r-35,0xm307,-638r0,-62r35,0r0,62r-35,0","w":480},"\u0152":{"d":"880,1r-413,0v-155,19,-292,14,-351,-75v-37,-56,-56,-146,-56,-271v0,-126,19,-218,58,-275v39,-57,108,-86,207,-86v53,0,99,10,141,10r414,0r0,74r-338,0r0,229r278,0r0,74r-278,0r0,245r338,0r0,75xm178,-128v47,70,164,68,288,56r0,-550v-70,-6,-114,-9,-133,-9v-75,0,-124,24,-153,65v-50,71,-50,366,-2,438","w":944},"\u0153":{"d":"486,-218v2,104,31,159,132,160v40,0,117,-5,154,-7r29,-2r2,61v-75,11,-140,16,-194,16v-79,0,-133,-28,-163,-83v-27,55,-85,83,-172,83v-176,0,-215,-85,-215,-267v0,-169,52,-251,215,-253v88,0,146,31,175,94v32,-63,89,-94,171,-94v144,2,201,82,201,234r-4,58r-331,0xm136,-257v0,137,11,200,138,200v124,0,136,-66,136,-198v0,-121,-27,-187,-136,-187v-118,0,-138,57,-138,185xm746,-279v-1,-109,-27,-164,-126,-164v-89,0,-134,55,-134,164r260,0","w":876},"\u0178":{"d":"289,-301r0,301r-36,0r0,-301r-228,-399r41,0r205,359r202,-359r42,0xm167,-838r0,-62r35,0r0,62r-35,0xm337,-838r0,-62r35,0r0,62r-35,0","w":540},"\u02c6":{"d":"255,-588r125,-152r60,0r126,152r-78,0r-77,-90r-78,90r-78,0","w":833},"\u02dc":{"d":"301,-630v-38,0,-98,-54,-129,-54v-17,0,-40,14,-69,41r-25,-18v64,-59,97,-72,166,-27v60,39,63,35,118,-14r22,17v-34,37,-62,55,-83,55","w":833},"\u2018":{"d":"134,-727r-43,219r-77,0r52,-219r68,0","w":170},"\u2019":{"d":"35,-527r43,-219r77,0r-52,219r-68,0","w":170},"\u2022":{"d":"247,0r0,-80r40,0r0,80r-40,0"},"\u20ac":{"d":"337,10v-173,-1,-227,-73,-244,-233r-63,0r0,-62r59,0v-1,-17,-1,-77,0,-94r-59,0r0,-62r63,0v18,-160,71,-233,244,-234v61,0,120,6,177,19r-3,69v-111,-14,-232,-31,-291,24v-26,24,-41,65,-47,122r270,1r0,61r-275,0r0,94r275,1r0,61r-270,0v14,111,52,157,174,158v42,0,97,-5,164,-14r3,70v-65,13,-124,19,-177,19","w":555},"\u2122":{"d":"7,-590r0,-31r200,0r0,31r-83,0r0,258r-33,0r0,-258r-84,0xm242,-331r0,-290r50,0r84,242r87,-242r50,0r0,290r-32,0r0,-258r-88,247r-35,0r-84,-247r0,258r-32,0"}}});
